{"biases":[-0.002669341346345591,0.0054437646738229395,0.015747052074791195,-0.0062029457516052065,-0.009692827766194222,0.023972344284718932,0.004577605223217396,-0.006380009466373054,0.012148479396293599,0.013769909822662268,0.009564351108597954,0.009248552257918036,0.006978676539541844,-0.003257987470826067,0.014280160413154235,-0.004500148891565924,0.007897485394608423,0.01336540069574206,0.010199061452245774,-0.003884662367400309,0.01408076220252468,0.0031728122440552,0.020602728728430518,0.0042197290253043855,0.0025726779859179855,0.0028100998741879034,-0.0006503842166768573,0.014341470895844213,0.007808345268861214,0.001688102937095251,-0.00569130510669503,-0.008816236084219982,-0.0011184518700846648,0.0073176507429431985,0.0051324365631589455,0.016080651017827925,0.007784450245620469,0.005468449920561247,-0.013569625718428235,0.009248018779093082,8.229497645115764e-06,-0.0013334775827849178,0.00821745364405531,0.013333885450934824,0.011208683997476071,0.011361684916627715,0.010788492066624116,0.008628675017200611,0.0040944118407769976,0.0055500664189647,-0.00445919734325574,0.013367113218128019,0.001052520536891905,-0.011383971458124647,-0.0009810374241510677,0.0017850014083858647,0.014477877491813422,0.018130892955598086,-0.0017642061004466464,-0.003180169771993865,0.01420997439358628,0.004375848727820066,0.010581056202713011,-0.0016721543900212652,-0.004458846057538275,0.015255755364818704,0.005648834872597256,0.0078686170565334,4.000791644499489e-05,-0.010637219113038074,0.011818748246099391,0.020466068701791806,0.008317614595559346,0.011658134958576765,0.009616693765168705,0.010742407394815072,0.002395729426283336,0.00630256825213631,0.016663940683937364,0.008628959477091705,0.009750684783492523,-0.0009480497900518574,0.008875927552376768,0.004483378390813762,-0.0031607201698922558,0.01000539515258128,0.01790774867931987,0.01373109664848217,0.010043795394108523,-0.0019834159787707455,0.010796541323757349,0.010654532836173502,0.008754506180975308,0.007196138446150299,0.006812124850566968,-0.013706274510024744,0.001411593971780236,0.019412284815075703,-0.006225771302969729,0.009843524691871431,-0.12833915498108203,-0.10216643168673543,-0.07517169410514994,-0.10706062795290769,-0.07764260942077418,-0.037294349427287515,-0.09794127143651009,-0.0951510135579062,-0.11640741553522627,-0.12082095751917579],"layers":[784,100,10],"weights":[-0.03307765414411737,-0.09858260856789167,-0.007399113085612567,0.0037007127461660453,-0.007377399749618262,-0.026783762674680772,-0.00043054604134435017,0.023717046882618546,-0.045496765203255254,-0.053777779445322256,-0.03794468098583418,0.03851807410779926,0.020714528531314853,-0.034527873575713304,0.004809639733500918,0.04313755626022214,0.03252266624778583,0.03278645700564918,0.03008026985423457,-0.0054819846411862504,-0.04623979585069592,0.02144424790034193,-0.06291572547900381,0.057299574414370134,-0.011015934970255126,-0.010634429920132952,-0.05980331390235714,0.019602699131544173,-0.009581396826082668,0.02435207684248352,0.029537268709845722,-0.024843336777328258,-0.046658903307527845,0.006490620642913668,-0.03451518798371978,-0.10063076306445562,0.003917110162006682,-0.026029609625922174,-0.004572934780617414,-0.013321272571326554,0.0003167116160578023,0.020027279373073786,0.019627074904205434,-0.018772769665651116,0.018529183699002055,0.042012704911162047,-0.011671512295669694,0.005349195562462087,0.055706160815647686,-0.002921825949082552,0.026658958879685772,-0.0026062211801774295,0.04608798496253324,0.1331322010878115,0.03908409221572884,-0.005408634273225387,0.02446662376349037,0.02790386069650735,-0.014775921755059587,-0.06485307719996382,-0.048172442431505536,0.02864041300506785,-0.0029464629871058675,0.016586347017792442,-9.252857969199045e-05,0.0493372115335654,0.0025482768449912327,-0.0595590671199238,-0.005663171204007821,-0.023978523981066067,-0.012180694313762183,-0.009184869207296917,0.012880785127390932,0.005088801441813152,-0.014976534476444772,0.012604881209320585,-0.009798999105069149,-0.05161635841179999,0.017081953118110307,-0.0008004287039330981,0.0577565389320717,-0.0029751618799699294,0.00028464673251063646,-0.014293048165925734,-0.03889149125661571,0.0034104143274803146,-0.025318301235334767,-0.004714038385335348,-0.05282859837122405,-0.00990892113718401,-0.04190736771053622,0.062342938469413,-0.02974957954781225,0.0028405109146250455,0.01945957848406247,-0.0085284762073998,-0.07298267145734934,0.014556627838073422,0.0161978741580072,-0.037210889271718214,-0.03774435494297529,-0.014161040976614414,-0.06703509447899657,0.018337689112277285,0.01281863604668582,0.003506234170502158,-0.04133117522485196,0.04139433536527032,0.004832809937831531,-0.002902955214974287,0.02965579807902007,-0.05190981519832682,-0.018767669691552025,-0.04246130183761187,0.024554222647942762,-0.009213467921812877,0.01581520737592654,0.02070478474561277,0.02993599340652378,-0.05168885166172366,0.031302650315133,-0.027903640797361597,0.024993625745998144,-0.040485844897019764,-0.009805344918290508,-0.048180191012692,0.061379308148634064,-0.06258400055746738,-0.046758166033423906,0.0012430314692804573,0.01431932024883977,0.026546800241642545,0.055957428996383354,0.010579378681980157,-0.058377184133342766,-0.0134592378737329,-0.033503829333638935,-0.020802855074585215,-0.03592324716108143,0.020409690099574638,-0.06780958600562963,0.06390731472354506,-0.04929793446404047,-0.03142042865842464,0.019469959988429344,0.011288508274432271,0.029235735790909965,0.028049346024404006,-0.024681043289435572,0.013928701813898143,0.021668201274787795,-0.006196938283972199,0.08430383418839306,-0.009499099368718742,-0.01999021377445614,-0.028864630478730384,0.012522276431485384,0.021028105869383314,0.05321105760790108,0.016060884504587068,-0.02913317412340478,-0.04110564807983511,-0.019293399028105906,0.004148273767196234,0.042710923172105585,0.03006826435266274,-0.013828310671487569,-0.01190976670817949,0.027359465396211403,0.059933288962450336,-0.03116464067843954,0.003075466046439909,-0.03718849171154837,-0.0375738979029547,0.058187075273904966,0.0564412908407104,-0.03208543238963141,0.005728081560392948,0.006719793123382229,0.008113109344770594,-0.06694431153579224,0.07509183064097856,-0.017776006073730723,-0.002357808162122338,-0.002668924093453782,0.012196433643901909,0.07511944753907591,0.005568084712837427,-0.04866277058759836,0.02931933958620229,0.05562678507104847,0.033231704064710106,-0.008045277915082994,-0.010217394641467275,-0.02995515005506679,-0.007371402048349568,0.018550747673480177,0.012336882144340826,0.011470270556949689,0.07242066235178822,0.01629850665181166,-0.008768435954520813,-0.014166219538368354,-0.041068975455665103,-0.057673839171152895,-0.005573060290977675,0.052629231610349624,-0.002999060936300942,0.03890874893398594,0.029753456205391972,-0.05716056591682418,0.051837183399018265,0.050120010090559754,0.04924958154671153,-0.03090574122774515,0.032803748877935,0.051072461922145714,0.019033009981626013,-0.0009684884789822086,-0.031773598165274086,-0.0025174286596726173,-0.026260283489426346,0.04752461893306834,-0.012897141061297409,0.027746527553239222,-0.0004600957588067666,-0.0040778726401286425,0.036839743055564665,0.018193138409948923,0.011404651031434334,0.08089447095715137,0.0663061534153755,0.03971536686648134,-0.009699646268551803,0.03927512025171196,0.022689037762944647,-0.028927139028166456,-0.03967638629143818,-0.028503086249175018,0.03937501799619832,0.03854243065158108,-0.004070519947734474,-0.037366490891606784,-0.02975147574507497,0.01629053678449539,-0.03840430649570316,0.004271371840953435,0.0057159453713140004,0.012909271507078119,0.002628919039825859,-0.019530572306993416,0.06500902451864711,0.0268309744598081,0.002001187226411289,0.003096074209696049,0.0034175860124950126,-0.0634131145019372,0.0017744419433206632,-0.09547266748138786,0.02401771223268768,-0.009260011932632622,-0.051176392417128826,-0.02030917541987987,-0.03505643284688825,0.01849316204552925,0.02119165385457161,0.005404382462042479,-0.02129238409319224,0.027584941792693354,0.026125386294832752,-0.018040322931146803,-0.016221457132868156,-0.009306311634424433,-0.03117882418791055,0.01817892337104863,0.0008236431670516394,0.0031999126922637585,-0.004506998408791492,-0.033013363769650236,-0.031059471231088296,0.04819382683609107,0.01122482084999372,0.03787081684073685,0.028871345350520376,0.033290136588270965,-0.04854787652497098,0.02472723453459321,-0.07949931640349815,-0.017751752508715152,0.0449017863888595,0.025159668835061023,0.04093134534150383,0.07536066302877915,-0.10698708181136728,0.037989375825757225,-0.0585893148758844,-0.025775917841946206,-0.01858988897356652,0.03013449242577737,0.014213513914626996,0.047396187252026344,-0.03327474076726259,0.004474593974302874,0.027480359473417156,-0.002759355342142611,-0.015430759337798527,-0.012737150127973227,-0.009739311310150716,0.027348367896316624,0.04880527829720333,-0.015408513917299504,-0.05211090535096362,-0.07299111956189198,0.029426793411506315,-0.08070643145660884,-0.0449210625718915,0.03269092710596131,0.048487436941111746,-0.03243148505793791,0.03476137147184237,-0.003978630426340108,-0.00419256663625756,0.04999536099919041,0.04259524064779563,0.017111924083453172,0.0023612717348269487,-0.045232191478648855,0.03577806082164736,-0.0016094067134656091,-0.024679670286718424,0.029595793831805,0.01647115394584638,0.008086694579025973,-0.01383433760890998,-0.03465418152495408,0.015434482735782186,-0.004352463988240266,-0.03068062254060109,0.001531297371185241,-0.03685153847680027,0.042942791462297084,-0.04931224546525607,0.07703104727695141,-0.006876316146032118,0.02055441143026655,0.046846709732257,0.02806816838079731,0.012217826731557146,0.0240626184390162,0.028557980784213212,-0.04642720989850065,-0.013764852583303963,0.03419589955298046,0.07391207076482564,0.028578155387494815,-0.00372553562101545,-0.07772225067991126,-0.07283771661774456,0.029498519486844312,0.022592935464572382,0.055873694168787714,0.0029621774668856333,-0.027607653989192422,0.02306887784506757,-0.05694442451012073,0.05541980529108082,0.0009710442153363267,-0.009421281248694551,-0.044226536811492745,0.029197439074636972,-0.018250116393050294,0.015666848184829517,-0.009018781921786343,-0.06068607094699001,-0.02408264905958265,0.044870103879845843,0.03698918426710445,0.007089383183240615,0.0005033976255950134,-0.006685985702405576,0.03673715222179997,-0.022067460466366196,0.03440226716774341,-0.026044834290200405,-0.013979049728998712,-0.012189616982555038,-0.04264358089965948,0.017869580665927375,-0.04852978621908932,-0.06071670540842742,0.06875989277181863,-0.03904172787633031,0.09095213912679308,0.009074889338571585,0.015924511256201528,0.023685746942665807,-0.012114516510526962,-0.03201213941976152,0.010143471787243898,-0.012483218005150927,0.04134140322480068,-0.04267133214581738,-0.02150390758659371,-0.02258813239313882,0.02203339990674591,0.0017212028503022642,0.016969441154267476,-0.0656202508392651,0.03085924832326143,0.026210724473961857,-0.060329888116251125,0.027200416865153676,0.03215328700005564,0.008640978134400812,-0.002435580598795683,-0.059174531667127904,-0.004332535663125054,-0.005193728632125143,0.02417885415580312,0.04703710195919931,-0.009927303406250464,0.03289472726837474,-0.03512328202747623,-0.015110739898807167,-0.04005716625720107,-0.013939509177893978,-0.03351567623279801,0.02577643328971229,-0.040321594854598304,-0.04343040217333216,-0.03092658158441652,-0.013731060718775046,-0.027866912372875353,0.04840434227258562,0.0284586309686486,-0.010994230002694604,0.023458598912986527,0.0073569856353675935,0.07741582822736949,0.007847626213217319,0.02165420082487165,-0.05616020468828537,-0.025143969188241515,-0.03245298853239972,-0.042461596703364676,0.004817907811810589,0.03467883750291898,-0.033992920979751214,0.028658229376014217,0.013680346129831081,0.04431187878516812,0.006654063499534082,0.008738933135404922,0.029928971175900133,0.02413605877309553,0.015185014759909425,-0.018046810975564622,-0.04981796178122733,-0.03283664797152288,0.02544893499453185,-0.0901288776923901,0.04655690159597436,-0.009001888203908672,0.046494074585638964,0.05259192441727613,-0.013884754042008823,-0.013408360348438024,0.028908665169361074,0.013118135562417177,-0.048268791174861055,0.055203775124009945,0.05333821848526863,-0.010353935094422964,0.02960311757058314,-0.011319076477389783,-0.02631254708430521,-0.00371105148613081,0.0530945589285634,-0.07046168128558294,0.009511476158717174,-0.019768390566542622,0.028214123116473606,0.0001181947629637659,-0.036858573664690364,-0.021785416448178368,0.0314801877614334,-0.02098965680402306,0.03629635384914833,-0.06491905602394576,0.054596703641361086,-0.03230788864571396,-0.00987102529533451,0.039676249252127135,0.023549706684150507,-0.040162508406487725,0.052704824167879395,-0.001685234103435921,0.04161598574872466,0.004303004758637035,-0.022159565358002974,-0.010020478798114412,-0.03161158296112482,0.014397877467229408,0.01833825153753469,-0.003682945684487567,-0.05555611600977147,-0.04537946175367519,-0.016374666795716718,-0.039448315171444634,-0.014190021544209922,-0.0164038485650383,0.04230310662840999,0.08308935128521845,-0.03861189371617111,-0.009941351163978892,-0.0061573151791013535,0.007363233439698187,-0.08148347006149935,-0.0012559920868474162,0.01026498495469409,-0.012854077494476179,-0.039553233183236926,0.00025030214727465497,-0.05899574985671087,-0.08898442133638826,0.010397755597105245,-0.03156244455145394,0.003466571878450343,-0.0586423593840439,-0.05773413577084439,0.022361528577235203,-0.0069178973465942725,-0.04927708489056847,0.047642227340942304,-0.0259737060941192,0.022685375004968842,-0.08049749315489119,-0.10451302453523072,0.009627567351096178,0.020147226081977193,-0.0045010144703121185,0.041025072658243456,-0.02033395693381831,0.03996831141283804,0.07266909297038657,0.02087015217905569,0.03586202753247054,-0.03135216439302595,0.005435573487988299,-0.0122100246921545,-0.017209830271497823,-0.0456971601790905,0.04384437434594255,-0.03571386024222546,0.03047613338416742,0.05933540865931102,-0.02435388116323131,0.00940240185182431,-0.06390377978365379,0.02297864896311389,-0.012144310176056548,0.005844611392522757,0.04551439352223744,0.08071570014417864,-0.03126287476824877,0.013002971150008119,0.01055408304911751,0.014203579140382028,-0.006589948064461356,0.024041201102763837,-0.020945713672648903,0.03691810160737511,-0.046037387490433936,0.03630391684012144,0.044403056828900944,0.009854785687433578,-0.0327723959028873,0.013925652390699083,0.10904991955619311,0.019711715982379818,0.003888542853093542,0.014065241106357844,0.02122583229398831,0.02436637783803105,-0.061755441178417816,0.007348353958720698,0.009091018898051405,0.047290851277748416,0.03370196482964581,0.05556066495884675,0.024554190113509188,-0.0029249376194214896,0.04942300690319403,-0.04066207672825393,0.013852570153435138,0.042874400846992344,0.08013432901096314,-0.03640478370823443,6.587106095029371e-05,0.012071176304882443,0.026514320399224123,-0.08320687835156025,0.0761029594538539,-0.09186258837540288,-0.05210773265810161,0.029726493090101273,-0.02657349824345141,0.05450228623995449,0.00689620584254409,-0.006440826299952711,0.02495022043225669,0.019348817576534078,0.05657631730716767,-0.026470324546766427,-0.04361288206909274,-0.03302358316449976,0.039001337854594045,-0.01943914162245013,-0.05639623620695068,-0.0028785420567447096,-0.004015113761553264,0.06504990247525262,-0.05402784229616226,0.004504597938415718,-0.01127164510777522,0.005224038144278567,0.019313509221776638,-0.05300425687753923,0.009671836185780625,-0.015641304489274765,0.006889396593319441,-0.07137378970493706,0.020346308964873872,0.007364390593289785,0.011804374910405818,0.04422197529198603,-0.039744785362771935,-0.057177365508745547,-0.012008347672101228,0.04192276525653031,0.007191495493497331,0.060000252488614424,0.02715526792485046,-0.032513083340086374,0.018324818605594737,0.007148074453197969,0.03465882510778377,0.0467534528291631,0.01002417397490373,0.0027654001873908757,-0.034551458570067015,-0.012295497962026251,0.025847600090701413,-0.10518247821393997,-0.013483624242107166,-0.05458090303067308,-0.024433224069080887,0.02687695896192696,-0.05914785063045731,-0.024323467983611347,-0.0038420829007511617,-0.039979811021525244,0.02520089890402876,0.018845078740842885,0.05280626618192575,-0.00046597245955937503,0.018738645074655714,0.10387242607106924,0.011693193912003314,0.06204947893858371,0.053645454208420616,-0.04699870493619941,-0.03252817184700475,-0.01711799912296047,-0.05912263109420563,0.04799482803271209,0.07032121629117884,-0.07896371562691777,-0.027940412559990378,-0.011024315931673917,0.05729331372351408,-0.012103756455247874,0.02969403881059827,0.061630037058414744,-0.04918689250699941,0.06881046899395751,0.012512332908556465,0.07976892252744698,-0.004481528404913744,0.027045400945541448,0.028994569904594675,0.026453207323399498,0.020526336584625215,0.014444467816086574,-0.06776817390133469,-0.00552932643056209,-0.043573271863726684,0.0006070275847622583,-0.049857904617876515,0.009085484557296599,0.04576197138448485,-0.0032182762409755403,-0.005714379617011158,-0.02487753280058025,-0.005077524343749593,-0.016064804443853834,-0.0468887902688434,-0.03942348004205505,-0.008373409443430528,-0.02164263707867271,-0.009944962204060683,0.011200176583156366,0.02667928488308176,0.0229626655781291,0.029654242331998138,0.034302075211851746,0.03378413897352064,0.027055611422013324,-0.008919279268618867,-0.08072219954633912,0.0378920753414127,-0.010328774822728983,-0.045044818559654184,-0.015537312609485975,-0.018248658577644582,0.0042009331800272574,-0.010690738312183824,-0.010879966605048155,0.04641423722278886,-0.005832950410780851,-0.011115366555532687,0.048979817955644364,-0.018130072036408255,0.03604975418110022,-0.009146638916379807,0.06236348507635139,0.012613123920075716,0.03498371991916234,-0.01474214753523502,0.003611431745755828,-0.005611665938665652,-0.026578611923638366,-0.022670925795643747,0.004801150029336269,-0.029238186631292514,-0.004941243369155885,0.11804787789892576,-0.040930239707053964,-0.03714624545248761,-0.05282233191838437,0.035448865080169346,-0.02334772130109803,0.05333296361996832,0.012401393308282988,-0.04899391421241962,-0.014339251008201204,0.026661224362393904,-0.0348593050434894,-0.017116908795914883,-0.020853044593823065,0.024173719454695576,0.02574428278711529,0.040527124688875434,0.0005964627784600717,0.00518685005472774,0.061845817172840885,-0.034217993526003285,0.023247432327365165,0.09319951463945475,-0.007804160622334208,-0.0017348453434909911,-0.03529447893238298,0.02596033235451372,-0.026083057783132805,0.026627209204766515,-0.01935597271894084,0.04470406765670549,0.0180541763373842,0.021191211086734166,-0.06395831834026637,0.04762901691951561,0.027122980949895837,0.015949466424100237,-0.024715463094930418,0.030234111142192953,-0.01284612948295924,0.0515448166243734,-0.019382011857430746,-0.029507192333638528,0.005574935540029926,0.030810293295960765,0.019384484442444828,-0.0632438387095974,-0.027834235141063535,-0.020632603661195386,0.005128031256061055,-5.619813812937962e-05,-0.012555129740205727,-0.03241650936898823,0.03352238337391251,-0.019145100524922187,0.07334357598672167,-0.07609702289364202,-0.005572971796546878,0.011067587065248435,-0.002839043361038862,0.0592781454742588,0.04613409832694759,-0.004085931314063445,-0.029684932761897126,0.015423290470320653,-0.034914027624775586,0.020596537477725416,0.019810489209050656,0.005768416124423795,-0.06500803512771022,-0.00506399014416527,0.023175078362205215,-0.0026654850731543055,0.003504506588872326,0.010846314263307713,-0.00207683351673207,-0.03782700186850834,-0.024074028680182064,0.023431884068946307,0.009195978170618124,0.0475572695729297,-0.04349419688922335,-0.015978838146073756,-0.048629486337902164,0.029929884160259414,0.04632939477103356,0.0528178478346652,0.016280771091581315,0.015255389769483827,0.005706383081804928,0.028147300263306883,0.08975996384775099,-0.014764298888558833,-0.008929642708665716,-0.031666310110653476,-0.0070047353811170995,-0.015531591943059312,0.0035058725982313093,-0.013027311383627737,0.010003342577243108,0.03038558835873071,0.03041484806621608,-0.0645042051927802,-0.016922357823241554,0.0249475097540973,0.06569545560595777,-0.048754086073175336,0.015118248330979111,0.015460524105336838,0.002339523353284178,-0.01253919623211444,-0.01027793564935668,0.03738489367748547,0.03405534306077002,0.027054424174866788,0.0038873209820773852,0.01676900801490933,-0.03691321530217713,0.04783251101686884,0.0061680470600986035,0.014349778748503132,0.039104112856288606,0.028567538180663012,-0.010556294174358497,0.05360930454501723,-0.011848336626149971,0.032464749225378335,0.04547123074125801,0.06412460136318285,-0.023925825391926857,-0.022114326277597306,-0.018558714083923955,-0.029305657554546404,0.031665805414941836,0.012518602716693528,0.03146857679474058,0.0534845965354978,-0.0278534990016152,-0.029044531024724242,-0.044533027040832854,0.05832365378946464,-0.005811967733990848,0.011913860251728242,0.015567708065659968,-0.028728865920914476,0.01161498069252066,0.012087123466275567,-0.039709971841985804,-0.06290748465972633,-0.02305732485940084,-0.04406047281621854,-0.008246253354143848,-0.03650004477270156,-0.04082657908894576,-0.021709990537600372,-0.02551533353659142,0.047731707327818014,0.023589031599638682,0.023989188833903902,-0.05822517012404271,-0.001243904806374824,-0.030555753023306202,0.06512863866676773,-0.057774258557068345,0.020137990458624116,0.027152515973888146,-0.028492187549779696,-0.02889897668204259,-0.013740261527340867,0.05572716473967538,0.016555778610621713,0.016214433943464248,0.04822883326981492,-0.00022573677584905114,-0.017759749930429284,-0.006823091765757315,0.05075105284092889,0.06011483680116693,-0.05485533245196216,-0.022500918636876893,0.0011190487208404645,-0.050361335370354636,-0.02252916497263435,0.039886421810231276,-0.01199039758625368,0.012569774606227126,-0.0209951697066301,0.007525090998630584,0.0155455178429335,0.03698395028911343,-0.016474005316021112,-0.007989109691732586,0.020730696753690114,-0.07347643163119902,-0.010861531588925341,-0.007060849694191178,-0.017871931609117823,0.042631594193790576,-0.0751934104677237,0.01399720532167552,0.07328758580599408,-0.10821470016946448,-0.10033936668788135,-0.007360042701639861,0.06360340489374791,0.01852756379853193,0.016022383613153102,-0.017863308867774198,-0.03444261256569328,0.050920896565166684,-0.027916409372451434,-0.033471201696981215,-0.038962935403221065,0.021346678728780856,0.011481293317009153,0.010976499965430262,-0.022825933419350075,0.0018491090756397443,0.04917135959689283,-0.03157139747985544,-0.009285447205319415,-0.018011640465716534,-0.013673356255707207,0.016010432257714098,-0.004323920678671356,0.07480802408052613,-0.010091809149646594,-0.0050644735069276785,-0.004168217335617252,0.029323888729268565,0.09776174605439063,0.016059943388712423,-0.04468536918332534,-0.02240810020885783,-0.08429792205918918,0.030072559280025134,0.024461972502096137,-0.05451719319659478,0.008790902524915973,-0.01938471934298922,-0.020464059826445332,0.023121136623738273,-0.035272002594301646,-0.0442859253812251,-0.06936604092280493,0.05205631606309036,0.01157417295735499,-0.004719061427202925,0.021910812507566223,-0.020239265380133015,0.0209971424440425,0.03843537285667326,-0.027863277224639105,0.010370980102421835,-0.03644234430240888,0.04724001762946561,-0.014433437275158922,-0.04566505043942213,0.04062742282385767,0.008771427921069875,0.02124674972644872,-0.011237802530941015,0.004238232722278906,-0.01764004240742363,0.03833954272071823,0.029312510657955867,0.01865637307595475,0.05006166903886645,-0.05975187645145617,0.09352266101790775,0.006236285197110986,0.062255246317156246,0.09654696604517946,0.026271164198004564,0.002256285880067003,-0.0052545941029341885,-0.007415637337812318,-0.006499548619652033,-0.098966815080901,-0.04444108220369358,0.06392955198167868,-0.004821472946484824,-0.03425645914880726,-0.04173483705580412,-0.09546584689920021,0.006100589885121334,-0.04227282706182058,0.03563361241310295,0.00817385106203439,0.05589524563648773,-0.08851302371495655,-0.047309494342802745,0.04749931871421841,0.04645980493596318,-0.04002463704471991,0.023537444765908123,-0.01698776293963069,0.010264356631743311,-0.0758683888453192,0.011799963420961939,0.05281389497821065,-0.03821180677995533,-0.0046601109602792,0.05625073889676509,-0.02423072510077645,0.017870935604828695,-0.04880509978285948,0.0018829497973021764,0.005168953217602701,-0.030422574194061552,0.046256982730610956,0.06618248115036952,-0.04844866999180649,-0.004680018097326958,0.03666911413496393,-0.005710452753441306,0.057934442956030764,0.050132513893615026,0.038142131913796215,0.023910468648212713,-0.06278459966302177,0.010544160893657256,-0.061751153007277855,0.03576630475171778,0.06375944981432327,0.03283270502994187,0.028014890809014144,-0.0014104429900782534,0.03313580272929252,-0.0209597364963826,-0.004977881458223469,-0.04647439835028277,-0.04440510441228196,0.024058187944333058,-0.03830443222576081,-0.003502297498985106,-0.07079730034447924,-0.004522084753708958,-0.03708221744057336,-0.004943478917859315,-0.04943794471266779,-0.017095886966534805,0.03260159658312572,0.060451516637979354,-0.07848706414786034,0.03730750525837593,0.018873773617705376,0.04500465155301624,-0.03364867411112516,-0.057176492315000285,-0.041489478236684085,0.04865069077625447,-0.0960691007080281,0.06488295014060343,-0.005672935251715104,-0.05139463539312737,-0.013265488868749483,-0.034250816940365865,-0.016066307460675954,0.009850595708351163,0.06049230951184944,0.025936531598597164,-0.049560909912163255,-0.005631717225748311,-0.033931594860034234,-0.03954210754011455,-0.030293839305228967,-0.020406125223598946,0.034972291419420716,-0.03656166246139297,-0.05862042427584963,-0.022893604423309066,0.018693142256556793,-0.028900241912781153,-0.022911329079124295,-0.02451279509691443,-0.02691722225845722,0.0705131856162383,0.03552601832763819,0.039690805935669114,-0.05613983391118331,0.019450378380595,-0.012681051440873779,-0.004800589055901491,0.04374616640877944,-0.0331605197846244,-0.030778058683192968,-0.057292697088069576,-0.05296370664991055,0.025416325865965372,0.04857578911312791,0.01101246640139419,-0.0059130204453636545,0.02202498187773971,-0.025825076206299768,0.0070746927624801845,0.02297749188622002,-0.0050993875069146235,-0.015625043190967202,0.035862999273596284,0.01565665459392494,-0.045782128858454556,-0.048389390635706804,0.008669785440547301,-0.015746657871472967,-0.009243557165326386,-0.014067169111597165,-0.046273523100823485,0.05525216086605898,-0.016427470649806982,0.06803237949518166,0.03433423382062927,-0.02614913066471128,-0.017018255856237303,-0.006711587651962691,-0.017581401959301562,0.013901603788263784,0.04770068793299721,0.008945755786835385,-0.06356174578988151,0.054804563346878964,0.04498149989800582,0.0024287270602041905,-0.0362518054668889,-0.041928351331563016,-0.048788043215681066,0.03781534358739997,0.035608761338720284,-0.061444519225721805,0.04422723790015195,0.04899393228167349,0.015814523861884765,-0.0781343333340618,0.025621688807395376,0.060848628178870094,0.005038819082905818,0.042260222894311965,-0.02598191430749314,0.008889957444633802,0.004979857873153669,0.06541186830615048,0.010088077652288417,-0.10877833259125409,0.015331415618618493,0.0725682767648894,0.0073172627651486395,0.044589048369139385,0.012022035333803888,-0.024185121596681847,-0.04435214457874801,0.01607060585122534,-0.046737809202540906,0.016390395522833886,0.02375753956710455,0.0032023584961658053,-0.003792642628111924,0.031133522469202254,0.014860207928975765,-0.022922572107044882,0.02567310781923047,-0.0010369101291469703,0.028066456304635883,0.07487116856979807,0.03811947041419953,0.09772074019165099,-0.0031693981578550683,-0.03424444781005608,0.08857628397596648,-0.018552726241098227,0.043520907421725145,0.022731668828039994,0.013521492508211904,-0.021530765422953936,-0.008970614475954387,-0.019279132862926908,-0.02217707532883002,0.00532573698158803,-0.006383913810067142,-0.020801501438130084,-0.02526775571271354,0.07526183016143315,0.025909746190088605,0.02122671435816875,-0.018310230138886822,-0.048733291359977456,0.00015907976914079824,0.018710819280186163,0.003635779127774324,-0.03188853166264639,-0.006831068725374423,-0.00967270863462687,-0.009345783322439216,-0.0325737548651064,0.030396677890301146,-0.02885901169400588,0.054673899165547754,-0.0388974212876188,0.031083965833909308,-0.003478163484030385,0.08720353865417754,0.025854279919560078,-0.003498622266549559,0.00807220132213827,0.015426023804360256,-0.022472923306269828,-0.05309826703534899,0.00742959119332806,0.036683288455011,-0.020392789173242047,0.011540294485790897,-0.003092727512841493,-0.009083645720730364,-0.03814476558966497,0.05808724460765177,0.04526096304147394,0.01135148508609518,-0.04422937335181976,0.019652382961964567,-0.02471469104444555,0.012740501115624301,0.011085091911566937,-0.05164616346836851,0.02590485128418342,-0.03650575933464879,-0.022922552778752575,0.04521454824617384,-0.02258044476728355,0.019381686489452824,0.0044110148798808925,-0.0348738061203375,-0.022612328968635725,-0.01031960774401066,-0.03769470100222143,-0.022218402259033404,-0.0039544771893453776,-0.04501924185357663,0.0003880709205280383,-0.014327943590726932,0.017249485868157638,-0.015313608776377545,0.015475524424894136,-0.0004547133547409372,-0.012125087554761233,0.004209859256395438,0.02453951168446592,0.00591640902270957,-0.002943089188615853,-0.06907314677064413,-0.017038689146444116,0.05791532971914065,-0.013194521306805,-0.015294841312177355,-0.03683688795844224,-0.0003105253794846747,0.015247603520750464,-0.018503194574114645,-0.037910671952465835,0.06011323515381838,0.0029636819994385446,-0.035622409133360525,-0.05352790976238823,-0.0017263455512055383,-0.028360765808713596,0.02629856895679686,0.0558285983239834,-0.01846249299265041,-0.026761412065362648,0.0825466173531572,0.025954434156719303,-0.051485647520944,0.024472304831943667,-0.019956139454307707,0.004570296110974581,0.026543125101478306,0.016313511445507214,-0.004986511922738457,-0.06512552325651692,-0.0019465867655752687,0.008447437952603224,-0.01836789624478564,-0.024584528860901008,0.02966977368533299,0.020016399686581834,0.03280714383564389,-0.032481102063791165,-0.027006598274719483,0.0572360192466786,-0.0004894097346463301,0.023919451166528886,-0.00815390397382751,-0.057642927627316834,-0.03076924598211651,-0.012897608889611147,-0.03219554932478154,0.042109169798704355,0.05578929169324708,-0.032875508196074876,-0.02894968977694654,0.03511562833067773,-0.09198830344706779,0.043561948686314966,0.05036570448952254,-0.00745090118966772,0.049943057427871904,0.03047299479142902,-0.03897332731988221,0.036531675909298775,0.007079040478241236,-0.019603670892115795,0.014537456446841845,0.014826747635308554,0.03126202636899668,0.04669820672605007,0.016703393261636626,0.049442864328937366,0.06751428436896181,0.04128079054662776,-0.04213806615257742,0.012599032893988522,0.039929164491438754,-0.04314244154155041,0.04031994880021669,0.04143189466989268,0.019033444132671978,-0.004206947403783127,-0.03435988400070196,0.04174417548053166,-0.051161258903341805,0.0364319645829416,0.004665317074939128,-0.02788177111415153,-0.004840143880210824,-0.008730297773584696,0.03189167483445063,-0.022109315582372367,-0.013024345387300075,0.04788746009603807,-0.02854980544804332,0.002109397235775221,-0.04891576599205075,0.0716307367769034,0.02012248550912865,0.034550457582233275,0.060140872797042715,-0.04050748755869538,-0.0011229393292258205,-0.007348434165981422,0.04613092385062766,-0.050818779771899567,0.03879191712630476,-0.0016995350848015758,-0.02605882545996652,-0.06578731419944368,-0.07662237780613941,0.005124375300989289,0.012809664048010446,-0.028275708494527787,-0.014403766817526595,0.044141180388241164,0.006036553959383151,0.04556969228375812,0.0521203537109214,0.024352428993536058,-0.04153200154794905,0.033364998237392855,0.017558348534880808,-0.08811340992441875,0.02547516248860355,-0.020039189583834393,0.01913040233277381,0.0180846463012688,-0.016198120170598556,0.05159941732498138,0.010606668368717431,0.0012128410510109224,0.04624390698774309,-0.012469850540031649,0.021452139421541373,-0.03431137447218011,-0.023394814076799785,0.027167099979487686,0.025941841753392786,-0.011120789178109354,-0.0013587615026499462,-0.09263047363940352,0.00398166468425087,-0.03904292779081267,0.017672909916785145,0.0598876010408143,-0.051482185894400304,-0.028871922158104007,-0.049971240681591145,-0.03129511915273629,-0.03461357231742206,0.007509040278448894,-0.003927006562655933,0.0028214985025295106,-0.018574103383017796,0.03932285124975315,0.021789840001937903,0.016695511348957977,-0.04740205732189129,-0.02188661660127382,-0.016609393788936645,0.06292444370400392,0.006041172220945728,0.04509769009178519,-0.025022998576664755,0.0316084950269621,-0.01905877351144641,-0.10022602350673201,-0.026305982257949955,-0.061683472767256706,0.0038367043475902355,-0.04359604336363295,-0.034982338583777514,-0.040594168781489796,0.014590304312793376,0.0016184971974222177,-0.01597627980563159,-0.0012139014852250779,-0.08814646175260465,-0.050668673021022737,0.026327715623929073,-0.08123367671322236,-0.002586437949758291,0.01597928748740103,-0.002539183049297756,0.037025693935773124,-0.07864274856673309,-0.011752776141024518,-0.017388896549714226,-0.023460608406086457,-0.012434974398600642,0.00613478407138105,-0.021127776340687233,-0.05043230545209983,0.038904402560464756,-0.05305856222542897,0.010671803029841016,0.08369665697354406,-0.07397079365749626,-0.0109298654620525,-0.03711227811098052,-0.04189559698053822,0.011963530480736074,-0.0008468539615537357,-0.05865758013599975,0.014144121080016583,-0.003538753104572421,-0.01037298760968963,-0.01119224146846089,-0.07475820637608242,-0.02586626243947622,-0.012117152139102702,0.002065529055876235,-0.0007288001381920661,0.010103097240055038,0.007343787153384533,0.06108011568370152,-0.02311787166363315,0.0017791567388951615,0.0019180369588448955,-0.04967078271377251,0.05498202010900207,0.041934120665231264,-0.007662597855902772,0.0075219597197296525,-0.01558816528379073,-0.02195365218017971,-0.006240017617768434,-0.031778509574510484,0.09094420372587994,0.021870057057559636,0.0334134945120342,0.027090988786542647,-0.031191341636767348,0.016888766410962635,0.01617523538878071,-0.014719362918518965,0.004632497340069109,-0.021761068435912544,0.0027192663853421156,0.0013827536822673566,-0.04732702339665958,0.05020420746032751,0.026894344719500484,0.058234679748455996,-0.0077661067243226835,-0.00724779882239461,0.006447952605400969,0.03314054300022032,-0.021827636293793716,-0.041489877060334274,-0.06802789637883674,-0.004528169057366856,0.0265899917269729,-0.00020660217688668784,0.010692198872985968,-0.00872564989710194,0.011303206538039316,0.03809683933776846,0.012171187885213305,-0.01384884063308001,-0.05432611044241275,0.0377975003502631,-0.04452961875875659,-7.300401209736313e-05,-0.027513298382977194,0.004327611507757139,-0.025118722588084456,-0.02650946281557919,0.040591205106258764,0.021196259446309894,0.07423387688115579,0.021513874008692226,0.030932723697359995,0.043330625086219064,0.029154840192309323,-0.05520363416887357,0.02398150774342468,0.026642888573953298,-0.04471672210297905,0.00981258878782165,-0.014510242649001005,0.07066201578494609,0.023542219208070234,-0.0038594606959321607,-0.007182620462180701,0.006379957297266684,-0.022988709693238095,-0.05360004763997214,0.017465716981527515,0.004474104879873369,-0.051660011150218295,0.013938624167573296,0.029159444831763366,0.022474257821237166,0.004057165301318432,0.037482641725257206,-0.017886136349458206,0.0018928952980788473,-0.03390949160953576,0.03643043577290723,0.013203123687981178,-0.02693312531030101,0.009786761957225946,-0.03817204004080076,-0.021811897207910706,0.040575115681036535,0.020307324790251158,-0.00203401433736399,-0.01277042599625204,0.0444982759111712,-0.003736335209750866,-0.03858706210233232,-0.04322031078210335,-0.042928866790644775,0.0444596320619407,-0.02653459069794556,0.02603800107560412,0.027896329421657894,-0.003563775342420567,-0.007545106930803558,-0.06201947947844848,-0.04301450115524256,0.010565133970963885,-0.02528641868784934,-0.009130608176604214,0.02813274398262221,0.05270791511291039,0.031110190583967846,-0.0010064553013065533,0.010549097020256828,0.04073032456929358,0.0011254728150124013,-0.063391080841586,-0.024630463011522035,0.017014168818088506,0.062007095659929075,-0.016412316089863228,0.028673694000048593,0.012202774357514542,-0.024517690587174103,0.0007958642702802411,-0.0043760542161331755,0.03440349584676046,0.01119379792951194,-0.042421336993090634,0.09711906414760374,0.0538918327064664,0.0015275234592302873,-0.03552701964097568,-0.05719428228856148,0.0037785562868186085,0.03182932086155957,-0.06342832616603748,0.014029867396481663,0.02088024165165845,0.014021842467006657,0.01270972659098109,-0.04601544083989227,-0.001407369488836693,0.005350107575360938,-0.027709915211606314,0.05133660723519281,-0.005401334430682965,0.03957579297294141,0.026846245077464508,-0.004347685846513369,-0.04460245027790033,-0.016908752909656197,-0.02260249582706938,0.04716919038279451,0.014891585607688194,0.001431435278403894,0.004269357376008485,0.0021768450623880285,-0.03053620977744434,-0.00948005063688003,-0.051341272274942076,0.024598313253063893,0.006669042955624356,0.011698252275522592,0.10032735845283591,-0.03032487417778206,-0.006966658777768013,-0.017841351790581984,0.0776134721460648,-0.007413008377371505,-0.013150955090881359,-0.052128606038316996,0.010987945625609412,-0.02891099056321862,-0.0437492943852385,0.0531763159123169,-0.014863780263862045,-0.04794550751824596,-0.042141350482871945,-0.0025158043507903433,0.014475883582335088,0.015483922423678697,-0.03417517252026475,-0.06060336363323462,-0.007126607455556292,0.04470323029255164,0.02549742210842676,0.006729641575476133,-0.02672082069456134,-0.02728344434889304,-0.023469300577430238,-0.033348607440761055,-0.12122810652066472,-0.05968065506503859,0.030622363347246224,0.01355544907878005,0.000999107943070158,0.026060222443296897,0.006819543479036151,-0.05194321634511697,-0.026396391481755273,-0.01724840450087523,0.056742043578008515,0.034330764224117634,0.047168464179055736,-0.009484909995925104,-0.04340928103493741,0.061341780310625725,0.022790237963683013,-0.007773757314783501,0.025354534162860275,-0.04869110026677419,0.010506670586567035,-0.0011219205639214375,0.027931798552182086,0.02080978932132278,-0.0050735998513619105,-0.035080086514750176,-0.028902371472565223,0.03160422665058937,-0.07934011439269271,0.08362583833502368,-0.0656565283727922,-0.017210532138886105,0.03808274624219132,-0.05235931417680234,-0.023733764987092783,0.01145333104668039,0.014837068677842945,-0.058585388903207025,-0.019517563300591862,0.03837344126494963,-0.021739801955216503,0.03124121156482371,-0.030773507691654545,0.07668728959394476,-0.03021074427642395,-0.06495817349273234,-0.04125879362789299,-0.011058227622745834,-0.05138837478759144,0.0018821186324637167,0.049408613300120516,-0.031099170997609143,-0.0020801091006663664,-0.013375537828867868,0.0007831476285364898,-0.027738487226759305,0.021518514622107528,-0.026958517314323388,-0.10956547123806885,0.015969539525150324,-0.000518887624738565,-0.03271953116523702,0.027145076873343516,0.0025750416586589947,0.017964693657320657,-0.014367684275422414,-0.038569654483506445,-0.039115738189236644,-0.002972143162180918,0.06893570039175231,0.014321004811417518,-0.011286375540127128,0.051201081435798705,-0.013928767676256835,-0.02713097485859563,0.004633256452356537,0.029706622476972942,0.00987971541377582,0.03924721734701123,-0.03841240011830922,-0.05624988465562534,0.00833995091262425,0.02267565969384758,0.038106701521144086,0.053105566886192876,0.003247033875127987,0.044317477558558076,-0.009753876374491323,-0.024743914920607818,-0.008187030654476578,-0.007930835365350863,0.01784681198779081,0.03873739176176306,0.022693777044593428,0.007105733404369158,0.010298604896322335,0.02685275160801213,0.004919673119087213,0.015205684952596804,0.0009682357741232427,-0.052990275035006494,-0.001636969942022451,0.04924972700073639,-0.0006718073562330431,-0.03684984394683229,-0.014655430305845386,0.0053629390085149,0.014463168046837971,0.032970212977497464,0.004881399600372983,0.04998879029896935,-0.026158342758734986,0.006149576572414902,0.06409607790284812,-0.05394521253255425,0.03396528044953984,-0.017847043898123912,-0.0013988315699306835,0.013096004405830027,-0.009573942076165895,0.02971479340689704,0.018674485050578237,0.09961911200524834,0.030175312889695906,0.05501576431280845,-0.05053403778632625,0.02440254192836856,-0.029780240562061834,0.01801559265115937,-0.008944140372937389,-0.053757124620811655,-0.01855633358084802,-0.02191297988268077,0.01734281068831279,-0.07646018748282199,0.012320757841406252,-0.022689993466481463,-0.03130040364160582,0.0028023094691594815,0.008376949055758948,0.008472244861259843,0.03795709950237961,-0.04282095481770382,0.02007280688277272,-0.031663322791943636,0.027645977653387215,-0.06231507095138257,-0.02131653092044581,0.031519900574110055,0.027071223160749194,-0.041206722438867374,-0.016721358714208993,5.7873651076514316e-05,-1.4122270371435523e-05,0.06964848355192728,0.0030608255327586875,-0.009815952927447125,-0.05973257938194216,0.004246354210584168,-0.01714517673835978,-0.011900762452546081,-0.02628562805924462,0.017483008925094183,-0.02886829127290871,0.037421730786449746,-0.018186840944086274,0.012010788684118505,-0.025563169618203256,-0.0681863224452803,-0.02978233564839014,-0.0380457371875854,0.028724168361511582,-0.0005145624949212662,-0.03654058020681702,-0.09341948433284744,0.024890710075710056,-0.08141698591848687,0.030160602213991174,-0.027261566580174888,0.045538884805709015,-0.02399793612041613,0.03181728338014514,0.01473919265724454,6.631948164372788e-05,0.06233935923649586,0.036920004547398855,0.002174783251875936,-0.055775797549372626,-0.0169690829357843,0.025745643364170477,-0.0385734879824624,0.025170885281469952,-0.0061143343954704055,0.03120163532868986,0.023469706752634628,-0.0091975945386666,0.0033901126932385124,0.004680401003057122,-0.009018080937203393,0.0462128433641197,-0.0015856416773973286,-0.025071379303849586,0.0264815193567538,-0.030672311557092432,-0.0028872851368731654,-0.020119380521286836,0.006169151209316381,0.01467286601978888,-0.007583710199630083,-0.03820973409285028,-0.06403772230924623,0.026828544192791192,-0.029047945309773483,0.0030238070424094122,-0.00225496414420878,-0.09563854470781089,-0.0394013117626802,0.01644571979317783,-0.01466911490533737,-0.028228380907122257,0.018588945808572066,0.004535932088750264,-0.01076629015508711,-0.0073459038169980395,-0.011331361666611648,-0.0002001089378013748,0.052916391670694306,0.06560430119518292,-0.005376583307093917,-0.049857807094155285,0.009636051131772091,-0.0297332708941308,-0.03553984266531947,-0.003916260139885863,0.057458829800841014,0.019506806396820987,-0.003491995644455531,-0.10917572785218767,0.022120853815737005,-0.03473473284990313,-0.01913316719602075,0.016378969257656813,-0.028193844180161985,0.05747945771848058,-0.019536581696346412,0.04176605405096546,-0.014966242233496076,-0.012068859969183738,-0.0886548172468076,-0.013224777457002597,0.02842318102225774,-0.08422717407567439,-0.01142797665787843,-0.04446570191099012,0.09818826788575878,0.020525220733952045,-0.034040931530796945,-0.057635271196023234,0.013583494086803377,0.056021308080158,-0.009030447930199444,0.023843566943190057,0.0002523244614995838,-0.05102622650259152,0.0460395528002645,0.013147698133319074,0.033907500772032174,-0.01991709308726916,0.05992255219533198,-0.010108390508221697,0.05790122597043564,-0.01861636760214414,0.036195385865428434,-0.03941580410304102,0.07630389859412336,0.019594350835265152,0.056216840162331215,0.016025808265772868,-0.015018941444515614,0.06513893936646309,0.023048498180154958,0.01313645254734154,0.02054498595297068,0.02718545785846699,-0.013440632535973647,0.015697410807453845,0.0045728076902352395,0.013481413754784344,-0.02142355422636801,-0.09305702044515174,0.05146677889135056,0.017442302199277563,0.02393375243566174,0.037685438446587574,-0.015153700240225767,-0.00524726203205944,0.010042713759949458,-0.0055825775967220225,0.0050266294687964005,0.01904540530334075,-0.03306302556836859,-0.015543640158224773,-0.0029626299763057568,0.03246194617781967,0.001956993429413321,-0.0032805671955707535,0.026524910131511325,-0.02743596552662403,0.05445099504139592,0.023190408481846645,0.005035848532509678,-0.020373260105730227,0.016377956660351994,0.07894185053821826,0.024334927886706603,0.012411502940975677,-0.024382160074302297,-0.01624908738661398,0.012653541331809782,-0.0022181679586479376,-0.03734957378761327,0.012347197755823922,-0.019359647762943643,-0.081138468093223,0.01874041000342524,-0.021175195817621395,0.00399804905068347,-0.04671293323782003,-0.061385995314370216,0.049370860986307684,-0.00985329648474946,0.06414297688392608,-0.02346932999948139,0.04753819172633694,-0.05516903507278903,-0.007055112063343678,-0.014192177468222338,0.008952602437442987,-0.004324612107114907,-0.01766557877513741,0.07625654272948486,-0.0067917500172286266,0.04761081708274103,-0.041548904720415704,0.0036951723548953185,-0.006683809903210511,-0.0017488987152197775,0.020845517616397295,0.03621508362335966,0.02476926996630741,-0.007139638806330795,0.018916817929421775,-0.014643546349273647,-0.017341830568512177,0.005323512831026387,0.004805586474941071,-0.03845496253877027,0.0023986983496074943,0.004716303962706231,0.005374944901001756,0.014733488677708389,0.08746839796081442,-0.030722852505246902,0.03848600779599292,0.03826174795263691,-0.008607021714232919,0.0062328732687982535,-0.013068322515823764,-0.0028662362329775794,-0.00974253717112784,0.004518537925269105,-0.04503164129597929,0.023264362865719004,0.013772885014434291,-0.08626726695760382,-0.01978208442135671,0.004172886209382041,-0.008743200271843254,0.09646691298511999,-0.015470802358772613,0.031119973565756583,0.036474359179819886,0.025478125072681015,-0.0033262788911597014,0.009800234976285335,-0.01626217962777856,0.01924175787120008,-0.0026716873436683423,-0.04192530775507087,0.0008307215981160548,0.02444129725411522,-0.04851269672408768,0.01635346770292042,0.030041718409327452,-0.021289605670421815,-0.010689915377720278,-0.0331289901794897,-0.03755370179501664,0.03941238676545534,0.030418312729711395,0.0283243178410472,0.008239917232409879,-0.012505380988203975,0.038173650287313766,0.035722980621150306,0.054069827788541754,-0.004121946178796108,-0.014043683646428325,-0.01568413314053003,-0.011673164507850787,-0.0040195434332411925,-0.039294796289604424,0.008676638284736539,0.018249127797099227,-0.03083822612314727,0.018254067331962404,-0.0033875029157141652,-0.011337470672060286,0.020430980290118063,-0.05598960042773176,-0.008135443122180766,0.02292589339654453,-0.05922624066976293,-0.005407737731819401,-0.010981769917766346,0.02877532192191621,-0.019495793543562633,-0.003791392208195667,0.013020444039790158,-0.02176864288126934,-0.016283152641395415,-0.012330367793218435,-0.013356143392411894,-0.026434729543795936,-0.001804192926413457,-0.026045249570523055,0.030660055615038338,0.011398536626852378,0.0022893485076077072,0.0461896748612079,-0.007342546360868887,0.009188757701747322,-0.0023467598511063476,0.016840440682972913,-0.006626540775128532,0.027284073537411708,-0.040586190520544164,0.05637382139100716,0.0659386119440485,-0.00865654011043287,-0.05304164680026797,0.038161998052231215,-0.03446855024421117,0.012209057449922536,-0.026479372301280415,-0.011196605746192429,-0.01657646002352001,-0.0011627398782259966,-0.04825283467792339,0.021202791402719436,-0.00020839337632485525,0.019443138118543094,-0.04503952377733674,0.021552209958436257,-0.01846274471642951,-0.05858507678280516,-0.017135179240299166,0.02647303854267144,-0.06061193879352302,0.0056780114276651404,-0.042908125921253835,-0.04522804466861701,-0.038172951675621694,-0.04892084493661332,0.0004596779998812159,-0.010082964341993716,0.019220011068976302,0.02690323369232955,0.0725374347970676,-0.01705144031885904,-0.04032284803753424,0.004725310793573689,-0.0034394893850798877,-0.10808661102104378,0.02553352753461139,0.008586629384658533,-0.07170838498579211,0.04009302989920073,0.03727386330552065,0.04455301118578686,-0.03585554925192098,0.02324583342259983,-0.024879602300941387,0.017197119612001772,0.0071013043202947995,-0.02127412803641207,-0.039074448620439683,-0.02780603691167639,0.025675168595596022,-0.025395131634205252,0.04343266299645282,-0.00816820902126512,0.028123944750652618,-0.00754218339942529,-0.022340125195456646,0.035434316171358574,0.005604062700919802,0.01715273029652726,0.003534513783214966,-0.019043448291916818,0.009302985091210107,0.01490497324940832,0.018527319407995207,0.020114536589982163,0.05304113076559649,0.00199924660254868,-0.029480950390739034,-0.01037502431966077,-0.01439484234001572,-0.016936255590990313,-0.04190716636174925,-0.02941803891728714,-0.01347029086691645,0.0763521297020944,-0.034700506200220034,-0.013257782705946658,0.059901462070304605,-0.031432391860251624,0.005283430746097223,0.04845525558729014,-0.022724286494194054,0.0065448144678531776,-0.003693273206917757,-0.00952058098018699,-0.0006380903090985097,-0.02935819790024058,0.01670867175589227,-0.03349053369623442,-0.015885950375994672,0.03150733353605751,-0.014573222439507028,-0.06285146847793431,0.024636086968934403,0.0601637470209613,0.06733665696648536,-0.06064632833106741,-0.014030689815725235,0.04130866829789733,0.008776184797955368,-0.0015299286643422195,0.002418525933473244,-0.06033755970915984,0.05007874960129273,-0.06566445537908874,-0.0537807502136179,0.0284511297373904,-0.00899988121414254,-0.048960621088484736,0.07420234348087419,0.03284745323600621,-0.04714316552217116,0.015535514508113395,-0.006578403951638319,-0.03795699162432968,0.013476775946173246,-0.008568578508901626,-0.021399891631224837,-0.025074916105702293,0.0697151558049281,0.0038456397356185076,0.02918654438524654,0.018765539173466402,0.060111427272844756,-0.040318204869696096,-0.07709574266480276,-0.008807737879628724,-0.013092946372303649,0.02589438313820979,-0.11477819145678544,0.010261247949824944,0.04635515095130499,-0.01365347433022823,-0.04741271582994373,0.05837640079025007,0.014700145132822818,-0.018248583845001935,0.01790529259626649,0.007652067904781393,-0.031053978453165713,-0.026311522686609797,0.051612742187653333,-0.06903866236158365,-0.02399027435188967,0.028500497518596127,0.015537125653534907,-0.04420084534742835,-0.022429258700201894,-0.004766867547920635,0.007524896798128816,-0.03554619632588215,0.008743895489166553,0.08181826476994548,0.03656500109715477,-0.027122963177012984,-0.003037037755410722,0.010865279238651665,-0.0071769980325336906,0.023988811493466582,-0.0163965510002931,0.04068879433635187,0.014478943019785792,0.00038535147347284766,-0.03679746805572679,-0.02335089724851522,-0.03565796488756452,0.07397769420344487,0.04198442417236731,0.019274431497866066,-0.01274082584301728,-0.00267338820981252,-0.05559346833515328,-0.023630532944605008,0.004020243370817952,-0.011015850984256318,-0.01359283972539555,-0.011818377925871962,0.0020105214373983557,-0.011876564725476935,0.011174538317310216,-0.022563765993366854,0.017000943782485952,0.039974518478786004,0.011166779524894551,-0.04379447532611132,-0.045550911927842275,-0.03245203109866543,-0.014968049763919319,-0.035406355031213275,-0.02418706727669631,0.05120792794938666,0.04600552578390417,-0.012355710758798858,0.009832500171996049,-0.00565305703965305,0.010209405188490953,0.062307355750430025,0.027292239627120917,0.028778681693991677,-0.0036348344422325383,-0.0067613020835723065,0.07350381756548918,0.018830381452346157,-0.013273392244929624,-0.0030667047654468005,-0.039716148643710994,0.06083645873208953,0.06389728491037962,-0.043052315238810965,-0.041399261553871324,-0.010810969164227335,-0.007222673894926727,0.0054268991475634664,0.0037751231420290157,-0.010923261175112858,0.013930858166834802,0.007725783374557886,0.021966784354277038,-0.03274725328280366,-0.10152682242471973,-0.027550499753021845,-0.0025263789119945096,0.0445875241133069,-0.029364648677210396,-0.02995806753984134,-0.024709626478160253,-0.015308962016698272,-0.00800470303531578,0.0453367219005006,-0.07278574792148719,0.003912953253311751,0.038295912969052825,-0.0011700122335480284,0.0012301024157346852,-0.012215455439870213,-0.021797394928829365,-0.026673764268055535,-0.03118598794662749,-0.04519345285043704,0.025988574019505155,0.06859782256080962,-0.025653635703121506,-0.06096221174265333,-0.036157486884632474,-0.01732224487494294,0.004171027891102165,0.013480233049228962,-0.05766015899987063,-0.015063129595273688,0.005611150683113108,-0.04721807520658163,0.062242105183979504,-0.045041972971831594,0.021878331999346027,-0.028528455158165916,-0.028259714205538182,-0.056929627507973056,-0.0029710049630533295,0.054779127421616614,0.03827237495023388,-0.023428959428618334,0.0006406146752234233,-0.027079724998501538,-0.004306928194213011,-0.01793888822885351,0.025188563627219624,-0.07162475629139076,-0.02555512299393835,0.00302050634011496,0.025996690015251338,-0.0018114173493258819,0.023464342807229883,-0.019837405439465165,0.05132263136725347,-0.011942454858162865,-0.038696646568577804,0.001619119716308207,0.05320840302710896,0.03312154807370577,0.0033030083084957538,-0.017984041325754565,-2.484133348165486e-06,-0.041548813005074944,0.015740087383100353,0.009428004324744357,-0.06158434862586487,-0.054120043389106524,0.032141284912811714,-0.02194116142752092,-0.03838729410627489,-0.02179965101899865,-0.0054473560543437105,-0.030199423599781033,0.0488233077135107,-0.005966785531396829,0.06160428690205196,-0.03241372197887838,-0.015280670128776586,0.04820580920550012,-0.035554619761309685,-0.04606481496288821,-0.04955883338868646,-0.0014517120611189057,-0.033122962783610786,0.03727621757593811,-0.03142466612042006,0.0328207025347957,-0.0011091113081628016,0.02239234870608434,-0.029695729566206832,-0.010466703567850592,-0.027857268083471994,0.09462791284654229,-0.05212503248792639,-0.0223426201620498,0.02461490644993398,0.014862759864231278,-0.020390796155242936,0.0291049571358718,0.08206022487930718,-0.05552173020581304,0.04933750810714161,-0.029159705680809226,-0.06151985685670454,-0.033549435226086326,0.03960756604573521,0.010166900507296805,-0.01679396011877073,0.022799046756018338,-0.05184487119689986,0.05234985090519915,0.008034650839677323,0.009970933963761771,-0.03470173485997323,-0.0020816742831816174,0.02617335905503655,-0.050667015663998616,0.011820011397596687,0.003955938433367501,-0.04034954154800802,0.002871242901407218,-0.023283236670075567,-0.00898129003785615,0.024569120565964865,-0.017878105167549074,-0.03647720573184945,0.001209293950990633,0.05482211753424958,-0.03191711228248416,-0.01272420389750146,0.024567621826220413,0.03265618301962972,-0.0030580481220600733,0.012650747731344237,0.07408264263578168,0.011213599636653715,-0.004412874714693328,-0.06601882746614358,-0.05140890824733006,-0.0470520937995481,0.017143064897054097,-0.008897275581338206,0.044766738263564414,0.05010848177690961,-0.02124919071945865,-0.025270801253368325,-0.061401401346025966,0.06973421394082571,-0.006560961217172546,-0.09396972087861052,0.01185823225948784,-0.03650184897921228,-0.004130650420598553,-0.09687402051199015,0.0024228845394824454,-0.01803188460119156,0.028587959365638935,0.051223045469964486,-0.008374022525002182,0.0001625625749236467,0.07407073713900032,0.040167636924121286,-0.0025084314312504956,-0.03446679226741386,-0.01774246956603263,-0.01685376368328075,0.019873191240039334,0.034317222372737335,-0.08198207502678342,-0.012278123548498962,0.04718848701415702,0.03670224550915927,-0.019783692459852325,0.006428798348978826,-0.027223249221423915,-0.049615466731984574,-0.005288137831868785,0.054958212657997926,-0.008169847896360138,0.015524534587023266,-0.01164566478655307,0.02419929498222021,0.005869393038949572,0.034695460520290745,-0.02913643370257119,0.027193641312429278,-0.03946548089267643,0.010198281359026834,-0.02081731706598331,-0.05161021570123923,0.001960402028829084,0.019856174328137022,-0.056246268788754,0.007680555578400046,0.009493720328020852,0.04100961577324495,0.01701058706332357,0.032461445884896474,-4.4009603638148484e-05,-0.0007009465641575925,0.03445863475340646,-0.12026134710327464,-0.034957546415245754,0.003399914726815236,-0.03597401377753186,0.007240550877334696,0.013799235431897884,0.0,-0.004833764292507198,-0.0035978454121007443,0.019195919908564677,0.06795899036385539,-0.02850053361924256,0.03227049364461047,-0.05933051756229617,-0.015651754708220993,-0.00529679539708982,0.02524522548900976,-0.009028583406342388,0.06521261329654851,0.02935744529422225,-0.04706304826334763,0.07614801338167301,0.009349587630401836,0.0068447683536556276,-0.01992275625307972,-0.02236399432823057,0.016244773338747544,0.04822929203022513,-0.028555092262689128,-0.015503492985663022,-0.046257804532411906,0.009101519767098607,-0.019361997397658065,0.016064847671450572,0.028569665022595437,-0.06607967288653947,-0.007319420915957424,0.02562585624025324,-0.06751788101134897,0.0012499688191691496,0.01078663530316033,-0.06597838808138803,-0.0053134018498063405,0.014842175024642551,0.003047877829373944,0.02322080289764911,0.05073340509525422,0.01078325622804178,-0.016149678622230376,0.022999508796652763,-0.01893848639598134,-0.0012346812864936253,0.059984752627865026,-0.029937154405809803,-0.0033654589236699647,-0.01966375004903525,0.059738294719135936,0.01706167765090715,-0.028387460898804763,-0.02675156171427651,-0.06771222086634655,0.001003723865350689,-0.03336072021652926,-0.029589068708640528,-0.0031222676217411436,0.025546166865006607,0.009213210793101912,0.03870992844617895,-0.0025832866557832157,-0.029196788428636246,-0.10009415729361859,-0.019451108951724035,-0.027984631306733395,-0.04385336565634529,0.00887407251277079,-0.008707771517516153,-0.06491082380000016,0.024703364037123143,-0.010632135370390048,-0.005453818794979048,0.0013714464508358328,0.027304400994609353,0.0031532002131112106,-0.005769474637471042,0.008444716621845635,-0.022752792484022042,-0.02499461034488375,0.004684292738857824,0.0063367454428519985,0.06272773708906629,-0.019615704022152788,-0.010475030500768439,-0.00708407270038767,0.02665339439762804,-0.01779139276195191,-0.05597588656228885,0.060589116670180396,-0.06976118009624306,-0.029553934315727476,0.009260676452446968,0.04491930005111534,0.007068596301067973,0.030610839396514378,-0.008930210650596333,-0.012625921207597503,-0.026145589868095762,-0.028424578419132488,0.013266833106563557,-0.02263293225713516,0.014781308796754029,0.08313958879508307,0.014875871897495802,0.046360466991682,-0.07533409891151426,-0.07811128304072931,0.049787163002652235,0.013019549715617695,-0.04992495682328263,-0.012641598179244231,0.014413462423101821,0.00977274504130148,-0.033288692285900694,0.0002522561385970008,0.015353630620505486,-0.021606937245860568,-0.009213758989542643,-0.028734638360280697,0.063234537988724,0.024793954581360477,0.040850983767790915,-0.03280079549042333,0.034451237226176816,0.03095276429314033,0.030489585661457104,-0.026981896111854198,-0.06087089963360386,-0.0030029158666470585,0.07881911284688814,0.023788420713541873,-0.036700617044724326,0.011781495183925015,-0.01710265431413923,-0.023569669392947294,0.047763251860650335,-0.027697017459109515,-0.020549848154169374,-0.012411009927847216,0.021070661984277938,0.01355883530206285,0.0662796643584435,-0.017049381686728853,0.02907584653295704,-0.018367348022685203,0.07246266958980584,0.024734611634768266,-0.015264753197977207,-0.009482615662589887,0.005145782796381158,-0.03989017067713963,-0.03871414886438167,-0.0429850731627071,-0.011438103721717085,0.0473559228245635,-0.04590823669546307,0.004409549430342795,0.03705542663255038,-0.05615798812530905,0.0430544288768535,-0.0029147832145482552,0.005039521936996522,0.09320167543242,-0.02096442604707873,-0.009692950940725444,0.06402858914185629,-0.06258395723510694,-0.05152208219122516,0.02520950207019635,0.02057378176999763,0.0013322087457772636,-0.012140341617236955,-0.08193737186284668,-0.024097210748468177,0.04985562767015521,0.03490922725947507,-0.0038541766597539433,0.021785341023508837,-0.010628015103737527,0.006541393136071894,0.024543253347809966,-0.026430153915563723,-0.016212774372251708,0.008748158250098162,-0.049875084775561455,-0.0184677087909842,-0.01896975197250503,0.0007602287205828374,-0.001710735950878017,-0.025103785487133268,-0.00416415356658592,0.0194669665181783,0.017403446869699548,-0.03429112626335608,0.07364407448378031,-0.022116652177636115,-0.006513937575924992,0.08976928229604188,-0.03519363083479874,0.07309637910500869,0.06102479106032136,0.02815520246583808,-0.04202052170033922,-0.043954799525750245,0.013158131338808826,0.006533375984404438,0.011749027399007794,-0.0889399147717951,-0.0009112389126495352,0.06697448256021458,0.02716444995750651,0.0024657075891544766,0.012392321107531334,-0.056021022299842356,0.021127746229921803,0.03401665897240771,-0.0007918625689446818,-0.02144312380064751,0.09317795859178304,0.06362804697091398,-0.04464093737222396,-0.050346697984262,-0.018742942388087623,-0.014929568551580083,-0.03170022670197184,0.08062344556390859,0.04529165009715812,-0.011321259663613926,-0.0127397966710928,-0.004738151270828489,0.0556435732114263,-0.014273261935541475,-0.02308114767191563,0.011253560609337106,-0.02165215341461365,-0.0037739037804269235,0.0051891448036570165,-0.06913041732561598,0.037830734582620935,0.02267584789165848,0.009041595499011913,0.0069446237596782635,0.05537269784585152,0.0039394608777685485,-0.0030465945287252633,-0.003963298930220318,0.09390101044271468,-0.055730495799494274,0.05882217010406733,0.0010524986377038069,0.03293669462879169,0.04289160874736529,0.01090445486036662,-0.022019613149946247,0.03287042566292757,0.04618407689407602,0.05144946132441391,-0.00815993740606223,-0.03165485339928109,-0.040404064392141066,0.009322651133016715,0.07186619240985226,-0.04632779812118699,0.018603649370380754,-0.07428526186833104,0.04719665936579482,-0.0027979574079106113,-0.02298750480312242,-0.05394477979833316,-0.013437916436225732,0.03814078985487902,-0.026291277506119724,0.03028121678904347,0.008382941539126937,0.04162961296376633,-0.035961368115681465,-0.0023834043347908973,0.03579963352103136,0.0007455622694480685,0.009481275118060819,-0.04564312738085096,-0.02565290199065116,-0.04471742628782562,0.00537118562819422,0.04079797942231751,0.031575825258845856,0.008627498807577376,-0.04693264135853775,-0.04978230857549893,-0.011231784280418664,0.04392129714570675,-0.05429286909381893,0.015995748340311273,-0.040990453778040316,0.009335578306329468,0.017233516640561674,-0.056540328599475796,0.026225538709045985,-0.05911599599097446,0.019585528441440174,0.03300188807767735,-0.015449452576822826,-0.03825839844053772,0.005178786353168603,-0.012208613948087657,-0.11097818717801124,0.056912109005886516,0.018924094689837603,-0.033925995887945794,0.0370348076481763,0.014514864115357334,0.036356758322753986,-0.06472123046413585,-0.003985389684047275,-0.020751197751766034,-0.006990362877810581,-0.02032496786426265,-0.0020932513614095975,-0.005004486432557249,-0.024624301815212378,-0.022275509926552167,-0.01697987782704171,-0.04901624798440092,-0.015749874380301402,0.030656184179097407,0.005668756110790275,-0.006028350487553097,0.010529572220258392,0.014879814727837143,0.0029352527125062152,0.003521576221630671,0.003122340191099949,0.03422131194406868,-0.034070065490874275,0.039281198998718306,0.027194161031279994,0.034968872840007166,0.03817206609202408,-0.05883025681108792,0.015254560991453819,-0.02464867050545624,0.043684112196093125,-0.013765754313441524,0.05419540065193592,0.049302926513621996,-0.0335645415000359,-0.025931630755369663,0.01513728704020281,-0.02365101254780478,-0.028717890481247232,0.02229442950801407,0.025451928565298498,-0.033249821267197395,0.05731902639063839,0.044989475824995795,0.05807596016466432,-0.023258679838970193,-0.05233809816567697,-0.06961822682275111,0.011562993524346008,-0.008855114252346497,-0.035391690575523306,0.03922133671146847,0.018317762884865967,-0.017178896610086297,-1.4633381403755345e-05,0.05350031596394216,0.02145851604952221,0.007239504193666182,0.04679660011622727,-0.016199742221747235,-0.014360478324468405,-0.027885362804365748,-0.029471944393985844,-0.011515807695890739,0.0026296473883833517,-0.028957734887811275,-0.018365457176750637,0.05022742521487638,-0.00876889051105407,-0.04666728415429301,-0.06342761074033597,-0.010085181187156437,0.024304818714769538,0.07915996560287995,-0.057362614293312984,0.035750780628462556,0.017909911159675804,0.014877538437398452,-0.06272701870716811,0.0408532473109432,0.05122032745630125,-0.037191434223523855,-0.06419017608731113,0.05282513661736156,0.026140995142628413,-0.035805930483274025,-0.004669485675645397,0.033023363264515736,-0.007516897342463476,-0.007437006513346745,0.07132040255358645,0.024265594191040324,0.038391683373345885,-0.0008726626956706526,0.07170178702884844,0.03185267665442075,-0.029928081053805455,-0.0226284895752262,-0.00877049283908875,0.016405002223128653,-0.02584395305281656,0.023728327439195486,0.001793339416774894,0.03724349984193592,0.049341861287817854,-0.06270091509144653,-0.018981375649698155,-0.02010413951059643,0.021057638726788907,0.0026557743725643215,-0.03051870017379792,-0.015193307676540977,-0.029829679554945386,0.060900432807326946,0.013532309078197205,0.04490824800687681,0.01116502519082201,-0.00011321434466999665,0.03746930915157965,-0.0193443810440791,-0.005433291526039052,-0.028413178226580772,0.019642772970560423,0.02310067740620462,-0.022205888140158413,0.06357863169318335,-0.00037594086387590496,-0.011311439706536091,-0.03544002627253531,0.0466875213865235,0.009199923388686856,-0.051432962190600486,-0.012832617057248306,0.005949604007049168,-0.019991599508800473,-0.019090920967819797,-0.010571962781763793,-0.0096757398088871,0.03438367362989766,-0.0817073740411443,0.04387013088428269,0.058697353587334765,-0.03388375024350597,-0.018458571907650042,-0.011148336901647848,-0.0008941177358605846,-0.0022809801306481058,0.024929314495132453,-0.00015763362134800434,0.07787972293555963,-0.0034237033981955917,-0.02212978375559502,-0.0077319302873330945,-0.03406802537984303,0.04548305535843207,0.0027841499012212258,-0.03621845189931846,-0.003280605226748525,-0.004026413841461028,0.02031122075497153,0.06956302261406631,-0.04482743227608248,-0.03538543221701139,0.02375870435962815,-0.04466924929428306,0.03155972782964707,-0.04718917009431684,-0.00889996559713466,-0.051258895508779566,0.04193853210539803,-0.012128984192389239,-0.0644466878452625,-0.0028900573466505994,-0.028274782421487583,0.019102532213818062,0.006651944610047646,-0.016536279979266263,-0.005660688128186926,-0.024062632482926543,-0.06902088865687893,0.041256238896905335,0.01128944309294198,0.02249262361703389,-0.026723614227633592,-0.00996032964395292,-0.01156829880599844,0.00849113206507569,0.05828608091327914,0.04008905881091835,0.022900666066476096,-0.004605372218477513,-0.019294316491232793,0.01610624984543996,-0.011072943410536884,0.003400234901808879,-0.029919972266379557,0.01499669461060245,-0.06568688896818378,0.026456632704672575,-0.013584935527613093,0.008532929250038953,0.013483152802376526,-0.032543481116648586,-0.0030655220628001854,-0.01053484234987923,0.024375634157804537,0.05378045968501921,-0.0029932283410537656,0.06811330829992404,0.019091511216176863,-0.024559611108101616,0.03413058623270695,-0.03513660533925805,0.01941642619893082,-0.03410406591291043,0.02150829073525517,-0.024151627020610727,-0.05984353296594048,-0.009875619987996648,-0.022236560316687116,0.029495872230826475,0.0579950892507798,0.03547434669588141,-0.0019730550852831118,0.010782305433180853,0.05436915201186567,-0.0009517299059794464,-0.012642037906113231,0.03210323279281017,0.0335682207064018,-0.05084071992544686,0.012342340248782458,0.024926463214410405,0.021758519240090098,-0.01826205104405417,0.013924540942805406,-0.017518892046803146,-0.025593841658299536,0.042615849019575984,0.019834227222604955,0.009019775061500855,0.005236816716441001,0.025928654296607616,0.0053677440722196485,0.020444565802669377,-0.041941285791182996,-0.029350668140983176,-0.04320861365201075,0.08735470489924695,-0.10092627509765505,-0.0057246886527863704,-0.03809680538018994,0.02515272363847729,0.04121340453736712,0.02881261821674008,0.043451713174875416,-0.04826885442716795,0.015197455548882364,0.014235153249379507,0.037782196473248465,0.0387787267491227,-0.03609472169923163,-0.003203242196193936,0.06286079395645568,0.0012872760277857095,0.004089456926540428,-0.014880421394141337,0.01141487115256273,0.012144629841074858,0.009621842343528373,0.024458450469083026,-0.0599992376703257,0.012541526020870972,0.07572755600686401,0.005864416495870804,-0.005053874103816716,-0.003212702211760343,-0.0368749683368615,-0.002668731180240223,-0.06038696842570902,-0.04184474393018006,-0.012763265675506832,-0.017463418438210265,-0.04970315079001571,0.0073106786615609745,-0.012140097018321066,0.023491515700535672,0.02516808426110587,-0.01442653528547381,-0.037927865970990786,-0.01816659566252925,-0.012558310869367447,0.00498153000098842,0.015054536700557192,0.0379711950976921,-0.0047867716919056435,0.014591389856407937,-0.007749697178664997,-0.01539778196375982,-0.04358306227652871,0.004742052550684139,0.011221548611241252,-0.11712718819535972,0.008213026394211351,-0.018185025904023107,0.04619989490423949,-0.024479448960526725,-0.005366466218728888,-0.04662418711950891,-0.06198434151290694,0.02126077867250662,-0.050498257823975455,0.03272822473648444,-0.04026539722477053,0.025065481020006563,-0.03152864911937157,-0.013978126339599977,-0.012321585297581934,0.025098686892938125,-0.040152920062685116,0.04533977177825242,-0.04042167674853099,0.011053551922208445,0.017856377710498746,-0.015175021762826351,-0.03518279448741534,0.04539864588845143,-0.014952929435705982,-0.014709338704363925,-0.024984834488138773,-0.11232848487025777,0.0011664777915337814,-0.01446514512970188,-0.0656053736082176,-0.00944061711784934,0.010839639854058596,-0.009076443733812719,-0.02408215337204777,0.04296318562597178,-0.011913837873843227,0.02647171309462451,0.06899708691778271,0.02427289064627588,-0.012247339291224981,-0.029723277997157255,-0.013744783417644018,-0.025853509234360895,0.016729642395424554,-0.048580587446456075,0.014567468236375959,0.0015558766101008649,-0.011360590736412898,0.0023317778566908976,0.02754393089172576,-0.015572062412927933,-0.023639447955993795,0.03996803783493411,-0.005497583047849922,-0.0020166158961492818,0.05041755132200702,-0.02301789669865008,0.015202132585604194,-0.01211356840943258,0.028006832653024366,0.04844097245769899,-0.018516503281877976,0.00808892550189345,-0.044183161268606976,-0.05205803587642021,0.010307237371370997,-0.004670022930840599,-0.007981961190186761,-0.03868287497790253,0.01159485854105564,-0.044917865352095625,-0.0376638328371734,0.03800986135864881,-1.4139652224904434e-05,-0.037708313433069504,0.041446062588100324,0.010000761521793274,-0.03263637634881467,0.022877817534639723,0.0010816149105267626,-0.025284837193195315,-0.005890455338002354,0.0021858330854797534,-0.024955195783532037,0.005707630070337129,-0.060663941248672915,-0.032197930894545625,-0.010914037739141036,0.017022801118220094,0.014324500464646141,0.05385398621171529,-0.009690980768254415,0.0007786300276296352,0.04885688852984122,-0.0031556781598863263,0.023429665837094552,-0.02091605170757011,0.04993132820303968,-0.036769877785580204,-0.017743453286384377,-0.04503868656168549,-0.099183559755726,0.03888202744902418,-0.04637943478515423,0.0016734448033632555,-0.041221636646503745,0.003410596784272035,0.02197626088717356,-0.053271996039921936,-0.06359315656338473,-0.03614729413261846,0.07205815034172446,0.005165719428996763,0.02742158436587281,0.022517371774923526,-0.02544394455915127,-0.00744202907620501,0.01201421784891919,-0.0312906262255018,-0.006881731822825334,-0.002930552766546408,0.023951311915954343,0.04365110106763726,0.06946852497471688,0.03446465674220517,0.0031087431893137385,-0.00024356542991313746,0.007797415880990783,-0.052318435588746035,0.032330187369827505,0.015372894598746207,-0.007429268421017681,-0.03428619046489537,-0.014627096232725291,-0.0013134750493339592,-0.06308686296872364,0.006406660718000929,-0.015489321797999939,-0.0059152593090237016,0.0059350950195248536,-0.012918749369474097,-0.08785376349172341,-0.00823949016968346,0.011090949574029441,-0.04251953071721516,0.07466688651488089,0.015992696913552967,0.03126821319214301,-0.047844933585792386,-0.018772661236041918,-0.024613259644688242,0.05774972062130381,0.007296592647609013,-0.0173538264005531,-0.011159310708024449,-0.00791648279075524,-0.009062754315155108,-0.0202985408265186,0.027191112881536948,-0.016678430979467092,0.02673026464359606,-0.0007228895274446875,-0.019380331174664228,0.0035157275982858434,0.014339850557671974,0.009016722434070793,0.006599387593099192,0.028523365977861488,0.016942176216359836,0.0432577610671569,0.03387604057743573,0.029110814675876236,0.0885639001249884,-0.04054933281732646,0.009848987198636283,-0.0674163518250222,0.051381598304444775,0.030164427854911437,0.022345581198705663,0.0840468820218792,0.06279831627427945,-0.046666011782470755,-0.013386626410527036,0.025964658641036812,-0.05048562232501091,0.020727050101470797,0.029528695043044173,0.02648921772410008,0.014946294148660551,0.038289328425624776,-0.006859631753977933,0.030791264702849996,0.0057395992387116275,-0.021444164355092676,0.0009839923186084304,0.017729690780563495,0.025089659949850542,-0.04376904719523868,0.009888822721875615,0.013755891600389626,0.007584351281126335,-0.04841849395640381,-0.03161434353706429,-0.007707941904774833,-0.039907084712867684,0.030747802994358638,-0.0864633296292658,-0.0006772505441752204,-0.05953869111729846,-0.006458975353431753,-0.029725941270086174,-0.024022503498552807,-0.0326342155996887,0.03550451851702445,-0.04056649605485703,-0.0010012626085727711,-0.03133418822832965,0.003631297041375899,0.02472182638235708,-0.001078973122161897,-0.0464791185465821,-0.009260004078413623,-0.002172348195534561,-0.013028220270468635,-0.06512200670532703,0.016535980623017324,0.0255751657456752,-0.03291616575721555,-0.03152861447509806,-0.007897020354257978,-0.003045090527926496,0.047610374551568725,0.03341942674114068,-0.013698282599425843,0.0705352284275931,0.03203706533951503,-0.034069821162336,-0.014360347574448918,-0.03561602125199205,-0.06479341572222458,0.002783299328753646,0.02731782292176449,-0.01595001046751039,-0.05303173218434119,-0.037177824835935444,-0.033090050510933985,0.003648179896013691,-0.005583768619986345,-0.04568824275632462,0.02621636443761139,-0.02160993174070373,-0.0017910674489551358,0.005129558380563949,0.016429972080690636,-0.03836585236759378,0.020879254153475104,0.042045271880323073,-0.004691065304632114,0.04157906085878871,0.020241353385250068,-0.015981835266398795,0.018356368976280905,0.002568453060691855,0.001207007160968759,0.05121717755848109,0.04068537076857355,-0.013307547523131786,0.03636315965518529,-0.05916326981853777,-0.02978818082000334,0.052366196578535966,-0.024356644201258767,0.0765557676716155,0.004666102110097315,-0.010789705643638063,0.02818182260756632,0.033312288839412486,0.022267823176357063,-0.03745613252929304,-0.010128520026574153,-0.020189332246294486,0.015088084589076005,-0.014685114400499353,0.011813368540692263,-0.014453054382738941,0.01850081385685191,0.03481134608167732,-0.026393009337293452,0.010805417442393312,0.05235579979802514,-0.007219122663376139,0.02640028776294725,-0.022914542923468235,0.020139294437930725,0.080947842997086,0.022091172347225504,0.045381818464582994,-0.024350598659724904,-0.025381118171780764,0.006541622650316555,0.002446724075651311,0.028322674437859994,-0.0028772327932908505,-0.016242087172574138,0.031495794568975534,0.0036843357006647462,0.049582825543212874,-0.02249190078855849,0.02851851341369792,-0.03258565678930963,-0.0402914762976846,0.05689086413113382,0.03843517170240568,-0.02561226794848875,0.004562472655594092,-0.03470117834036173,-0.042313938899406586,0.012371408794052532,0.0031635441899336434,-0.01829117623950594,0.008736422130845072,-0.02915775478389863,-0.042378024965153055,0.04228409724285042,0.008515213889100657,0.05136666522696901,-0.006120637366850415,0.07764082407388355,-0.043571716949046706,-0.04060050547223241,-0.006010434618512914,-0.00020190281512313225,-0.03373517057268942,0.03933548114328152,-0.025560266431232662,0.028249835301349332,-0.0567777370923972,0.005476611677128488,0.03289374908646106,-0.020136628686889455,0.0027295812789952067,-0.025505447976915483,-0.027530573542224226,0.044832234548329575,-0.08291158043855149,-0.016967106182511748,-0.031340071745516396,0.01694487322226809,0.053992081698364475,-0.008687422338695181,0.03306849118725691,0.013357475959289837,0.04604882736910535,0.004598401570684397,-0.0016898331300610981,0.011106518619962905,0.07547410245350619,-0.036703888009009304,0.010053533628375376,0.03180471133269968,-0.04760334890750619,-0.05487492348806108,-0.04738763178105642,0.047622389936364785,0.011403798365737437,-0.10857928693832634,0.0678499740989676,0.011243885755747718,0.0025575902403133103,-0.0034058110313565323,0.004717054910851404,0.006967988286826467,-0.05565624875356268,0.003931710632364748,-0.07464990188878023,-0.06872442986241668,-0.048284142491273975,0.006927633963425878,-0.10453075570592744,-0.006198485117486641,0.03421002605991365,-0.0476285909661425,-0.014104710938144596,-0.014010968177700167,-0.009603941707309426,-0.021256919195839205,0.0028148434451123502,0.022136902897447224,0.006104602057015312,-0.03701130882937691,0.025925518821568183,-0.016819423678317513,0.031109510258900224,0.02083182451370285,-0.005694129239035385,0.02446787358372648,0.0035029769869819195,-0.013381754146724085,-0.023065760235822845,-0.03973897296110071,0.013210351738782652,-0.018149401034839144,-0.04119989333869954,-0.049883511216318156,0.01732416635471498,-0.06346975843852765,-0.0016391330130292954,-0.005844925981400062,0.041103051932171855,0.014893645164286339,0.0182007970519116,-0.00013975458891997284,-0.02130345563937502,-0.04481517098105791,-0.04111847361692315,-0.01052576550082319,0.0037071030455578164,0.016909401048311287,0.03989262587073123,-0.000992497807557498,-0.0442610051890084,0.0715646217385072,0.012415308896441634,0.022520175791321494,0.011505434629970614,-0.023084745627757655,-0.01848750520396069,-0.05227579999642132,0.015118404417400267,-0.020468991674093728,0.015663244390345,0.011128936327367651,0.011480974703652837,-0.015030880830026822,-0.09715951246821433,0.021155253703324665,0.03598000683434986,-0.001429734639159936,-0.04267004899152451,-0.02675247640971572,-0.0027206385211628035,-0.01892632281145871,0.02658016054184966,-0.004059891181246905,0.03736240074810467,0.0005766116072536151,-0.008083219154181686,-0.08019424637123715,-0.031103322163006077,-0.09103121251715877,-0.05642548716874238,0.017105890028207612,-0.07519260871214717,-0.032457923244422655,0.029742345028298662,0.02975179672886554,0.023266182561073368,0.019065362802409197,0.004229918464576132,0.021135473117726438,-0.014830864451729158,0.025013232069891197,0.06136020343750616,0.03601767295024726,-0.012042084799075996,0.05311904209465905,0.010210207965249064,0.009962758491432052,-0.02974029889630188,-0.014512825396988269,-0.03068498763771773,-0.0255377686173806,0.00991237462287582,-0.0028574620780052475,0.010196983559107517,-0.019568636251256738,-0.03503886197309314,-0.005332054762354556,0.009068532224420282,0.039085226461784014,-0.013079277391515083,0.00881063711480029,0.03269231248366057,0.02565199756138246,0.008118380969497917,0.026356831616539563,0.040679627776376126,0.018262208757352395,0.022857170724154097,-0.025020859828807106,0.03198357711501266,0.06130072117786827,-0.023188736940881673,-0.045746787355180014,0.007320145523883015,0.0073603205930342155,0.04211405419232383,-0.01760258563251696,-0.039693448464648395,-0.013362455796825193,0.05062460483212218,-0.015323071045769857,0.015009108797332379,0.02211757619925507,0.03873067031569055,-0.06011025999023444,0.0460667842890612,0.0013819149447987778,-0.027233170351453645,0.02283205346116967,0.03135804284487366,-0.0004605778293890991,-0.007548443368439143,0.027630597195762874,-0.0011834672423271992,0.027175062412271536,0.03510923925620017,-0.04346661333725528,-0.01909022694454604,-0.019661522938193662,0.0037646148275714704,-0.05682665833918258,0.09188587277614213,-0.043512548337046215,0.03130482988604628,-0.013242360678479097,-0.052779008502533,0.05172332993427451,0.00811198357946102,-0.03593001917904322,0.0036332511325560153,-0.015475096999953157,0.03016432913676455,-0.0154367230423659,-0.036627249404177435,-0.06696510420631518,0.02057815125504684,0.044636012016118845,0.036711038106705736,-0.00965315568718024,0.03812609387914056,-0.005049136344396596,-0.03612467965567884,0.04929830852577215,-0.04128158356878644,-0.025228388589787112,0.018744504546556438,-0.035948892328068395,0.019973807315836492,0.042246357326231394,-0.02490735319587332,-0.044515769757904514,-0.01274539491699235,-0.006919138551948531,0.024723488149832756,0.03520704823080451,-0.050780627044793816,-0.047361820826289036,0.008010374054358818,-0.007817630548841822,-0.05841072316182634,-0.028481655994905878,-0.04993373987851989,-0.03732970241507657,-0.0005485006571039826,0.048091187421300315,-0.019111890248823062,0.07053918680453211,0.021245471386477505,0.0010520779946142339,-0.019352617781770293,-0.02340400807861041,0.03611549048548371,-0.04440811020674566,0.03347129096272105,-0.04222370946460418,-0.00023889023596753497,0.027497275643746762,0.02620406703386088,0.04795538003845392,-0.0015463595150292408,0.003792308174166787,0.05712037014969661,-0.02232336766086196,-0.020430097644215064,0.001964725185217209,0.025052660186038623,0.019225687538976164,0.06442315164946591,-0.060279761443379265,-0.0061262104999592415,-0.008549340328451189,-0.0038550389639472995,0.00911975418502217,-0.040515397170964175,0.052644272323787385,-0.04060690042083153,-0.05641715189269765,-0.05813615031619966,-0.014523489471895662,0.0344431987612513,0.053602877134189826,-0.027679329087642358,0.026131222998502502,-0.009137947288924001,-0.05178014729400756,-0.004612862722748634,0.013410143087466683,0.026371533730200347,0.06239300044942897,-0.009714549839776375,-0.01953900470221057,0.038208760424828146,0.016282244457428673,0.03476260530663163,0.019930316779423148,0.022288065252572643,-0.03603782161795202,0.010721647755609725,-0.02886073702696265,-0.04396587526318808,-0.008041353914827399,0.02491718281278587,0.07295064465987565,0.03580849082200095,0.012599764160974799,0.015244745898811899,0.08460200562045789,0.020903185434943405,0.027958393078734333,-0.02516571823759558,-0.0015773498869282097,0.00024962011632585627,-0.01446561061868288,0.0007171140646441979,-0.008132822600755213,0.01876104968501866,-0.021550930143703323,-0.028092529011625397,0.0022314533461494455,-0.014362789328738277,0.030902431493639883,-0.06773951488269435,0.019444720643282478,0.04416454122484523,-0.03642208562375566,-0.05664179718007389,-0.05732893809137321,-0.022432024878276904,0.027341306139012752,0.00405709342104661,-0.012925166272544246,-0.03251128278520647,-0.05163436199391657,-0.04584114335990134,0.03352967788080708,-0.011621031271991183,-0.016573558756972206,0.0059647935916901824,-0.08160653056024557,0.05586442803436475,0.009711702541101645,-0.06603249479837339,-0.016750766161762132,-0.008629426416311854,0.037839213177077245,-0.008772439966331286,-0.05205075879435226,-0.021470891011444657,-0.04691201000850144,-0.055813089283986865,-0.07769689671505284,0.018378722833289583,0.005704916266368084,0.008037244172117205,-0.02405996470898118,-0.017737402344248393,-0.020580671197832485,-0.029352526560234096,-0.025869081918660584,-0.006497162127458514,-0.023046660684734516,0.03257356374164966,-0.01138313666177753,-0.06353765629712113,0.012775694088128458,-0.0021081234956782584,0.021170872901618506,0.052895917514418946,0.03948121967860564,0.01283284606576299,-0.02159194238316855,0.03021426073307698,-0.0024669834758323803,0.003962798400664646,-0.07734506923115017,-0.0046176556655709985,-0.057662635455114304,-0.031551070459635205,-0.00802668458687569,0.02100347061687103,-0.05867911905090451,0.010440774771571107,-0.018259250813940708,0.04132403016352295,0.02602070576632894,-0.011031674075334615,-0.0028553688949404907,0.012713382649192256,0.04891932024979345,0.013350931671524421,-0.024296398229555132,0.01659463179694237,-0.02812031867634341,-0.01679994650983149,0.01998955951129536,-0.055969892029604694,-0.00032509401174169177,0.014196771706177377,0.016011295738025188,0.021206644138537158,-0.05525085309767281,-0.03342901661882644,-0.012443974697371052,0.03243380173828063,0.04821340354470188,0.004598807747150326,0.04347348699035727,-0.08709849986384983,-0.010823598536723957,0.009646462640190891,0.03151339819167744,-0.00927152887995459,-0.009301313778697657,-0.03457656937535983,-0.004891272193965697,-0.020061922736649068,-0.027991758328491316,0.010143769768617533,-0.008783000235565452,0.01968156477363881,-0.00857409157675273,0.031581646956435803,-0.00894168864942318,0.06522726156500602,-0.006942608512046435,0.08675521314933218,0.006806562079243418,0.04940666754068638,-0.008771116849973667,-0.014323582731299252,0.02925368111325755,0.03930220536240704,-0.059075289888136366,-0.026433598450297167,-0.006277961764223433,0.0360292742705668,0.04576186677149703,0.005481199226006945,0.032970607522082244,-0.00239400373340504,0.06167318073241351,0.056611057155917334,0.033439137580184033,0.042896067518298116,-0.03345264989973785,-0.01455619719903929,-0.03432943738908115,-0.0464913459959092,0.02440344876437362,0.0021462697912231587,0.021349115214788845,0.00959163333592009,0.030085361499214796,-0.012853424333830573,-0.00022565148093625629,0.03602606944622832,0.01765969325725792,-0.03458150618245465,-0.013165934886298617,0.04760051489465913,-0.007850615861351915,-0.029637873117282977,0.008438288876503256,0.052987166903774925,-0.04183094134325154,-0.08096552600513474,-0.02202115446098454,-0.011227682110935803,-0.005209740389824038,-0.04192668441701686,-0.018560735062397436,-0.0070123644297723385,0.04817011047067695,-0.04292576528184795,0.0205232831233521,-0.0022117906193300607,-0.027672730618184167,0.05134463043873043,-0.012790841384100728,-0.006428931542039016,-0.06952089454658132,-0.04758922253526943,-0.013412523163227478,-0.04711672940924936,0.003373006892388705,0.0028211837144294927,-0.001230646997189854,-0.009321016289511992,-0.06327169905357184,0.0761903835334769,0.009979238290148957,-0.0012792896417487475,0.019140652731289762,0.04778367257226074,0.02587094930692457,0.05118104952587006,-0.015081758958539564,0.013210835969711916,-0.03132936416325846,0.03117738946293203,0.004242150497579402,-0.05794670937875153,-0.020309139005183004,0.021422442313319204,0.026006816923241884,0.03874629896405051,-0.011887094813070166,0.009461057429976837,-0.054099093189013375,0.08009749586134261,0.021364683684569844,-0.003171929971685799,-0.04599385966016426,0.050229050455952974,0.010287942354141367,-0.03015240761197973,0.05955895408640423,0.03936938062711048,0.035877574256554655,0.03928854363328229,-0.04974477729382217,0.048548826217070115,0.032607917119111166,-0.014958299208224664,-0.03578934428992508,-0.026041071019202354,-0.03310505397776086,-0.0018645423229953684,0.064675143674165,-0.06066699659084504,0.025593482298520924,0.02312756923800914,0.015748411504963835,0.0445664852060857,-0.04958501971729167,0.04018464055711325,-0.030527009945502562,0.04221720927456423,-0.03316048113206889,0.006967215299172073,0.009854196422668703,-0.04110578970355752,-0.04453767904923706,0.013800822065582169,-0.022803645650058497,-0.05213821503443526,0.03087701429756893,-0.004641078605146774,-0.01771843505935425,-0.050743871137589346,0.0374515992133269,-0.04244571774068716,0.04460976231711145,0.02917758682774822,-0.05356651338003513,0.027584152561475558,0.01002192759702707,0.009093736270316606,0.10862448951933872,0.0014991227334487192,0.05825487595953898,0.010873095026552829,0.07741900173347029,0.00186894857022297,-0.05376872972982839,-0.01491795045406311,-0.00454057587361287,-0.0663646833836993,-0.02612387575738768,0.036790477941213824,0.05593908348612509,0.09404750377872696,0.007102841794723015,-0.07360445387589461,0.0077658607906990525,0.002163696885134294,-0.0022590038889440003,0.06318754423401969,-0.004403102772302048,-0.012454638193358378,0.008543895184886272,-0.051410768365456355,0.0007870560860780837,-0.014933599928512406,-0.034261807007880396,-0.00913466042676142,-0.02654991310645045,0.004712716760921588,-5.562710503776358e-05,-0.010335809233589555,0.04332164459840734,-0.03506016221557344,-0.0024320723250617357,0.05666856205010465,-0.03197320748956636,-0.012442691076607814,0.005723072114230616,0.04304622036232556,0.0126999663703624,-0.006444665416985543,0.028040432652781003,-0.013960566799733369,-0.022721454754217853,-0.057886174367338394,-0.006740151449702119,-0.03292881390930023,-0.0006575777082552805,0.01882364742130177,0.09825196987840366,0.0204413613417874,0.08863238350010826,0.015596389438993987,-0.001956383428023598,-0.05502415425059857,0.011615617535966124,-0.10235877417207107,-0.017651193613772036,0.024458146393143785,0.05032580809492113,0.011920431238920247,0.0321247746429121,0.026154655763613557,0.00015794794260205565,-0.042846173854647646,-0.04250106542841201,-0.0014074288160140285,0.04409270143392807,0.032175660841207106,-0.006496856912247323,-0.04762924648552661,-6.879270133900228e-05,-0.01848390536121565,-0.026684230864099916,0.023750923461725092,0.04470968853963128,0.03467588442171433,-0.05259642207005776,0.07849970733360144,0.08542070650316369,-0.0031102155070287236,-0.053662016941582014,0.02073679251425046,0.009686836018211901,0.02704048155627711,-0.07844924924221128,0.01039477286839333,-0.04940851394203785,-0.0073892531532155,-0.029053143530444425,-0.030623535181427276,-0.0036346055286124645,0.05258896135392403,0.02117663702047004,0.060916403185664686,-0.0005270990251366141,0.011135713073475322,-0.04726783045041426,-0.030803193352722132,0.0403426104635217,-0.001526251214461659,-0.03213204459624765,0.05211740336670574,-0.024192797456010936,-0.027788756998402095,0.033278494518914944,0.06250726207504072,-0.09000424160574952,0.01030346236142449,-0.018278920697428383,-0.052962536071634314,-0.05413913517985737,-0.010916516501615299,-0.04129855502325893,0.0031842946378723433,0.021451082898985403,0.005165247429801475,-0.020510860144704303,-0.018939553694261937,-0.037970032385680856,-0.03244045064629947,-0.008327035372004915,-0.03920336596881488,0.023166907746700473,-0.0570768706592304,0.0012646771294673362,0.03992319829308535,-0.044628198683821015,0.01724028360642493,-0.0068822771709276635,-0.015699044572039692,0.06853192361685015,0.021670562091038847,-0.03200021024626326,-0.01404524029921474,-0.022925731848394013,-0.022201294482731965,0.024554979617204997,0.009018656326061908,-0.045973702013680284,-0.04534594448241998,-0.008749327799933945,0.03360633056070505,0.05612949726613834,-0.018730216345098853,-0.009976012829168388,0.05492644560304427,0.029849900485404767,-0.012169395945875345,-0.05392847067232147,-0.01193034613264461,-0.056844566695696916,0.07133447791167861,0.00650726786099915,0.02607633110957335,0.023405845274381505,-0.022965465311067884,0.01673472837564588,0.0053750054988019194,0.03142295835181425,0.011371405358890243,0.044848418288689074,-0.020830498098269278,-0.0014796331525900699,-0.019956319710896165,0.013358327246483438,-0.003470144056392761,-0.023783689084308845,0.005052048481785737,0.0032415040622263483,-0.021405654231798976,-0.026472069950902958,-0.0431696550230018,0.023070131450004975,0.01847800824102517,0.05702558186763167,-0.03333245378234634,-0.05288429537607289,0.04355673055637213,-0.0021824243350632294,0.009116010701512288,-0.03160431773563084,-0.004581388292199389,-0.04082071085709428,0.017554013403539563,-0.02963558207544152,-0.010387040077784099,0.0285423626458172,-0.05740704398045201,-0.011190982674277095,-0.018302559346038274,-0.024618241277758482,0.017125475100917997,0.062107403352926124,0.13103634374402065,0.008336085147868455,-0.01676303005096129,-0.008072232676082241,0.011273991437102624,0.013894622978142679,-0.02511421268204991,0.005085204811611159,0.005777859016116409,-0.06728358363585206,-0.005328144655207178,0.05298087497336698,-0.04828025079309594,0.06793090748918239,-0.05283084926356809,-0.002409126671423718,0.0024702851016097558,-0.020739272048215827,0.04487534278745775,0.034511631571702395,0.029182224794182962,-0.018030852973056014,0.028243340249335103,0.0008528198135010316,-0.01765476225173073,-0.01716755535120844,-0.03602680839463149,-0.018924031993987126,0.0018386878764433349,-0.000896536126832967,0.011232075686508306,0.01258787732073825,-0.04485623647065533,-0.06597308938424673,0.07081271523156418,0.06217684968313546,0.03084977603559584,-0.06449532886187505,0.03151891809077405,-0.018167370273619886,0.015791699321822658,-0.02542660664125611,0.015102345032600554,0.08796851526949384,0.021522377762918002,0.014464465318732751,0.004854018890264601,0.0036452754788317845,-0.001624809140876695,-0.02110797535281815,-0.018581912130057214,0.04947865912583778,-0.031453547561621,0.017787828838963484,0.008570086546311579,-0.025004916955947646,0.024280317454566876,-0.03933214192790819,-0.026213328751552006,-0.07683051464615318,0.02600408571098321,0.00819433505163986,0.010003189889229148,-0.009971155987614472,0.02463585544148864,0.013788093157026518,0.04609963221435707,0.04483277403495538,0.023615777585060234,-0.008372172677679745,-0.03229973395681715,0.026013584302784516,0.015747897777865245,0.027756783883108475,-0.06471967246517768,-0.02489563463968132,0.0018690498071845191,0.021633396782861497,0.018227130270477506,-0.029747376464798646,-0.0098874478887089,-0.044782953820205924,0.008513647650754508,0.00969051863064471,0.018829605316452024,-0.007524512744484545,0.01466024726899075,-0.03991501186859702,0.017590722149168157,0.004313229072625736,0.022856216783142192,-0.03288855315207038,-0.02186032463210417,0.011819385014548758,0.08581600776766499,0.008424927489185179,0.015010094351857486,0.00960467154008349,0.010904567443921258,-0.012516825624872335,0.011589941560065745,-0.06665728004024321,-0.01616924575029269,-0.011281365239818656,-0.014960951817550635,-0.04668488059362127,0.004652389296937343,-0.005362475722218882,0.004279032236801937,0.0166550289866624,0.01796526086072805,0.017004862491663907,-0.01863934960086736,-0.06661547954327293,0.05704398473883772,-0.04249595751776602,-0.0005913370510209685,0.04572362516157896,0.06151071434479861,-0.029192006501214555,-0.009611053639228248,0.048005655806611806,0.0296203823986565,0.04885586118755818,-0.006570261227921443,-0.04034222140222918,-0.03941521877395293,-0.01959654476724445,0.0029982709392719145,-0.05706337341023849,0.017390112455274435,0.009347479845521254,-0.02253351416819005,-0.010459835767867375,0.007345891299006762,-0.08504077973099942,0.023979624246602615,-0.003852887385038779,0.0045777291273861875,-0.06584055918889208,0.016600522679462697,0.01655187778391588,0.007827285999676177,-0.04682117824047398,0.009588547877757566,0.04250988217056646,-0.01657535258932114,-0.06879569355564887,0.03248948900736007,0.0003936173429015527,-0.0172663495066659,-0.012024905913881346,0.04266175001287208,-0.002564831673648912,0.008205802467780214,0.03491205232487963,-0.06738095185280311,0.039525196440146765,-0.014254470145875608,-0.015109032333185552,-0.023262653748542993,0.0009955518225288952,0.008203719579360363,0.013718005130227348,-0.06272948931176231,0.015190051321619553,0.014856785541608315,0.08185885083465906,0.02402188504110883,0.09048737252548247,0.024507575831392032,0.03555657813424949,0.006576933596650997,-0.03243699153417267,-0.03661683598409131,0.00110661053599874,0.02831789109914399,-0.03829568811531192,-0.030336818963856434,0.08314804812136216,0.0006512493460144802,-0.047740966799788544,0.021925004012791,-0.009437616998102636,-0.0459836802002459,-0.0003795986926832303,0.011566981876931755,-0.05791198681169921,-0.07176764838567602,4.2985722846966436e-05,0.006573768090438305,0.04287874668809498,-0.07192855424160502,0.04115982300484851,0.04044631224555768,-0.023130951142700074,0.0011960683668778846,0.0558234338262709,0.01820692667943619,0.01992047475824712,-0.013352161998634288,0.00725376358878298,-0.04813591649613976,0.014267057960245154,0.017976812168880404,0.019188316687578085,0.0072567726922004245,0.018121417496781082,-0.06502032210306671,0.001332541058178214,0.0010592059746140122,0.01373324118183008,-0.0050201378716644394,-0.031210261262811456,-0.008503224597900523,-0.014690269800191526,-0.007677912003585684,0.04081840806432697,0.03374937653536063,0.013284614967015971,0.007108342299876404,0.007865864887309788,0.024195644185963674,0.023600920474206286,-0.06879692423303778,0.0025018562567424734,-0.0017226087310680447,0.02201799128731735,0.0023507630724938387,-0.009296833470151792,-0.014031183770854105,-0.017418801446464464,-0.0429314576563596,-0.021266126088429246,0.003741817060371154,-0.0044845814003771104,0.05684548823461051,0.02920102809657,-0.038479991000553715,-0.012598812309402704,0.047957707269559745,-0.00740019421306258,0.04497888461000044,0.011768485833590837,-0.046897857879971104,0.007559163289096342,-0.00203693364280462,0.03230112227807032,0.015109311359902346,0.01908591918939637,-0.05272927085438524,0.02978032264648934,0.03196033981150435,-0.057335959810305044,-0.031230964135013528,0.037201387921826826,0.005103590180150164,0.04464460364497941,0.012587307997169792,0.08026149109435395,-0.010042769273085408,-0.017076420988906688,-0.014280221169711086,0.03547330217276987,-0.02196653549841471,0.004311646006926908,-0.0044157550463515775,0.005847706640427975,-0.047930164869584395,-2.4140706024430985e-05,0.0742164692174755,0.012092626274273155,0.09257613409460766,0.022557962127638383,0.0301777770892215,-0.003217324452196188,0.028746399503182363,0.030308192060392782,0.03170658575235844,-0.003338305872954391,-0.048989995566285936,0.049458205615671505,-0.07688920396403673,-0.014640946183051142,-0.04568746114506003,0.011808496001194612,0.028623972630740045,-0.0053704085058774755,0.0014222518095610382,-0.030966382257363007,0.030708470705658773,-0.03091105838336471,-0.02003930263664314,-0.013725474381387463,0.05425902797939563,-0.0005962797840367654,-0.008231090669290522,-0.010835573092626772,-0.006921503456466556,-0.010841938714976216,0.010097404489519854,0.021055565628245215,0.00043044443181988886,-0.03148082992494317,0.014624512651609084,0.01106724137897134,-0.042023215787096904,-0.05960047910794092,-0.09310349173173156,0.030264619524498767,0.012632499071874624,0.0854512621542101,0.054688408378367616,0.07870374941787844,-0.004484861848011212,0.025385553517209346,0.06821982354147356,0.015424097164741558,0.058524082597540675,-0.0830604389797401,0.07961375141270306,-0.02404415865757079,-0.002126612721016465,0.005557671394955269,0.029790667772953135,-0.021611568460442508,-0.02357377567025517,-0.017754192284907516,0.0009467136563415889,0.00599028849930716,0.012441071540575057,-0.04862021459051386,-0.05582584319953732,0.0316261823272208,-0.035213995434834465,-0.010324828422897314,-0.04383767900884582,-0.0037571217736562593,0.02602205182157719,0.07141505214275581,-0.04332949008390028,0.06625816114670571,-0.06633776618908994,0.04196798871456351,-0.020474673352380946,-0.018222255485529186,-0.0019109903209904163,0.09164594433742769,0.013121284057159649,0.022160042018281825,-0.02247863106998598,-0.0025898933611442727,0.025192309258789496,-0.0025901135013823005,0.02099467227058822,-0.02634929174444571,0.055162820259961436,0.020066178712077054,0.05266517873539054,