{"biases":[-0.048279573548014355,0.02743389858506174,0.04626296435425762,0.005859382651972025,0.02367996951021276,-0.17487352467000677,-0.015182479610438206,-0.06528222713722079,-0.011552353640169656,0.016573433660094884,0.008607632430797749,0.006492311112548643,-0.07303976655486291,0.08743522773052358,-0.19060306938341862,0.04619473324630324,0.029514666394694203,-0.03991319699388978,0.04146219758693963,-0.036750675722024756,-0.11225397520219255,0.05440002402137851,-0.06439752455553546,0.05302534951349675,0.1868516425563411,-0.1464022384242058,0.03904986274409537,-0.02580254852688672,-0.05869067014417796,0.07897456303713768,-0.05136145791703888,-0.043746978624543915,-0.08906921926554116,-0.09123491702582232,0.07172188075758319,-0.08546370355403737,0.039144173592500525,-0.016057188286734483,-0.02165423302512943,0.06662878789763571,0.004088541350069206,-0.05092646933589694,-0.11844155259046436,-0.09020210654807254,-0.04161093642419623,-0.014991010372893819,0.1374026128334393,-0.0049942909188782315,-0.11335149973266784,0.016423111708198924,-0.02985762658087713,0.03917258089558022,-0.056384155907529356,0.0799251262936628,-0.18787002580863285,0.008056898439704129,-0.016509693752885867,-0.07318644694677025,0.028678762056022832,0.014372568670905549,0.18127679094984273,0.022914818998265703,-0.04233248537740843,0.28519450021286546,0.06375167352157923,0.05230462889518239,-0.03159696437580179,-0.055548550248279,-0.11169988877011977,0.08358608565449362,-0.006110627801327906,-0.03773156589860172,0.11587443559290261,0.016939334358172065,-0.18671822600508212,-0.012463416433401193,-0.07565599642819884,-0.011619852411676053,-0.0919681408737932,0.017868045089722666,-0.33339145154450656,-0.09650168857793333,0.08873408247694277,-0.11382868394303579,-0.008723452973212593,-0.06505751470634846,-0.1453168014509158,-0.018091599352639997,-0.0788087621253138,-0.14212728897387575,-0.025220159098221995,0.08819816151156522,-0.047079884890524996,0.006348837648633134,-0.178326227146423,-0.1088855835488506,-0.033202827247755175,0.06849739211177151,0.09882312526490811,-0.0067636938444929065,-0.009397383423393324,-0.039609236885523834,0.12021126282354871,0.03707923002969974,-0.01640144075238498,-0.02108344366239967,-0.06459055251396661,0.10693141057476847,-0.08904199178299536,-0.02409785440735333],"layers":[784,100,10],"weights":[-0.04423187743818369,0.02773873849832763,-0.03176928363205776,-0.0025810935655209786,0.018060832688941555,-0.027668182942468447,0.028071389203912066,-0.0005430643961151306,0.012609648763655577,0.010800189829671491,0.019393685254223688,0.04567821125005977,0.016989176141825196,0.03525689803353862,0.022718930125961333,-0.028449248665792737,0.06186433384572502,0.0016006419180418512,-0.005620921971999783,-0.039203116633700165,-0.029327288156323465,-0.041191484226020876,-0.010740905807407039,-0.0037072227905840796,-0.007312992301761034,-0.029120850510157684,0.05294880101662246,0.0059333461513456495,-0.00978732097849546,0.047087312898677756,0.05359591463553563,0.044772645575315025,0.03420940920566193,0.023839824705192393,-0.012871170504162208,0.011506499029035978,0.11267174049807242,0.04885296786874683,0.00446577680092846,-0.016119437100308755,0.0065730218679525415,0.02438342732391397,0.024352259973920546,0.010301948983090396,-0.003908485800307183,-0.004308136351205711,0.012715885990850755,-0.027446058559135195,0.04701237013837594,-0.00572383659307255,0.01095074812636651,0.010508729534316951,-0.06987841468172026,0.02259309822544928,0.00846012038160975,0.01435524001988972,-0.06064977335795313,0.02655267478508927,-0.05004171453716949,0.03209265465595534,0.06371682090737896,0.014892571954036189,0.039546881269385444,-0.016629805230108978,0.019679522127833957,0.03493928687801377,-0.007754745791586318,-0.024624082853892438,-0.042675092886000125,0.002957614414142203,-0.008320959486756211,-0.08765407786468021,0.0012914475449887744,0.035048451312904676,0.005591419953379606,0.035834664834206824,0.042918764238217604,0.0056368804203584845,-0.04991586454756624,0.05836631138735783,0.021722722887936363,-0.003656550546579522,-0.04874155532940518,0.022718513389302468,0.029699589197916328,0.0031289980578569168,-0.025217843099250223,-0.05199647322601084,0.07180649051437525,0.03085682710759323,0.028519218620781706,0.036671727238633336,-0.021840318826940708,-0.04298185456406693,0.010375802327392826,-0.023410993378523173,0.04733771992888084,-0.03367404216551004,-0.052263348209104735,-0.025027236967980197,0.025500026138231414,-0.013229663852916079,0.016400668647757147,0.028393458119089394,-0.006281773424097567,-0.029192778790677575,0.0006639253018647503,-0.009049114667345603,0.006629970970127994,-0.03260696329541962,0.027600673901997337,0.003941607556552496,-0.03796981760076001,0.015125295457619198,0.05011969553790872,-0.03404979500874247,-0.0001264222372731364,0.029573030113167396,0.01700845566645922,0.06057992829111321,0.048567843514858704,-0.0008025209092110101,0.009525280883670162,-0.0296521447526249,-0.026842164039181417,-0.007229222061942485,0.016951437606676008,0.045829556505131895,0.011782255217988279,-0.011359601159376995,0.03199728604600913,-0.021124985393238364,0.005938350093095471,-0.019850425298172228,-0.06154249554338925,-0.009050274355697899,-0.02218719790964402,-0.039034964451466904,0.011267562786727576,-0.05016852637861766,-0.038718836145426656,0.04566897851485759,-0.014587403688899592,-0.013254159138945704,0.03934648907362665,0.0015645060904286405,0.05098830605446476,-0.03435267034443605,-0.0026889243761198727,0.006999023046790472,0.025452925804027905,0.0048173298894913456,-0.0007843759710267554,-0.0431841453289615,-0.05994401112441899,-0.010011516547249981,0.015273429428773008,0.02787185093362928,-0.045077739018175904,0.023152092562862197,0.009320468752061021,0.025258409694855682,0.002367243300868427,-0.056656110035071074,0.0024087119736259373,0.002226580935466608,-0.012832485932275699,-0.01048224948346611,0.035064198447113545,0.006620185487666134,0.026327644813299862,0.011557437595218368,-0.007852585214607919,0.017821136990169673,-0.025494421575393982,0.010298792812910814,0.01091036452272001,-0.02683288236419998,-0.010226701019224698,-0.041227708024987944,-0.020298002600632258,0.008919842891763936,-0.013982991409358818,-0.015158347090262102,0.033117308862145305,-0.029661250990491425,-0.038438660195980565,0.014803233964886451,-0.020065688767173157,-0.0005209475008960246,0.04090826460438215,0.04241598438202661,-0.010717863857104763,0.042048099641671804,-0.03776698870163529,0.008719134617742604,-0.036606075689351675,-0.015958792359038458,0.040171098456231194,0.03952081417488469,0.021468514172306507,-0.0216555109722796,0.05263869259839738,-0.07849681796821804,0.012017030268777821,0.005944359601859316,0.058032326479980606,0.021422564318615472,-0.033201021514943474,0.013670872588771183,-0.029500358303943076,0.011580908142136088,-0.03231564168608091,-0.009023524219049972,0.057885587719881317,0.03279352325897062,0.046488047680394114,-0.013718914835286908,0.0029258794983359777,0.0011976094713532196,0.05377096817655606,0.06894406747590044,0.011154181868968209,0.020613877623018216,0.010253669273001064,-0.07574706961812257,-0.05474450726486128,-0.014586839642070089,-0.0014687945954185795,-0.027546423572117007,0.0031598874998726365,0.1084190324002208,-0.018632809006913536,-0.047869918158058015,-0.018045272397432137,0.04002018860859827,0.0015567349290508952,-0.0060494768137643005,-0.03767804514458624,0.01781951331247743,0.07373274388583761,-0.0396326973969366,0.005050400365304788,-0.016578517768198464,0.1126197397061684,0.03549266502023319,0.012484777252198367,-0.0052198982168841085,-0.0019478154083826527,0.05460801080524472,0.03179629073634587,-0.022004446293016202,0.0452976991403889,0.07486414362020978,0.08421036908266337,-0.11181718832346046,0.008115415358881295,-0.04446071026127487,0.031870004646673646,-0.03789235434025728,0.04695560550174586,0.0041000862047859635,-0.03369173357517354,-0.04895520148058126,0.009795486576603545,0.010524704397402513,0.0010246267880504503,-0.01281812709867504,0.027070843073499152,0.03637178243833376,-0.04443252721730137,-0.010988560272975569,0.04923772660909914,0.045106245520304615,0.019821176706049236,-0.019231102842736957,-0.021780697942285123,0.029810007766321044,-0.013961528494674894,-0.0024074848553749056,-0.02733072190257237,0.037347741725657795,-0.017048300587939706,0.01954816421759833,0.03198695236544519,-0.03902598618449416,-0.053903224973759045,-0.01370931907020813,0.08288207454499055,0.00956420150691355,0.0380101102567775,0.04269583573933627,0.07028265038332585,-0.027469411658554974,0.04526951153058807,0.005273611675879092,-0.024530260298915748,0.04531973000926129,-0.02638747689850127,0.02347179035377671,-0.07975763048486828,0.016868491465508815,0.0419895408821138,0.013946197095041373,-0.020387106666302092,-0.028491283944816304,0.02036620053132232,-0.0076693921404469055,-0.011218044477651425,-0.03205270172957603,0.02586693803494785,-0.011552384505047537,0.06197220898957389,-0.05555478908311599,0.039933452467382995,0.09042491692823543,-0.027403752189036134,0.0037222390120682054,-0.011780280452835782,-0.009310824259592888,0.041856595590655354,0.047701026965006436,0.0027795578793944893,-0.005401397906740814,0.015711406511846687,0.07244509186703318,0.051014394769659646,-0.012962473986084874,0.04789348944026838,-0.024333347453649925,-0.019866134633871265,0.01771344688387928,0.046455327668229816,-0.0016258859134234797,0.023189811071696976,0.0017835452143499882,0.03949014678325873,0.02631056943312318,-0.0017748840962052638,-0.04421339302888835,-0.011486242245019656,-0.04567144382103595,0.013938348495666445,0.0890175995598302,-0.019260401566051792,0.0936719644173311,0.02684902111272643,0.02894049304228475,0.007132980430682865,0.010419034696068528,0.010097618250075779,0.04774487163373729,-0.03789643966038648,-0.07211730571194672,0.01623171238093209,0.004220495315207837,-0.0307012808759522,0.022410788449701416,0.02902152102931474,-0.0030801529611325634,-0.012640766688235447,0.019389690921366037,-0.006149659320919284,-0.043175932980745235,0.0064098692498656806,0.0825632182163785,0.013381216880765451,-0.07893179894442265,-0.03239935536414268,-0.025665703817676567,0.0367843861608773,-0.00030805847819541116,-0.016729089893581486,-0.070432460341926,0.007159368707735412,0.0007083996496363424,0.033188234479086184,0.0004558877120603731,0.018498383648418288,0.0495568700569963,-0.03414891135443178,0.020277335246529055,-0.022699876650610816,0.05194825989077824,-0.04335359387864831,-0.006542947924763313,0.04196172629213534,-0.035525576859803246,0.0032995052972244017,0.02270826790540835,0.04572822856040561,-0.014652912119654084,0.0008520598241064648,0.01347146084805797,-0.008355013142680723,-0.018245509742065725,0.018956603852624803,-0.017669687075400512,-0.029272747489584573,0.0428293507865125,0.007664198685743122,-0.024755711671004977,0.04517108848024502,0.011176158457201607,0.008392057171782416,0.023095900305540474,0.044068533185774826,0.009860282167667914,-0.03429110289576491,-0.05631127105107825,0.03171689569512719,-0.029297635258692296,-0.02148692564716251,0.013345292840014619,0.01004260193057957,-0.02966083198429643,0.06542255750535961,-0.02169360789161845,-0.04838970577713732,0.002784521864076662,0.013303613760445955,-0.025411533538590513,0.022284729534587534,0.04721196916120137,0.030717128390854855,-0.0105335044440521,0.014259661390622055,0.006319236311037411,-0.004368713530320584,0.06706005424801131,0.011219624818682489,-0.029238095317373484,-0.003190293365380598,-0.007870486637624064,-0.028335774152718148,0.047519510152411536,0.016282649018208986,-0.013586428152624196,-0.001804002099370499,-0.058651146804456725,0.043760393223883115,-0.04790568982296566,0.06333156714763777,-0.0031340526702292922,-0.036637202260434085,-0.013322078251108845,0.007776057057517938,0.04328919512732922,0.03995899650345097,0.01609528071804329,-0.020400071555909626,0.12444833989675096,0.05236116245918201,-0.04146764423509008,-0.0145449548040135,-0.03250783634263583,-0.02621129696631903,0.025932649156743155,-0.031233124800289013,-0.005763586485119047,-0.00974867583441103,0.037097944860129246,-1.9066034890414237e-05,-0.054376346882302806,0.04482429587230849,0.0508841257166682,0.00649008582144237,0.041445516683031994,0.026006692013342065,-0.03880123147327938,0.003984638512397964,-0.03903311563420656,0.04755782223592304,-0.0029505713076137274,-0.042083833431432134,0.011748703372260033,-0.015921718541266103,-0.09092182537177004,0.021988507941249884,0.03750293836126528,0.014485611414703694,0.04497123839442326,-0.02911204133620141,-0.0017051201136185972,-0.03017541150237912,-0.02778162398148033,0.04675396792522384,0.0086790187866459,-0.028617528153966884,-0.045734143209307826,0.043805644523930834,-0.032766778940117314,0.03627952775736887,0.027257128489393146,0.018869531771060228,0.0031217041932825257,0.02122409550820037,0.024159347026754055,0.06843906928725596,0.0098009904225378,0.010650505003610176,-0.0307903071286047,0.045518881484689085,0.02693591326362756,0.015147976706767997,-0.009597123760589603,0.005647193215353102,0.012854410852239121,0.041216533039902754,0.008310435291346278,-0.03649499022636375,0.05130104899206496,0.004823157335361212,0.05323709990752736,0.018487056501449935,0.026789270359480317,0.022671952255500796,0.002328463051455944,-0.01877600651556134,-0.0684906010606995,0.0664947382002572,-0.03372974216087026,-0.02562889344467213,-0.04510153188345343,-0.01367824336182033,-0.0006418451760981448,0.008549592225313807,-0.051224320055279854,0.00578568416360935,-0.08319460609686563,-0.04183145309125517,0.04330298594833539,-0.056034658544775705,-0.004989637948484915,-0.007236419472818332,-0.006970348674910285,0.002267494718890138,0.030146699042548727,0.013502001417305605,0.021502643751005558,-0.015001485552054392,0.006685462849562283,-0.022462697395801926,0.00022317930245375488,-0.035226466603336344,0.03179501681678494,-0.009589257715604593,0.003998611064723232,0.05048803593437511,-0.03379916675235913,-0.023689135844334425,0.020191569871385723,0.06438962527942081,0.005987436837827241,-0.008351853091258172,-0.033875139125227674,-0.004703979509631182,-0.0018949373115245925,0.03312029158762382,-0.06712198070499996,0.00032700667530106064,-0.026193724982304344,-0.021877574123645688,0.04260986667195703,-0.0028999235275561737,0.03502822029667911,0.0621076912648947,0.02190310592899304,-0.009671823996905329,0.06125079284100668,0.04412758103868025,-0.12941857086389474,0.02395212309728293,-0.020006491182970185,-0.006614097543196016,-0.015980067442835148,0.03950230518806086,0.035829926682485934,-0.03895357458549046,-0.012360955088309632,-0.0049486655126257705,0.027259599545313498,-0.02770713794173225,0.006862461079271495,0.06247789074248313,-0.006255168839104885,-0.03640813975671694,-0.03312959194715045,0.06198208181221452,-0.09048698348046381,-0.03995307084963132,-0.05377872903698655,0.006823609289720116,0.00358551088567133,0.00513996486318389,0.011791754304267882,-0.07918528748163983,0.010611295324530519,0.05790951228500566,0.011248052062360908,-0.03050230979020677,-0.03746782317431413,-0.07677254216544623,0.044414108384391145,-0.011790717421826571,0.018601019459850588,-0.010382141035777767,0.0032371853444372483,-0.1267079587109299,0.008912616434977965,-0.0023863470788164404,0.0016529367552236562,-0.015341922359138829,0.05139563387851707,-0.015825904209234874,0.09441830495248561,-0.03923919937827217,-0.02018301307289399,0.020353903743259755,0.007041858722671922,0.013172204155716568,0.02240415138976212,-0.024800343329012046,-0.006018355194812364,-0.00932133464527747,-0.020093516649832402,-0.011826719991051362,-0.024853944712896356,-0.052294083013761136,-0.02271844679508652,-0.042729964082732545,0.032975909699950685,0.020831416868379634,0.05526450403314412,0.026743775888803847,0.05852079815517324,-0.023175957993757757,-0.020101783972467924,-0.07071552181150076,-0.001159854742461976,0.013879671139215377,-0.02282734625991627,0.01226418526574375,-0.017006180072446347,-0.009042481058060704,-0.05973896271455875,-0.03558604470751513,-0.05935650216996148,-0.06575229024206197,-0.06125188541687711,-0.038769352166274265,0.01120684981144524,-0.017996846307026554,0.026111280168118214,-0.011271322772722317,0.07252290329867123,-0.0038712378850281064,-0.019028182777747323,-0.05419991424626489,0.08227230863996716,0.04202430925919895,-0.05227088875301738,0.050131925965569875,-0.01047303200652147,0.010963364273069445,0.03914658460399876,0.00041225224951698335,0.036885831121414275,-0.0469963065491661,0.039853530982260556,-0.03187178908985348,0.06267317063217984,0.07656450140449636,-0.024088539316494406,-0.0331031240155524,0.0292580649863291,0.015999330186218033,0.01177007721779799,0.008059140104466025,0.02508879076685658,-0.0362745691728761,0.019812994136055216,-0.005927302383095981,-0.03885401191504259,0.039927683379703725,-0.026661253055190286,0.026383450963433412,-0.011723398295483418,0.020929725877735,-0.03563048808552055,-0.06789687416837348,-0.023585110833787688,-0.0493713924058765,-0.029182765814145823,-0.0021688782960235025,0.0056257571260015,0.0262492540884748,-0.01018362884505896,0.010697956470892962,0.013447892143701515,-0.01629395243504236,-0.013061315308064972,-0.043723537453291446,0.0245387386978132,0.05154197091507267,-0.018618439114273078,-0.07114505091332222,-0.07055556248329177,0.00686078710926539,0.02058448694127152,-0.02651898059446456,-0.03395648708796191,-0.012699132382988892,0.029481823161870913,0.009597505724724287,-0.019594392410115197,0.03470392126815061,-0.06839632903635441,0.030475913667327298,-0.022781218142080735,-0.005931019057860157,0.028581824709353193,0.006656646271495858,0.03948982445683791,-0.044963367908608984,0.0012883337019758642,-0.03621310884748392,-0.04087869429814866,0.029601668801480664,-0.012394491179787966,0.07070615374408855,0.061511722378155095,-0.04956239277653694,0.0016465948236387118,-0.03242933903220934,-0.01537872608546973,-0.023487240109302903,0.00844625830886126,-0.018177464769660034,-0.021159513739840114,0.00805501439952894,-0.06653010146375622,-0.03323731004225159,-0.015101381986551787,-0.06447317716852839,0.09084025938611716,0.004482717791380869,0.0031767999006247077,-0.06291712129414051,0.04852653929443343,0.002547865528844152,-0.021866033081958166,-0.014909580800945961,-0.003052541018037263,-0.06871188293614146,-0.016558355876247075,0.023478875579746743,-0.07124643372629778,0.021543982094382033,-0.026316306725147467,-0.006775742375270306,0.04914958892525996,0.04165077874682935,0.02608688385510914,-0.03550436577557593,-0.011778704909310425,0.010858759401356222,-0.006647336237473336,0.023356282146718022,-0.01103893806501146,-0.03608618794948028,-0.03646803790718655,0.01716455375231749,0.006049937390142315,0.028952956022460584,0.005208385138172697,0.021074075574262007,-0.0029073878528642315,-0.008809093338206606,-0.037023156696414886,-0.02512746951722264,0.029920190927640585,0.020440417342653453,-0.04217416628887927,-0.03044252928009721,0.005731265942188479,-0.037920481830640014,-0.01852877408077592,-0.043626381362661455,-0.04113402836364156,-0.04485505732477884,0.003582059979480555,-0.018115908789606984,-0.001632046805884304,-0.009770751615038795,0.010589968200067402,-0.001367952252694815,-0.024228388901471304,-0.023217245052549712,-0.04874264950158015,-0.008851362143555147,0.058702285039316855,0.0037014654752490954,0.030963923265840968,-0.005947718343835641,-0.02272286735818606,-0.014584218617427896,-0.051169396310163075,0.01749785098326143,-0.0072080895692186765,-0.027045318993315567,-0.0091515310630476,-0.008044538253025361,-0.022581229795178293,-0.012967261614198054,0.06393546086518963,0.013526234376494913,-0.037809769330836886,0.06235817622380668,-0.03257024470689234,-0.01200772655447006,0.01419082715200294,-0.0017806152245543585,-0.01874857371904548,-0.03260806639590563,0.03590251525321379,0.027289265925309312,-0.0009633253891398919,0.03006276508457071,-0.030534694185582897,-0.03191011193834291,-0.03150422106649351,0.09536401932676258,0.005117318479110129,0.033982874013295354,0.012271028783119385,0.019212429170813252,0.030256394681284205,-0.005606332257401913,0.005675680223425128,0.04892902191224095,-0.001892484330118275,-0.00614103983433058,0.07178160358314808,0.014290813047550492,-0.023298597963360295,0.05042568388771484,0.03821232150245513,0.005019560247124674,-0.06870586703443005,-0.028503387277929487,0.005119265875855222,-0.07580712181270274,0.05183055574641998,-0.0010047817866164453,0.009034227665698918,-0.010884733307800296,0.04147465846652697,-0.032260101247786485,0.029693648013566463,0.002317846817537984,-0.04901920248239937,-0.05918985850258169,0.049373923396484304,-0.0036205056287457954,0.03342427124285799,-0.037962539454987454,-0.025286772694232584,-0.015998591453957156,0.0028122624457743925,-0.016039688279809238,-0.050398823041034206,0.03297953282538798,0.020498361380187555,-0.004891173369974309,-0.01117032918442455,0.05462436041913492,-0.016359465203124913,0.047557260059072695,-0.06105679628900946,0.007527606160531773,0.03801451303259823,0.004163600477580617,0.04099998167584194,-0.014154432447776446,0.036109102877830236,-0.040669175202732076,0.059301005362923064,-0.022519528850440035,-0.08110653144000296,-0.09614325396605625,-0.037685765845840484,-0.05763219813690215,-0.06357695178451343,-0.0032884494688794506,0.0005858529041853878,0.00733661951470424,0.034694716574566666,0.04508863640622832,-0.022072757530525636,0.010295578582484956,-0.003264773549519404,-0.016161753355386558,0.021196182984837143,0.0055512132173486,-0.016670621135264015,0.00023980574621972794,0.04073991373526046,-0.044175416218048595,-0.019194380576309705,0.02521299205631987,0.0347235416169119,0.05751190019526159,-0.003826068767957024,-7.968312691040578e-05,0.000665275902654465,-0.02829924206501857,-0.03271352370957411,0.042736032900637676,-0.04968760762008544,0.0004993644389171519,-0.016802246689864884,0.00205794515873486,0.03904614243803748,0.014814076637369588,0.006530827339035765,-0.01861508582190943,0.029351480360115655,0.061505656585812786,-0.018717454249011667,-0.042308193383011984,0.03385825941624645,0.030131103085213218,-0.0004037372547156676,-0.046651210309129935,0.04157765835704175,0.0067581731803175475,0.002022220939413302,-0.07861769643781019,0.061351226334615816,0.0438483268011114,0.07317126867842723,-0.04913470400717686,0.03662683806295539,-0.0002858944738554302,0.05738239997021333,0.012935397500879296,-0.028582479482570314,0.00892447835679986,0.01058228414978684,-0.03384895060295421,0.035251424608725566,-0.04987449662370432,0.05460682105916089,0.026612495041797322,0.007111092069707652,0.009750838040359497,-0.0022460364512461497,0.028246146867564895,0.044597282071836455,-0.03948192613178413,0.0012461291764619632,-0.007682849294142545,0.04094178673990206,0.010432914443500219,-0.04213131331965707,-0.003092085937610983,0.01734220987000975,0.03164677789619648,0.01146143147637874,-0.03986818369468273,-0.03202245211479262,-0.04613820888924671,-0.02342731424942472,-0.028252279475616305,-0.021087215847806314,-0.03181222061811369,-0.03226052778123337,0.04088185310084722,0.018850369365856826,-0.025508150212293693,-0.004192937897859093,0.04822991088398014,-0.017557831759288493,0.06483484864335384,0.02104412201548169,-0.03909498721881376,-0.011005079766201046,-0.04187567808646923,0.014611912706245051,0.023150461032625785,0.017853822561504813,0.022507845702260505,-0.01076169552569944,-0.05055290368971142,-0.02190081828022974,-0.0317742610576082,0.07366716206942935,0.03826221947133962,-0.09217191226519403,0.04445160461578095,0.06412383170729283,-0.004847907178782722,-0.03446337889243167,0.0005425454693493446,0.04646283562338916,0.01957439279229035,-0.06345773591272619,-0.034562196770203495,-0.024685354331319118,-0.024341793253904696,-0.0024355314241667923,-0.016058780903901147,0.023803895766204727,-0.008068484376716282,-0.021352293971018312,0.0017654610097696485,0.01774221752510657,-0.06349383181793862,-0.05461607065737564,0.008580375396267537,-0.03554696110266627,-0.021468627583822297,-0.013765275849171477,0.06257076783148034,-0.054598920371004896,0.04170447322908686,-0.031439577925903454,0.007405901125649362,-0.044888086888832425,0.014050975604199102,-0.008806202596668053,0.004771972493760294,-0.01196934021513267,0.02186163999806144,-0.026985260737234947,-0.06058719527245298,0.004500938344927699,0.029294501324564907,-0.0007081267426701839,0.003796780820254435,-0.03062139989481219,0.03421724561253556,-0.051925045455140484,-0.026933409872897267,0.01982538482167611,0.020902428341324997,-0.018039980308625986,0.0288519034697614,-0.04532737316903477,0.022418663486962035,0.04516445472914637,0.023703233712009556,-0.018255473268388094,0.014428686019422052,0.02128050466915984,-0.044247694154535694,-0.029843775712090743,0.009880216404603114,0.03541614238064801,0.013540160042583581,-0.0047155319457389926,0.011217266839768255,0.011628409867317798,0.035741895660549465,0.010229840552165715,0.02883742198078716,-0.0012347880111495712,-0.011357105517706054,-0.02310216162984542,0.01551012155908435,0.07380243685426457,0.02979902275120737,0.027382418780265188,-0.02331979186045774,-0.008210675828744815,0.038364540388147725,-0.004881133803597735,-0.03441322936607688,-0.02340735186708449,-0.011687229265835607,0.02661466260878287,-0.041745068170813054,-0.005888999563376346,-0.006251766867977643,-0.004608439624734082,-0.014101836273582462,-0.05461755431059529,0.07431987496527655,0.06742860431185367,-0.010804752706908862,0.0012426317061976805,0.010679452611359126,0.025786685151264872,0.00041910555408436353,0.007527226982129732,-0.027648728565004492,-0.0010351681542689793,0.030536979131656084,-0.00016480378908426623,0.03844694957480924,-0.009734692023487848,-0.021100564789870064,0.003484287898442473,-0.024967612709608462,-0.08280651357434166,0.019247187487498926,-0.05561040766210127,-0.028582292644975908,-0.012323513252165677,-0.017916525893776073,-0.04694942516743208,-0.01980364828503579,0.0035108907052850964,-0.028036475964448436,0.016558954010710305,-0.01190690379240236,0.06128221241196778,0.0413211676435993,-0.0680499068313984,-0.03994557521875661,0.016449909517673448,0.057838786997442715,0.013487485527826262,-0.04980248414505261,-0.02622195403700529,-0.011271403467932211,0.03289839068585996,-0.041208055638135156,0.00940955751413817,0.011170898810462227,0.030211223989132164,-0.03647779840140983,-0.0535661565862247,-0.03484841915467901,0.0019079054732819441,0.01818836057845929,0.0011140077027065281,-0.00834796475571026,-0.011760079171843095,-0.04024805891067207,-0.038055151872026474,-0.051448631003381824,-0.002684380763370876,-0.016911137919050905,-0.023243209438308446,-0.0016999156905109737,-0.02694859355568568,-0.002352706779674205,0.008619007081118317,0.040091858390756525,-0.03757091408301345,-0.06383594486888067,0.05396046668699173,0.08195167094315535,0.03363960553622941,0.0210381030874022,-0.03942928891830436,0.010476542972542831,-0.0022742718771111468,-0.011598614569466415,0.06070591109729224,0.04734729780041377,0.012956916617784635,0.01727033609258198,0.010433048709891627,-0.044633764515999416,0.029072894861744702,-0.015218752692253212,-0.03943802401649401,0.020086008445582264,-0.019598128244871144,0.06961347541855124,0.012050565445372408,0.027238087734348052,-0.039061255219022255,0.013961101018974086,0.02533054011654182,0.003048001732156745,-0.01148978158842403,0.006385088271756902,-0.009335899106647024,-0.00499950482854925,0.018372639598069323,-0.001837914183792141,-0.005338627116334299,0.008777202812335188,-0.01679984645733166,-0.028968910047266216,0.04797856403275973,-0.03820986818030741,-0.03055126430193652,0.034100709439539585,0.01649358181546983,0.03529994014209704,0.00514202129675302,0.017113035633184066,0.0019399190915609294,-0.02181284470472857,-0.027518316743687786,0.012942359675125479,-0.011063902973085004,-0.006282143203022126,-0.0012295667590431765,0.0006780275923479396,0.017919460142641425,-0.01612590798872547,0.030011050939924892,-0.07564989019490488,-0.026640793091164676,0.023676945321995747,0.01418963934893775,0.03954768226003684,-0.022464985867128705,0.012652391357054307,-0.05718189363467867,-0.008360853569018702,-0.014711890940917006,0.05543893078118467,0.03231763566325682,-0.014766515316922612,-0.0022205001511383525,0.012263428966795194,0.0041675218516309355,0.06304932906271359,0.002952959980825811,-0.01792162405349128,0.02161777960999497,0.013334189894484172,-0.0038181921436215233,-0.00935189921079992,-0.0016510695528481713,-0.006831068101276534,-0.015589043581412013,0.009728038739497891,0.008429265238781989,0.04469051623869249,-0.05531752432331452,0.021834357569118952,0.04143000921013117,0.02413805414554352,-0.01829654072951238,-0.02068558540646498,0.053608093627123016,-0.0042887101196862525,-0.04274715434126689,-0.0003144858765418474,-0.014985638716044943,-0.005881299866984345,0.00173868336710865,-0.02084830934092792,0.025331495003066192,0.021002163972572836,0.038133814137235766,0.011142280509102933,-0.02234538315087486,-0.11642174188580082,-0.0022502993611993823,-0.02866703506398653,-0.05767735220176287,0.06418166162684079,-0.001104771514205133,0.011234679170150919,-0.028534387025149606,-0.0012488297759187111,0.008594772690589473,-0.009085346709304375,0.029858188955381337,0.0509042359021664,0.02244585652213021,-0.02220734053342522,0.00022896869596722742,-0.056555923929779074,-0.03225976925062127,-0.030372433239057077,-0.02628410724904286,-0.04650594550976783,-0.002380419879505856,-0.02165624503474677,0.0223104729504707,0.06152419576459285,-0.020873373685871166,-0.012741486824874249,0.020294983037428944,-0.01150320437001785,0.017235647214167746,0.00278722075180087,0.0013277500072482009,-0.0138200631008626,0.040140084938633025,-0.003961502876933883,0.0402778519116292,0.008916138440651394,0.02073941601653865,-0.007063338994026156,-0.03150476197489318,0.01793967140545515,0.029994481592946355,0.005066222206628367,-0.009024097204864972,0.04325826591096238,0.0046160016367071,0.06298259696321479,0.01299726198111009,0.03372189401068609,-0.022183597360760046,-0.030040423292749432,0.008984343490370356,-0.021315261626996783,-0.007301014068013405,-0.014385757765295338,0.006670708310751734,0.010690315245473571,-0.009645371419268264,0.011464773717452028,-0.05051456623409361,-0.02986310436126869,-0.006437974456513653,0.03526212126965888,0.04649459199375028,0.01897054049142664,0.0339398415996618,0.036547318065666586,-0.013111400784786308,-0.04464223832033355,-0.0223000642138969,-0.06096639544565498,0.011616517676705537,0.017000375081600676,-0.02371275716530025,0.033050006045567175,0.018871063846115796,0.024686383943768302,-0.005742526817246818,0.045984238108986934,-0.008754952644497023,-0.012365948948228069,0.011616446020254302,-0.06697611129702499,-0.029649226418019318,0.0324128493346067,0.03811751439533796,-0.08218036707093555,-0.024719865177182693,0.031152475943677864,0.018761688186056124,-0.039958703191775614,-0.0199444175107204,0.06903419755572207,0.003537799166661289,0.019496624562351038,-0.04430794301742629,0.0009488079296917494,-0.006077768536362647,0.023286296909906287,-0.03805558025232513,0.009366369000629045,-0.03525531418285657,-0.02477431741129131,-0.03390276770409046,0.009199978262142559,-0.03853871894600127,0.004650533822934133,0.09739430390492895,0.011616600216246798,0.011439092258923615,-0.015707385188390034,0.020381918727000535,0.07871089927212457,0.023302358193556007,0.02130032776227329,-0.03509459055072367,-0.015343958589370092,0.046270191144142145,-0.03770553039747226,-0.03733688846382833,-0.014130032226365746,-0.011142648458231288,-0.010538286350164532,-0.04624377163631386,0.029911592726321205,-0.01714942188891606,-0.01983989548774317,-0.02638180378740324,-0.013809232857516745,-0.046497712550544586,0.017630124344589156,0.010154174832719938,0.008364031931291132,0.0723460415547533,0.03350502308376317,-0.01310488303390703,-0.00010392025099844103,0.004779701145949731,-0.023639901462657157,0.0242399255206629,0.015655276269791654,0.0495003191782569,0.02415714905332858,0.060822601186653606,0.010154434379348343,-0.044012757337998296,0.021231104682052995,-0.03830232577237439,0.05860025942156791,-0.026067144692522432,0.02176621537190988,-0.02258262646811573,0.026733965769787774,0.03229423653898244,-0.03538774860433116,1.251030311913454e-05,-0.015742321860317553,0.013963773493239571,-0.03134698596300902,0.013988963104482558,0.021515562350512902,-0.0369375473072493,-0.0010481486217660174,0.0012147270525012617,-0.004401436571584302,0.016189911966030937,-0.030018473670764732,0.023772336665128208,0.06831924390940938,-0.005754638476367286,-0.007493036688754783,-0.023403016638772645,0.007574182392373985,-0.009813222900517553,0.010438824977606927,-0.05215684793186587,0.05476831905381815,0.013423461197801589,0.02023960698936745,0.001850794331135906,0.06496529607930261,-0.03898757837349124,-0.03988375669675497,0.03583921954859578,-0.028310799419754742,-0.014635105938369846,-0.03445092994628566,-0.053358288279807146,-0.02352163772418282,-0.03010186420907514,-0.007156087360560447,0.06346533154455049,-0.07559938340785861,0.058103676794051366,-0.0324158025925504,-0.03150951051364545,0.012259971568598536,0.01195839019280295,0.005262078883232046,-0.08335946835783455,0.06541463762112121,-0.026906846879565897,0.03437930456907419,-0.010599872522294738,-0.021055930670969128,-0.034729303901101814,-0.07370311939253536,0.014847063591961189,-0.03805358536624797,0.03891064072405631,-0.06951482131063139,0.05320258829405845,-0.02204607315444769,0.005407388530766081,0.026442016602603938,0.014893224688243611,-0.02860331825972988,-0.03015957055101055,-0.013251569887600234,-0.01740124016858144,0.004296382416217078,0.054462600512518354,0.028882041875188447,0.027295376428929298,0.058656669755085225,-0.004828679337852789,-0.022556312643149626,-0.03068286105952103,-0.020600740683704828,-0.02348976045697971,-0.021745123619840847,0.01472036430604742,0.0643785661687441,0.001994594502578827,0.03098591926104452,0.053479100844613624,0.05591984612910186,0.06978015233125757,0.057680815380002186,-0.06119342979038093,0.03838515100476818,-0.041572517439045706,-0.01655387262127469,0.013626391093547135,0.02563977377281894,-0.004432173868521654,-0.04454177925705567,0.03227421053691752,0.041164140318623595,0.03879412136408342,-0.021270742117594835,-0.01930103458659338,0.020888349377003502,0.035270840654996326,0.03966838700874321,0.0022313029368540307,-0.05528308437341635,0.06026385903359971,0.015924307391979555,-0.02413520967551109,0.002742658166818579,-0.03871933362455929,-0.02305571881477218,0.053637628946464656,-0.10864682000551186,-0.047340535019372194,-0.03536388179809502,0.001389889409744959,0.005123579667191542,-0.01170419596284679,0.04448831593090847,0.09247309234822003,0.027219265814552716,-0.02025780466557896,0.020183529154327202,0.001568778557365622,0.015921193844518875,0.07157525553997726,-0.046360029287793786,-0.04285262681144212,-0.013732854069282947,0.05362966538374454,-0.03300092600070139,0.041628141906248445,0.018939166850070483,0.03118284563853139,0.04048670169593544,0.008281418201374834,0.068946682807488,-0.028372247272763863,-0.01070102783692027,-0.0022589678858286567,-0.03203489848149437,-0.009928566937248225,0.025252627111159904,0.0021703033365392194,-0.004806717711832218,0.006193687215245488,-0.007373889690716278,0.03769921984560958,-0.00037757761869819005,-0.023269521517250622,-0.040521888359431775,0.03674929122017415,-0.015091731267587012,0.011403596431129646,-0.055035156174166364,0.022401091764951156,-0.02395923251063114,-0.0182202670897733,0.018432732505001062,0.02860678367345305,0.010199489139959548,-0.044192887040271904,-0.0015983032159976407,-0.01625648908904909,-0.014179297476045167,0.06094312589183223,0.04864805282508267,0.006796177275187511,0.056267902254670765,-0.027024021438022926,-0.02957604901770013,0.014711695688752755,-0.01963029964030061,-0.02697676816890158,-0.009275969273262876,0.0015107799658860088,0.005511545439509951,-0.0023432043626856027,-0.020720738360805728,0.05626892749113162,-0.027488900110876867,-0.008722066185071462,-0.012544193783972079,-0.007326507581081449,-0.009407798554363241,0.007728269117516642,-0.03277303752904671,0.00048055776764054396,0.02883242567901664,-0.027664864812213842,0.0022025023821017906,-0.1029931289905871,0.026988104717335523,0.02526821727876228,-0.04550294188479992,0.04924269557846581,0.04431125006108894,0.07603143329142038,-0.046195791433175336,-0.06333118479841737,-0.023799498429106062,-0.018099442815664207,0.008561366086932247,-0.02084525787575527,0.0050285372436478515,-0.00836268783121914,-0.0070710668141566995,-0.004863586230284418,-0.03335626763056269,0.02124265639204827,-0.02937997946973935,-0.0436602762905424,0.007121560878033176,-0.03980419013027419,-0.0076947892609948694,0.04839299903667373,0.028004879128493566,0.013793375946677231,0.06325621335137915,-0.015878817938840047,0.032247276553199165,0.011243261960771684,-0.0012027910175971923,0.04595158929387813,-0.005632272484542615,-0.006455142675797449,-0.023377531520043317,0.025612648957206604,-0.028897808091258578,0.018514621847696606,-0.035233388758611456,0.00791163058776456,-0.01142912244266221,-0.016443693656059532,0.05020491802603447,-0.0603731798846458,-0.023023650860442946,0.040374602356212735,0.016122287701113815,0.058987319762700344,-0.0069873863150491525,0.021004791322714565,0.0006528062891197902,-0.01264023642458332,-0.038656287893498474,-0.005722857812419956,0.0298346979078239,0.03314867334874713,-0.01655052745788889,-0.030572093426707775,-0.019699684392284502,-0.028054516868943263,0.00040441665736557923,-0.011129052373720713,0.014282803621566278,0.00029962307451705344,0.0223360895506703,-0.017327689363919967,0.003944052917188247,0.0056291748682516084,-0.024361843052649775,-0.02110961399420365,-0.06898286851720412,-0.024742325676281186,-0.005607879450575256,-0.05551582707017358,-0.022175382389856065,-0.024424142358376404,0.04466737254631503,0.03405003419150973,0.02824610682772255,-0.03540433320182134,0.02621566867084795,0.00987437582868466,-0.016270890537037137,-0.00246817758771515,-0.06554103008549304,0.06286067679582341,0.01736349316172506,-0.031803468359200754,0.0019136358930776226,0.05380380508190214,0.007204034614196874,0.056125435851082844,0.03145244972032203,-0.028211479661763784,-0.02414285530746974,0.026502191580725917,0.07121347513974031,-0.037111735363848555,-0.013265223285608906,-0.008090001606573258,-0.011305802209442252,-0.04332938629506008,0.00042046346204539027,0.015903008200351017,0.0178002757784701,-0.11473295025168721,0.0860167780084004,0.03306014951497325,-0.07101563363878777,0.061290874952084205,0.08532065113919625,0.014884471001214086,-0.021849321227004604,-0.015119969638973725,0.013742097839893691,-0.06840769630580465,0.032413751481649794,-0.015406603283571874,0.040892456792905096,0.029345374886221794,0.011707357391772474,-0.01742181567852777,0.048875017234520264,-0.004534975987838117,-0.06997015328213473,-0.006003008544969599,-0.04279947202281857,-0.04521944911045755,-0.05898526729060482,0.003502057477932842,-0.002403264346793339,0.06372361762581194,0.005561166782754891,-0.027886208607716054,0.013698243936142333,-0.0731050562752407,-0.05954405687208022,-0.0029279831324744913,-0.0022113223164721627,0.034115495396016764,-0.005271219884537985,-0.04610609094419446,-0.006407036661452206,-0.03629809332459793,-0.05881077168468273,-0.024212385553425673,-0.06413688330696578,0.007158305555023839,0.049181232250920824,-0.03812604576277678,-0.00769978764910384,0.005450317104151238,0.04139772251789219,-0.03582448829115556,-0.05434240879142517,-0.024127873256369007,0.0162447229825897,-0.03212132101801061,-0.00018065612919129317,0.022733235369691594,0.022192604048437686,-0.04118196891342915,0.021822935935319407,-0.011703892282234155,-0.08021808238984356,0.028759587620381197,0.03466863711395977,0.018760300919562056,-0.003950161021362695,-0.01581957296017445,0.061545697338263275,0.07665517921531526,-0.026440783291844145,-0.004115151315379639,-0.009715883582903885,-0.009165642180231361,0.0044428260656189334,0.034208429630511204,0.006595715549133782,-0.01888725790184894,0.04156143708222323,0.024582885185456097,-0.010415490071453795,-0.013479858065918,0.004539750855935739,-0.05831444688439447,0.031217851877214247,0.055797345677096676,0.05025448766247467,-0.07912222897384232,-0.0050249301900616205,0.012622268056842004,0.009343244662376975,-0.003974179014180795,-0.0207608897669017,0.034979048412577894,-0.032554100925153366,0.04322312401362982,0.0291026152181964,0.020383938302508904,-0.019420591712451012,-0.009965897112642183,0.014949548881664287,0.019130126388604656,0.03280569011777013,-0.022710790075535586,-0.007773337783762383,-0.0017969075362298673,0.027025712053329105,0.026411209791816742,0.01598211793165315,-0.03755943675399392,-0.010316918910994887,-0.10299994123098333,-0.0010786519881900466,-0.03577072366991955,0.0316398439037149,0.054306150876669686,-0.004129206578381943,0.010208085588923225,-0.006130910622509908,-0.02314823811285984,-0.02851095217328993,-0.03901769429219169,-0.04118615570217586,-0.013256523099112695,0.04943406741722757,-0.003851416169924806,-0.040007604847668264,-0.03386747201466408,0.006992482974837492,-0.031935077142346315,-0.01615570810911581,-0.0024095954106662662,0.047053561398225495,0.019518826894928884,0.010127677851392299,0.028895511632590933,0.07597119358238118,-0.024238302569728493,-0.002942566816847338,-0.022107200586190902,-0.008512564694974344,0.007737241831959352,-0.05002996135404562,-0.0004738489362150154,-0.006848663794783779,-0.018745884513178483,0.03708885894208553,0.013929690917911616,0.050573148560145297,0.007130705324174316,-0.034621907432043186,0.04285043802188176,-0.01665791999325323,-0.04799333902290922,0.05158660463759583,-0.022460983476748183,-0.008814109963681205,-0.04685038346069822,-0.029354194507271274,-0.032129099455018184,-0.044808165784408195,0.027423951809269348,0.02080011704370531,0.01958534444609258,-0.003580763919106696,-0.02705939180701662,-0.035191198253553393,0.05388799434599147,0.00584560742260555,0.07039113698880439,0.011444887114987685,0.011983180170664258,0.03309357594993184,0.03894430419139629,0.0034495412022078034,0.03037482459684016,-0.04831591767507696,0.0025970345462359933,0.023137644742168808,0.017174523965421212,0.015538627180667341,0.0489834102596117,-0.031761205897149695,-0.01321785000116281,0.0036710926940930412,-0.007772067461383262,-0.0639858374956088,-0.05515724102028973,0.057846857302135304,0.02426505536579305,0.009667674226182388,-0.041054667897969556,-0.04261329966443294,-0.0060461396130372805,-0.0540479756319394,-0.03706636833000645,0.0822581810966792,0.04059881472858582,0.06434432620213534,-0.0008031775639680518,-0.10929088855416798,0.06325467290318953,-0.08462041816011427,-0.04854288018903128,0.012319963867371313,0.0020386915773404827,-0.009291631293296921,0.003240229417660029,0.026669285177307208,-0.01986995393292336,0.028918515070449863,-0.007751824262470315,0.07498988959257737,-0.036297671241747057,-0.014025371530733183,0.005323794792552209,-0.0016257627276133316,-0.00043178483915977243,0.03080203884473364,-0.00771419031093084,-0.011608721889528674,0.000744629714539635,0.013306195191909098,-0.030297678929465523,0.005550479495680115,-0.02683302539002539,0.0513234598092202,0.020245870147583663,-0.027970489590388403,0.06554810406277685,0.04008771901266646,-0.019563221863223228,-0.004400586658449113,-0.016126581232184706,0.0006232711426255662,0.010579235549851174,0.0412684483546588,-0.033453058859399296,-0.03785705873139012,-0.024877338700900548,0.019465991922265755,-0.036578106405951896,-0.0010854312081150493,0.04914413137769346,0.011314155779893816,-0.04921085266392996,0.0076811379332234215,0.01681850780273827,0.0038868317037629835,-0.011205300782129793,-0.02811179266656664,-0.022015292385260184,-0.020092989695342095,0.05211134139396352,0.030039824294362295,0.018583804952005758,-0.053678408617892914,0.010941307390495068,-0.038195219733402556,0.007005747543868954,-0.0017151298030912909,-0.012634456228019054,0.011488716744133497,-0.0785171454082709,0.004918313327237521,-0.08210794665017887,0.012250335890657086,0.02371533950413873,-0.027726804291624073,-0.023326236981324952,-0.017532262922399983,0.02820641239406697,0.006891631922037783,-0.056121902361369456,0.0462987107237124,-0.01901971103891852,0.026947712453509864,0.004958285763543409,-0.008625597077211855,-0.07332234661452304,-0.0005040932780403398,-0.07595841729277984,0.07258940445033393,-0.024410367659052287,0.02949667825965362,0.017399808809732745,-0.03339303474939913,-0.03370376159432237,0.015474156076017653,-0.02434235311377201,0.0029561819422466965,0.019149368113517327,-0.045655448454631056,-0.051792881979794834,-0.028053887883958316,0.019663046569776663,-0.02109109871898613,0.05481211024591651,0.024721364758160294,0.00013287565514862217,0.02460773255409644,0.023499363658568997,-0.04052752148393105,-0.06346453582816822,0.004769803646217075,0.006960149022935084,0.02677690283488614,0.014883367007002655,0.005737086293640585,-0.014734863660463686,-0.005169086158318943,0.037095356908485325,0.01821467943652625,0.006454289796811614,0.007006902050401824,0.010668900131726082,-0.0255930354740622,0.05633243922223274,0.03754708663933055,0.021636927413076344,-0.057059281982304706,0.029305068173260836,-0.0017659773431498679,0.02609412652100377,0.01664403943409876,-0.028754537955872593,0.0009922537528511933,0.05847498530613037,0.03242648613810803,-0.0032443907862183506,-0.006213654453597478,-0.030058765014551507,-0.023315092586848996,-0.017297721740467634,-0.006619862018627225,0.005147383318600614,-0.01589015710914707,0.015350195649415213,-0.02020757528130763,0.003468832308887262,-0.03767426626534109,0.06606645855588097,-0.04461072064132223,0.014962525867017192,-0.004415690193429254,0.017898857698565123,0.015071187492482518,-0.01701560735186274,0.005283042586673422,0.0019059108225398097,0.008778728188597821,-0.006169680064601389,-0.0537789948715574,0.010745603005511905,0.07904196842313813,-0.016382046523929415,0.03234394274283827,-0.05788493234764716,-0.0012767604431406974,0.03964954882537682,0.06112340320138842,0.011277802953237843,-0.005430149581182607,0.0032715262885388324,0.025782681842996192,0.02337772786234373,-0.009121671966019972,-0.021933160968444682,-0.025618295803426887,0.0030536872579689997,-0.0137443622131685,0.0044143537745821495,0.009615196757790392,0.006126688011845813,0.011173530084310348,0.05603847866980538,-0.017070653256194532,-0.02063172164043661,-0.011753886319817275,-0.03403615638620084,-0.03562386468990662,-0.02507757667316567,0.06882401146860766,0.027987722975407234,-0.01116675616771205,-0.03758813386784905,0.012832703595676481,0.018935998728723393,0.017094517408767784,-0.0057967174824867405,0.08305539967378474,0.02993161862094186,0.03816754602557186,-0.00449191930996353,-0.047168388384188395,-0.03961160433363902,0.0023676391788659728,0.022408460241335453,0.03107814840906302,-0.05691127533261295,0.0284200789306081,-0.001574165965882358,-0.008342390052720472,0.04003400105561623,-0.005168054287795021,-0.03247841890903642,0.09400825813641578,-0.020173667739525312,0.03542838760195824,-0.041352155959108496,0.04232220509527967,-0.009002952676254065,-0.006739094164499056,-0.012018179977683369,0.0657400528865873,0.020627253781368666,-0.013563584662281853,-0.045278844343070224,0.02424369117157412,-0.008412973635815137,-0.025896937232359966,-0.03962105276159507,-0.07692373146880468,-0.03941217743798675,0.004651369162831329,-0.05353890952514574,-0.041814258055973046,-0.008040630207906081,0.04734679123036069,-0.014174378077880037,-0.046524162865302185,-0.00919930013692151,0.056303104099417016,0.002829769128584986,0.0020800461988496237,-0.038579685322297406,-0.017179856748072576,-0.018840118482672398,-0.03429035000333562,0.009380319616773311,0.04890732557529235,0.018180412281211235,-0.011812256650020699,0.03811008920197852,0.036836641729765744,0.019730816666983994,-0.013150574100383302,-0.014381959609880894,0.009676344415304438,0.04077226075560333,0.03396181578015787,-0.025281167670574665,-0.038719241118972146,0.03608022948317157,0.062480730225319046,0.03197021453867525,0.038725506729412267,-0.019881793160088635,-0.000809266087669787,-0.03630426484663614,-0.020831862932342245,-0.060259306676890646,-0.04028841306331455,0.03278846714736696,0.00040729652644749223,0.040884553856466166,0.030012335059459275,0.025339360254146317,-0.041708166659641645,-0.01322228964704226,0.01283571475270828,-0.05983666179109859,-0.03070928759601257,0.08744861111539158,0.0019282134532536495,-0.012287044084322265,0.0491430661935966,0.011864036805563645,0.019238780204709933,-0.05816651281105581,-0.0360909160158325,-0.024093776140410767,0.0032968435893236153,-0.09301109698001006,-0.001703644272237867,-0.0478615241866153,0.027982724188274136,-0.004607883230239219,0.007052211409078219,0.0024380376861839084,0.0011974216197965116,-0.0013575636790719467,0.0147380230434561,0.040680134357137694,-0.017547034765452583,0.019504136779333003,0.001374113660609902,-0.013069546484855324,-0.028347829894516147,0.01716375124374928,0.01902566095719487,0.06113817045985665,0.11688647899972726,0.064526362602959,-0.03754249471246168,0.0021614973546801664,0.008976422256532682,0.05609226746195711,-0.036140433283324155,-0.06719396368814529,-0.0736443763647997,-0.011971462459255927,-0.020458238270089347,0.03892879300253745,0.07684510763488167,-0.005332457794817353,-0.049488893429923644,-0.0027874905051343,-0.06510483406991245,0.007253665669392494,0.0051260553884727635,-0.024031132229099587,0.014656275536001769,0.023683020312689596,0.00355272115307112,0.028999262454106042,-0.02497028784819588,0.009227563874884654,0.03718849420788563,-0.027855480228450892,-0.030582432325010827,-0.026588626616632104,0.026663591379124992,-0.040100185540569204,-0.032613603849096055,0.05659956128609019,0.00014962751906496735,0.00046726938167186303,0.06565767893037407,0.02121319338891247,0.028496231604706417,0.07161816865188125,-0.021920781441622017,0.050331036093027894,-0.00875056454206228,0.025361763781022725,-0.03802749978689962,0.01145937738193758,0.0029153415284960005,-0.04824954011018781,-0.020580064040916706,0.06624755041919823,0.044713081437495535,-0.007502876492277874,0.031219993115265358,-0.03655688383458995,0.026625627274329145,-0.059358996623279356,-0.03856120243060479,-0.0530009663616215,-0.04058609786753541,-0.07278815076474551,0.0024261358957702495,-0.018903654683710535,-0.017389301295699083,0.05728460693670672,-0.0011137491444850323,0.025370294486359135,0.021660039882977027,0.03894603760564321,0.08856180772075009,-0.020572578696767617,0.023208398307175512,0.005651542422559528,0.05366689055038901,-0.005817452342120626,-0.01629841171591952,0.027028510053172417,0.023862471453484302,0.036208643678211534,-0.013999482011332054,-0.033551608086916956,0.023061537412721406,0.017548332006159743,-0.008763935468338209,0.02470615562685718,-0.010939829787195838,0.03515485062867147,0.015528234061658808,0.09072653902304974,0.04478056594243744,0.0012012703502105382,0.04242441006986203,-0.013524060498373063,-0.031374552413476885,0.0036585363426553776,0.03196542836276541,0.09008714776017228,-0.05460434426690213,0.04813872581544672,0.03370991907261192,-0.010828234389488276,-0.009901167125406516,-0.005381216197201638,-0.006978422184981249,-0.011481129602521128,-0.0058046169203913745,0.0996113732245926,0.03333124933887234,-0.07507880162071237,0.002334935648288168,-0.05612873675456452,0.056523024727277875,-0.008440006033286939,-0.023217239286851793,-0.0076564115714462195,0.028246424737941336,0.00995088219478308,-0.08676765100070213,0.015582024747572542,-0.008802402172492178,0.003406074651920788,0.03716603855685296,-0.022125514836240565,-0.04480267212515842,-0.03218787399629441,-0.0550456833047313,-0.016649097868463907,0.022000577296877828,0.008440808185999361,0.027160363614476202,0.026011987050409212,-0.019454059765787745,0.015901397622048993,-0.03364450110993244,0.06411906876118562,0.027084588684614767,-0.0364596774408216,-0.0840502398020729,-0.02273370385791275,0.013468461678729548,-0.029319036495997337,-0.032444353187145517,-0.04042358828921184,-0.003592340819809253,0.003292527467399563,0.009253246594063154,0.0372664270534194,-0.04888636040620999,0.043317484416546675,0.024512305921056705,0.06113835731431786,-0.01670791446196656,0.06480654576833515,0.030228902834816343,-0.04127901451374268,0.03225442973104156,0.010142479017918458,-0.037958134896754224,0.013534321506895899,-0.00039887597505954795,0.0264340242344019,0.05189795449789337,-0.01221061455589536,0.05674354655888311,-0.006516899886006938,0.09023462409119269,0.023168487298300698,-0.026380950074368754,-0.07633752671011636,-0.008977638458418778,-0.03233658375411188,-0.03051419725308611,0.03498063094145084,0.04679737324406027,0.025228721004324467,-0.06054826563276382,-0.06537004796897035,-0.02100798273693392,0.012921142152632726,-0.012453177334325499,0.07745137986292863,0.011895103794630333,-0.0316012206323846,-0.045651153461719184,0.011603309692194837,-0.006203684368382467,0.06086495676784348,-0.01602841178488637,-0.03790308349666631,0.007330066107270439,0.0055159127971977475,-0.0384058153928047,0.013057876377453403,-0.035066923722406246,0.00823193129603889,-0.03847884585295637,-0.0104023283409175,0.0775088021336605,-0.02051421470012233,-0.03579813955746981,-0.014950617762941577,-0.03491210666448146,0.037304541987588986,0.14551306037379552,0.023600922124056928,-0.005002783587617153,-0.02893332441749276,-0.043089761543909706,0.0300345687387382,-0.02602759646382033,-0.036237599485836026,0.02047034325049611,-0.02168227683022173,0.028587998498163746,0.00014332989149771873,0.027067311258473305,0.07762244123138388,-0.03051719923248521,0.0008526503363841277,-0.0009605391107662588,0.016348948543883756,-0.01301523560834501,-0.038385131098046726,0.08047153141545192,-0.017333888371254186,-0.07118821357100391,-0.055721371074880705,-0.02269795373770526,0.034482401421966645,0.015286995644253754,-0.02446233904050554,0.0702746754274968,0.03751744071312578,0.012513823948021155,0.045719832764234074,-0.001446091741926946,0.022538857823488086,0.04413474658209677,-0.04463348877211619,-0.07264710732085704,-0.025954633430897642,-0.025823684526413343,0.002544269910359621,0.00572409140268489,0.0046534220133968235,0.021378897964059364,0.012034563394819568,-0.019238642489017195,0.009704450982907866,-0.032094489205865336,-0.07672466976926887,-0.0006357524507143919,0.004115140396047991,-0.01651305839103892,0.03324921660820039,0.06266363826369087,-0.02617695746204838,0.023500254882662504,-0.032987755000639954,-0.08384250182686956,-0.02216441713545711,0.05998202599754369,-0.0026414791502616473,0.00850515165938476,0.06510340656003512,-0.022842596098004857,-0.010120188344465503,-0.01200663673475693,-0.02164916376879681,-0.0386197510994619,-0.03991447047444529,-0.05622404193890361,0.017377990582070204,0.00417155273455022,0.035159788318471406,-0.011389871589248583,-0.02273049632424397,0.004515359835875463,0.01991846729255871,-0.012498444386534578,-0.015589616770288564,0.04337215085907273,-0.04685045210143146,-0.0010645296547439405,-0.03753258527201456,0.037032885092856085,-0.04417506063325027,0.04190001357265602,-0.08346513330061811,-0.04122482306075161,0.032292379598431835,-0.03228212782601594,-0.04341931561031147,-0.03991638191489489,0.039716462766626943,0.012438782745107789,-0.02892260643444813,-0.04469296803117944,0.011092343626984226,-0.03946336206743483,0.0060821507099685585,0.024411062037914856,0.0010341887333154655,-0.04557510444322364,0.022890410638694226,-0.015045847769085073,-0.030233350580096977,0.029103205790111823,0.02616161362721039,0.00899539933427077,0.045024748946244066,0.015415410511958738,0.003673033005297473,-0.010942433761738,-0.008894552162896113,-0.01988515058350032,0.012541376025730583,-0.04137443356680986,-0.08890800071766664,0.0767370873098844,0.014098684272202181,0.02632074365888776,-0.015125363527624863,-0.010470887958369752,0.0800892440361442,0.005019592912239167,-0.015074707520428077,0.058165581068529475,0.021313383681730778,-0.043060440714599545,0.03332592244800921,-0.02894656442724065,0.012780243203708342,0.025755802912035494,-0.025026859301283032,-0.01726577707020766,-0.017562150952034603,0.003303452926837553,-0.06201571754925023,-0.016916990311418568,-0.030727217579229426,0.037408256235419865,-0.04646035558128184,0.018359987373071592,-0.04425075889731404,0.029471113877068293,0.028446609959771312,0.06219628130632633,-0.04552877256383036,0.07414118017397947,-0.004101386029390016,-0.01127112159481048,0.02559357004147179,-0.001794729151478545,0.027391064483379638,-0.008134446059411006,0.011481729035852846,-7.29235758238734e-05,-0.035258442612762876,-0.031179008399521112,-0.0062543902163481446,0.015073086298945909,0.03558813356267596,0.048330535989086466,-0.03486471516743625,-0.022326769700642027,0.015624517133106546,-0.023222869833087037,0.004587039453676231,0.00961156456424977,0.00452331461594839,0.025116208578937458,0.006062245308449351,0.059396013654640624,-0.035230396891145085,-0.01728522725263913,-0.04304814905700327,-0.002830201953343307,-0.007308890573864565,0.07051537788145289,0.005141098675420114,-0.02748734448031606,-0.029033801857603528,-0.0009169262232871911,0.05085058304404488,0.004340644713602708,-0.0013196284650977407,-0.040932645958952595,0.020819729594528703,0.07032196927368126,0.04444179587338775,0.06997018038218598,0.0035944116057998786,0.004167623083591066,-0.02074445921499508,-0.022008095443350518,0.0025307657172334358,-0.01481027871154429,0.008418314331423055,-0.02958527793372952,-0.022911410050865593,0.025796452663350015,0.01600661291355149,-0.02947080616807849,0.026823604448708953,-0.04546766153783167,0.02367142987721079,-0.06205422803882296,0.0027235716661803073,-0.039471677379917545,-0.012203215932538642,0.04199184253797702,0.03510974595633605,0.018620986264567582,-0.04653187574555574,0.05971727280345621,-0.006426087986185406,0.003887331486870724,0.01471266654761648,-0.0221486984340953,-0.004989215034007976,0.0416403669376005,0.00590935691188386,-0.012383689405704059,0.0002817769886165241,-0.03995253933609329,-0.011300969153418605,-0.034266565854507554,-0.04342065509099062,-0.021044187130879254,-0.02819117009854669,-0.0296270409245118,0.042328585351674906,-0.011602365629765545,-0.017493428645872982,-0.08222370368074955,0.019551151702360405,-0.03979199638809867,0.008771145498911113,0.06806919422000889,-0.02248126363869956,-0.0021385987963756323,0.058320757289456175,-0.03651512447540318,-0.06377397442694778,0.02544896245049799,0.024358450105332868,-0.029339170162493496,-0.020430435694506383,0.017393107784947844,-0.05208767837273828,0.011538303509056099,0.007274445820693888,0.02900575475667665,0.07708946155780591,-0.0248060370487985,0.01767032899883235,0.03510145789265813,0.039748504246061536,-0.02831473439040073,-0.01686671073854198,-0.02044123096859682,-0.029981148061528577,-0.018804636345220536,-0.03355082209988344,-0.01910748075945878,-0.022496309298345455,0.019499654469287264,-0.007714555257217655,-0.030031886918422915,-0.028449742706319576,-0.014528351501024868,0.058165018259572855,0.011103882719050266,-0.02958310800192747,0.039547631463960946,-0.03256203582694669,-0.014368895889539546,0.09054521695047973,-0.01237505762955595,0.03421973985520516,0.03292978423335375,-0.000815454331895036,-0.025204825445291297,-0.000298646266562355,-0.03901941111279733,0.02297991981542034,-0.0666647244956706,-0.02888045976458957,-0.018205097636098604,-0.013071379735419776,-0.05126512964690502,-0.011315647853311071,-0.01919380710807555,-0.02220930719939474,0.016688453176170567,0.04565558280197219,0.04471687116873605,0.024947025656695012,0.03193760285481343,-0.014511129451091035,0.07325035011388328,0.0782910635942841,-0.09900232740344125,0.03897119160092501,-0.02638422576764096,-0.05990303673068368,-0.01055343281409936,0.016392445250471354,0.1043050032393107,-0.0026415326362980696,-0.032098959135925705,-0.013380551108216997,-0.008270476093589246,0.0007180688742815331,0.010623384853570483,0.03253124863598807,0.057443189622002636,-0.009965897043915971,0.02961079650842609,-0.05390205719739792,-0.00260636548306361,0.010760318801412764,0.0032036156711647227,0.021630335178777625,0.015585599625240447,-0.019666393289782876,-0.03832235116745766,-0.04475323361472885,0.07748629060896954,-0.027973977495131964,-0.01137734950467684,0.04397520399966647,0.02364478647001785,0.007795615427657904,-0.05595515891782345,0.018077941012421873,-0.04406809485059525,0.013688269140208877,-0.0007660434032315646,-0.05374992554707444,0.0594547570649814,-0.0156161383744545,-0.056640435639881845,-0.00957558945430527,0.032329513376104436,0.011399751379244708,0.03659513641869743,0.004656299109397588,0.0013951169068828772,0.020529624481925177,-0.03523783727224027,0.0070909631916576815,0.016643359727235248,-0.049679905060896784,0.00972894922694843,0.034700556669897846,-0.04688794296658795,-0.02244542978714562,0.009177952182630322,-0.030232106368572074,-0.0003234320357945796,0.01473627203138056,-0.022725045760299354,-0.033622021047945226,0.01946661731649418,0.02519656625149832,0.03987321417876364,-0.024188263506896,-0.0002409833012823588,0.013751018473048352,0.0485701237190134,-0.020561326622453115,-0.02345192236562092,-0.02140595190261958,0.0049150119340636575,0.07387483947163113,-0.04765590738712439,0.003937254031479703,-0.04690890909698297,-0.013378994322178405,-0.023141923613650143,-0.04744868228475314,-0.013858205961005421,0.023186514245706696,-0.007922051843945661,0.0012538304644856408,-0.06805672921694604,0.01837272830306749,-0.02825168262534837,-0.05725952329712249,0.0026195082423723626,0.0218663039329782,-0.043176593045120164,0.0015019412233678454,0.018977025246775484,0.0010295152264093385,0.012741468210700397,0.011053438886170058,0.007804605357432737,-0.0516815908819564,-0.0011220906604152508,-0.029303017229984775,0.014355321394462524,-0.02140119664723741,-0.040797454163353286,-0.029054801619183074,0.02004637805629453,0.041647488630165756,-0.03582756310685464,0.029574950592809936,0.00851713833822716,-0.02041572707718194,-0.05631589943396629,0.028430355306790184,-0.013742235234028689,0.011322114233440941,0.0010795994658961618,0.01977227070990153,0.025146847347775288,-0.03975628494771509,-0.03821647785274164,-0.01911343926752187,0.04515707754083467,-0.019086962400573698,0.02909716161388596,0.01767823341466322,0.014809287399950126,0.03758886859466597,0.047947951604921095,-0.008300413452435094,0.03577786697757383,0.030229968159206772,-0.0050547977869970975,-0.016637995775101506,0.021777755800911697,-0.005495454227742102,0.024622537796956723,-0.011157245222977057,-0.007069793681541877,-0.004190379496650377,0.015945833063673795,0.0005494101267137331,0.024551101835764033,0.04021809640180618,0.042610148161345736,-0.027482204472088684,-0.006624526808065473,-0.0020007932691987968,0.009594814329364041,-0.036508274470644884,-0.007233408944469187,-0.011435009186114854,0.03094639365147552,0.003895917856549691,0.05234520458956049,-0.02471214401445328,0.00968843767986951,0.018341304378890755,-0.00031479586338451296,-0.0027348508150822075,-0.011443987343788358,0.014684952640653644,-0.00019021992213900252,0.008894425305945967,-0.010290721339286032,-0.009817755319288508,-0.01149631126640663,-0.04761435903913053,0.0008159992862265726,-0.022485802760297827,-0.013225366662491179,0.01145475977777655,0.00509734184586729,0.024813972779129105,0.008196713849552706,0.0014573230219149507,0.007566137023247087,-0.031068573978289847,-0.018884420061749473,0.014253392870834236,-0.04578915701637306,-0.03508602643992978,0.02693550700968983,0.017244340674689898,0.005755010881713665,-0.010765018784481576,-0.006778819628873538,-0.0252191781976646,0.01819937609014388,0.018814762244310407,0.020889091319769352,0.05141699971309136,-0.02025596557423739,0.016504394951302803,0.06693706685208377,0.030563984520234278,-0.008140099204302047,-0.09476520509328684,0.024544803415115352,0.057657515645715494,0.020306846043583893,0.004483786773850338,0.03356807333511373,-0.02799552095528938,0.052480286293987086,0.009393561584625055,-0.01734811685112217,-0.04850611433033747,0.03138091674300013,-0.031263725410180264,0.011700776164479149,-0.021563366872778808,0.006297259115579644,0.04855497273047875,-0.03231241748341082,-0.015917901881856288,-0.003594254824502302,0.00846017784026818,-0.005912727854375242,0.016381087054617712,-0.05720438461171295,-0.015053499159662902,-0.004551835716915098,-0.02929783250697821,-0.004120912041885984,0.017834478939928924,0.017400992776150218,-0.022516114917524345,0.041402959386838724,-0.06098426151448996,0.02311235793306346,-0.037157382869897226,-0.04124070367471189,-0.028766920179537008,-0.019187715379561616,0.026395252004617616,0.0022594981339444107,-0.06616873738219238,-0.005684105084771717,0.0008278055932696058,-0.011173341540238479,0.014956629004784337,-0.015091485233133351,0.00656434352363908,-0.07197727673982443,-0.037157074590657244,0.04175200976042825,0.0019852313741168855,-0.05170552458252394,0.05393803809774288,-0.04164141015224384,-0.026389478156110743,0.039770883105525276,-0.02209911569985177,0.037233367326289735,0.030278501917658133,-0.021957219958503964,-0.013420879432066027,-0.062485666807859566,0.024059080790608686,0.02810685617182897,0.01614406493701944,-0.008691359752105797,0.03240261546505395,-0.008182711562258197,0.030442616803341958,-0.06486533382894134,-0.021859473443130953,0.015241609257956453,0.07965358791205102,-0.03222659534316719,0.010577720119869901,0.0552737565615012,-0.004269164004688152,0.020275917526252282,0.019514039217451262,-0.015300109895234169,0.023937768123371707,0.011143959640049843,0.028681943993002845,0.006345696061411384,-0.025370582102379285,-0.037495190539195776,0.06808698600112532,0.029673483934431134,-0.008286318325233062,-0.005381334861151869,0.015311045699322227,-0.04366573760479816,-0.016650267655912005,0.005974163421395576,-0.014969279008243755,-0.01373567976691631,-0.025198164155146273,0.050048547445127774,-0.08953797413547925,0.009549921731865233,0.00635881782761522,0.1258149366107658,0.03605132950625499,-0.004891783915194239,0.009647225770660432,0.013062273034961679,0.0017749542167478955,-0.0037104479755046904,0.030586877853690204,-0.005763771208682754,-0.018412051863758615,-0.014656851719524855,0.0018239555259716065,0.03224801590642359,-0.03325978626928205,0.006174251720247211,-0.025869380868393597,-0.014905989321192501,0.003309387828381203,-0.04719395807088425,0.007009934834124692,0.023447288019797057,0.049733604849111275,-0.00737214141964208,-0.07370103910692996,0.014435108472487954,-0.005009734257927385,0.019524789606738882,-0.020070818200863635,-0.05034970255314456,-0.04943432359928151,-0.006852301066875546,0.019862271048055675,0.017540769452233863,-0.011907339744999334,0.030487603552141737,-0.02593283971601714,0.008214766640711402,0.0037849932851779914,0.03867286562586549,0.02401319434387681,0.005416465160767463,0.02790197007935947,-0.011047464624412928,0.030467217626744366,-0.019785361293065542,-0.004197664962907853,0.013283664022288323,0.05532384619900572,-0.008274450746844455,-0.02362925717701304,0.013019353145943524,0.022303559502481175,0.025991223366501018,0.06136073875785524,-0.02271795016496861,-0.0032720776921886345,-0.05673212406568501,0.0007668918394639232,0.007391453561632216,-0.004468328880153036,-0.02744342296437762,0.05092011733811729,-0.006582127189131342,-0.04844167174097198,-0.03374419587343401,0.004425411142748303,-0.023680409913388836,-0.015558739969833051,0.05537297177745782,-0.014429887227314635,-0.021007180637618663,-0.02215518545793883,0.04867711073166118,0.05062898646820581,0.015173124853586574,0.005649056047848485,0.03463900428026606,0.02094718056634716,-0.025462093544511337,0.08966285933244596,-0.012732927659588661,-0.03855011304766072,0.009632570680858082,0.01796026368654723,-0.05616306869751865,0.06985298106864232,0.005134424164681439,-0.01485130953514428,0.08301990586135233,-0.04057835963616085,-0.03711834352238784,-0.009410603134112133,0.0077893959512166915,0.01742979519070785,-0.016050299386823553,0.017098021504477437,-0.05933206355120887,-0.01583105337514297,0.01847820669903694,0.0074919665429781625,-0.0029363407088244544,-0.02838932589569464,0.043370364284494194,0.015950349620391584,0.01595714409439439,-0.030003063778557108,-0.03720137417849208,-0.021543641483687134,-0.061290975945956054,0.0005860204855187907,0.023560321419505523,-0.0064587293469248845,-0.019244730806301475,0.030838191065304436,0.05045423286167316,-0.01797820351883413,-0.028637525887102895,-0.058170398573863545,-0.010337588218132939,0.03223215382638518,0.06349499275529957,0.010196796761840179,-0.010729252076017904,-0.013818288724657126,-0.05193381554210231,0.04854059717056446,-0.026297553515356,-0.029425881131890222,-0.037051010339415005,-0.00036285506987127346,-0.001944622355876521,0.054004537384753006,-0.0328641182161386,0.018130875002134297,-0.002648755439187137,0.009673918439210673,0.025791269804653055,0.08249946815462805,0.017437128248559686,-0.06081437084010834,0.02626381740790056,0.0030312774146170943,-0.019232837146324046,-0.004811460497316736,-0.03410995147042306,0.020867155838558984,0.012650848450380527,0.058357916453053015,0.012853227888114226,0.05348284767739309,0.028343384786677684,-0.00869959333633483,-0.007839676742978138,-0.01907536523157452,-0.00993632401236067,0.015574453390597195,-0.03833067669446042,-0.022396077952153867,-0.0026972587680384134,-0.015583508017150343,-0.016690036473145688,0.008538022885413388,0.054965519045703015,0.011502953398538992,0.010885303030375774,0.029751042029863575,-0.006313567264248866,0.02847587056337062,0.021358745980896255,0.015760068556297052,-0.010914305133909398,0.06699661245207642,0.07423836158748214,0.00619136015360716,0.060735359162372174,0.0617790258788498,0.00015192968999165062,0.037054384066513735,0.08209753401178488,-0.060504420868034516,-0.02783927941502783,-0.026664764326169276,0.009257665450744567,-0.041566208315918576,0.006917378621306535,0.02683970477089562,0.02588838066489198,-0.030069077785814115,0.10858868559951437,-0.05448353408089059,-0.029182305689935812,-0.03995000210962868,0.03401244874098032,-0.06151104014183543,-0.040077817688864696,-0.00871975991352057,-0.00223168824988816,-0.019532517970096346,0.03250886216654188,-0.00021004295775969666,-0.04086740929509184,-0.081121974862383,0.011023067295901913,0.014722120417186848,0.04378965017769314,-0.010357539056934366,0.013452767159484385,0.015037627955160856,-0.05380110832590418,-0.002601169029178394,0.04816369272035197,-0.015417545406304767,-0.054571538441903475,-0.015077078708167274,0.026049803527454646,-0.02195783447745777,-0.036203825542136775,-0.018856074276802387,-0.0328067587126991,0.05269007620206005,-0.003919954568844687,0.00024797500806980583,-0.006249766202388534,-0.017429236278685842,0.01252051678571485,0.027948557579096856,-0.004901905240918419,-0.00971587867996414,0.0009550477681199537,-0.0036229449344615935,0.03250780402190026,0.0549214374014063,0.03243549244876468,0.03628082148612099,0.0317332098874917,0.03074379900147662,-0.010836208139401648,0.03393779707190214,-0.030585332097898578,-0.008391189469399634,0.028265193538424688,-0.0724900075632207,0.012731294693012624,-0.009437172750837022,-0.0007794259357865928,0.04018104063673294,0.059851970177940056,-0.03964022247452345,-0.07253233456743827,0.005909466423446872,0.017558478016522893,0.025647112123680267,0.02280558323033375,0.04694310061930855,0.0022674843454318686,-0.027705394684992786,0.0243503232224472,-0.03253266978505363,-0.06876481829765502,0.059473093725703224,0.05609359406590979,0.0381968645882031,-0.009850823301345065,0.016655080364723455,0.0009971065313484956,-0.013246686034569117,-0.006573323423937023,0.04234164399374585,-0.041560436832686676,-0.020258039474086165,-0.0014783404832962334,0.08204297428543886,0.015977488372588097,-0.007017676939248335,0.01668408543487428,0.00180725125911451,-0.01780466202518243,0.012581032156134321,0.031463136786710026,0.030400600896802348,-0.0778391175758442,0.044393107055011635,-0.03323047509266498,-0.05809998958287675,-0.02122195693593997,-0.03495541042636843,0.04504450475502058,-0.04495208855006856,0.02163520861649838,0.004556034858968846,0.023023469050272923,-0.005665491932239418,0.00356360520655441,-0.05149718191524975,-0.07483191599938906,0.008870860354458478,-0.05362228414883393,0.06930837413591201,0.010356014717450424,0.0012887957089948025,-0.025808438488711838,-0.02734795348124226,0.05512251985470871,-0.012667249033398623,-0.06322568733293502,-0.021491887804620368,-0.0022148175368350157,-0.08464560271660677,0.03343442244746379,-0.049333744102857825,-0.01517992834497682,-0.02772298865778754,0.015541314002909982,0.0013887090856545443,-0.06054796714535855,-0.05339756521901788,-0.02058063907642555,0.011469641007544246,0.02602003117286858,0.0372423875127081,0.07793744246475322,-0.07292173006597077,-0.0097946289989529,0.008305923413061793,-0.031621503815856926,0.0450361611132819,-0.03821413291194037,0.0053697080494231,-0.11297554696866895,0.022791901186674814,0.020457508426890553,0.004839685316063327,-0.06269101042567879,0.031669595495604795,-0.0006287958175592479,0.027399423598716718,-0.010249508571711667,0.030166536433006864,-0.010797788321914657,0.03082881722342047,0.03013765570423904,-0.065244782001361,-0.013634609797124888,-0.014684261741176825,0.0026101891272650828,-0.0799380744872234,-0.009475486010143959,-0.022790342057919858,0.04868379907591412,-0.028508846493767948,-0.010982975104687877,0.02892661907365711,0.023026042080653116,0.07987139215425391,-0.04394477617344913,0.006526577147272715,0.04170917926316844,-0.008570986332120457,0.02095851601400728,-0.004290859930882572,-0.019917137591622933,-0.04940441747394511,-2.8245692395402564e-05,0.043736264754792996,0.0026315589751479884,-0.019899075508193313,-0.04872811904899923,0.02937075227418109,-0.03200325687939764,0.046897412279074645,0.012840917061538842,0.010037167623792188,0.026259662154864367,0.02384826603336124,0.01663221107912427,-0.024883517779919404,0.053791417046032894,0.011035063010873092,-0.048450394262211524,-0.031008751261737647,0.04118265945293947,0.003815343564518524,-0.0044062062395241915,0.00010291027488243604,0.01864738843299575,0.04735633191736384,0.06709311631668954,0.07445600253349739,-0.03454893790101454,0.02524689855028707,-0.023364979659527958,-0.013458706729656792,-0.02327410253163621,0.0028835975487217416,0.02914310669910928,0.04074194583548336,-0.03223468805664649,0.03313033169935495,0.024380044750130413,-0.009460496107588168,-0.014745336282721445,-0.0614091029610578,0.002827849671830767,0.025952986199802793,-0.03217045045353494,-0.058059780399901964,0.0070097777829017755,-0.019141254357101237,0.04174305979552604,0.031901365551023284,0.04512468787094041,0.02893509214094911,0.007984071508715208,-0.007491533823751827,0.039537531227464034,0.01611032636196622,0.0004303657197978183,0.014974022945542592,-0.05655720307035921,0.02742453920752602,0.001680354311851893,0.02946199048219913,-0.022375805985589168,-0.03431286203543472,0.005056977605293831,0.02826067979967333,-0.00977274609226681,-0.012242061875880677,-0.023514276022682135,0.008992416400802866,-0.0668577721808671,-0.023917883532526697,-0.012787773966227673,-0.012386494017674417,0.03769761913327131,-0.028795730551705923,-0.045669394040229815,0.0074563512580974045,-0.007852231954943893,0.012660848298368813,0.027597069338451876,0.0066516279942016865,0.023050623570884235,-0.00905528200873145,-0.02403285060773104,0.09032614877636237,0.006214108223293929,-0.024918208365127908,0.010556158264315711,-0.08408114688743634,-0.01921938837253022,0.0020385021701237807,0.01719827008025121,-0.025824570158006897,-0.04033929240505053,-0.015329406124691745,0.019806447385696216,0.025207083220970816,0.033429244018283684,-0.029422368501329402,0.018468692040492934,-0.0419928595221704,-0.053351725728719095,0.036323656125792185,0.020410025012013038,0.028504963044805293,-0.03136652414450855,0.002945043064425238,-0.020873514735218004,-0.007056113991888723,0.002050181925767444,-0.09253402120680813,0.015414752999147834,-0.02904666728360768,0.03678241593466038,-0.05945182651137294,-0.011147978628174534,-0.0332757752417298,0.017960962743561404,0.04766901890813855,-0.05098130358981655,-0.009843216826762717,-0.0014632743923620561,0.08187559996122622,0.005243344619140674,0.004297264341286106,-0.016670095110736718,-0.050417798412960714,-0.014390534547294066,-0.049601150240388255,-0.0035019068660216597,-0.010928563468683901,0.030609233708785284,-0.0527452398785608,0.03472945079623512,-0.0025916889913109404,-0.004247288618247989,0.056488082018985634,-0.05050811854882853,0.0249312133113,0.011723742795639907,-0.021057148166449324,-0.009045122775941305,-0.009188783492238633,0.000906054634865211,0.021205024732324954,0.008158161855659698,0.03265685137921808,0.04467659917888734,0.06504098436309806,0.010688300303048274,0.016754819321503776,0.049248277830449126,-0.036211719312371694,-0.04948366283117441,-0.035273305664097906,-0.003965419965635345,0.010541849252469532,0.015778295915587676,0.08430547647783364,0.019709720458102428,-0.00746724394153149,0.018233546724685964,-0.014590236359902633,0.08061542919545778,0.05802658143401153,0.0127296112918162,-0.05859385299904193,0.02100010482370022,-0.0048836666595424025,-0.05013530543422775,-0.010701592144648917,0.020866367419788704,-0.017164968950557264,0.00964422474534652,0.01300365846839966,0.01677462008972036,0.009926608704952301,0.06643717679876639,-0.03471518332699777,-0.04796967790702094,0.0022578686011631836,0.01636412578272691,-0.04825594881623409,-0.007677621724157773,-0.007113247363000665,0.0363429645445878,-0.029225338194317354,-0.021220832033889803,0.01826023783477209,-0.0038353831129827975,0.004929746260457174,-0.03981619654749408,-0.0061349171243085246,0.09745425249393189,0.08407976541612305,-0.045483481059911825,-0.02520442973638145,-0.05396380048047417,0.1142941803952043,-0.03034971863899041,-0.04135192664543922,-0.033910400498607135,0.04127356880006554,0.00621402174182948,-0.02848921071190594,0.029531179590905857,0.04404675544961961,0.07529352475544863,-0.04078406663678561,-0.05351028756150297,-0.004993489802283561,0.022786303332707897,-0.020917441479123444,0.1031325447850452,0.010687302450195125,0.03376180821113025,-0.057950032946598846,-0.021281617974287844,-0.026208051040951252,-0.09855228316805831,-0.02609863844976224,0.03985738154724252,-0.005596580417241124,0.03137143898545354,0.008215080892577343,0.027900357329517966,-0.016385177436065837,0.058084069434299584,0.029918727038380156,-0.12579572577847337,0.027415175932436586,0.01703056504445121,-0.03481578525863991,0.020648590482707403,-0.05852410224785645,0.0016482567250772422,-0.055932580399648345,-0.019771194682016276,-0.08674918959339278,0.03106090261895684,-0.015972865610953,0.029717745368445625,0.017144517903627945,-0.028691317966169506,0.015652333968305013,-0.016776172997314525,0.04721492382519139,-0.0022672247355118216,-0.028930917685337173,-0.04362152384565756,-0.0585046661203254,-0.022652637110776697,-0.0839560694379255,0.033280256238395874,0.024155908108530414,-0.04198527605068676,0.02893278747678059,-0.025357950008613548,-0.02006026524756921,0.016003106642120873,0.019373560600233517,-0.03942836497103097,0.011198809682892398,0.00264649136833081,-0.014656014473640372,0.0432777529608999,-0.001393416243332591,-0.028910617425575626,0.009334679524189747,-0.012369011077852425,0.062368303703037274,0.02459516982804875,0.004059628313670995,0.034556048448149676,0.043222536475957266,-0.04888964307259002,-0.05540790283379818,0.045028240867520726,0.014251376298098762,-0.04259787696180869,0.041355273262731126,-0.0467293080284368,0.034691257084599705,-0.024885612770633066,0.04184216272883935,-0.0312691974075831,0.025444227458577037,0.000214367971204016,0.02306617442838904,-0.013716497562121186,0.007442350616306122,-0.028195570344547703,0.0182749062140534,0.052154457224510405,-0.00852906470098409,0.002768302271536505,0.023250092153794595,-0.01740362038679049,0.0342704150382981,0.00530659854953229,0.011046187486976318,0.012419977720976734,0.05631693134096744,0.02567803732848275,-0.018194165038179954,-0.0312977388645547,-0.04544763237891052,0.049707951700341674,0.022781286211506883,-0.03761683181308965,-0.007141488296983279,0.009133912967615008,0.033187065085848066,-0.0031715656723561125,-0.05005049780167653,0.02687695582534099,-0.04417127332456818,0.043119129943728775,0.013405057533003735,-0.05797513173378225,-0.00013454076107621268,0.041914750289153035,-0.031520447166399665,0.045749336903369874,-0.028801528861126302,-0.044256157253209895,0.03809559543219787,0.0056231542479492636,0.0027130512029371777,-0.007574160656787247,-0.022991716912580538,0.010996176021732428,-0.014804787105602266,0.009054121433928702,-0.009473326011141312,0.047484983027402006,-0.03211918782912187,-0.030115795827480286,0.006326196535178353,-0.003389970487854115,-0.023678567163283846,0.040605195867656346,-0.047225652461020694,-0.05442617574231362,0.031992134508915915,0.02802102007829389,-0.03915801603328464,0.04253644801247045,0.00623973968621611,-0.001575426988715896,-0.033760498679839844,0.03703583266704805,-0.018648745397499125,-0.032448042262102156,0.08687259530946041,-0.05702406474457268,-0.04074549366240245,0.01903064222777302,-0.02740076707665484,-0.01778551016767644,0.08381199113548546,0.035936610019558626,0.028541335224719855,-0.02236663926961581,0.029096684597809043,0.042499481263055035,-0.04142097936256918,0.039555957142902075,-0.059838945959066164,-0.010095210624009148,-0.000960555493005827,-0.011802080128058971,-0.0011167680334400313,-0.013226164817139476,-0.011924924938209108,0.013826381503207393,0.054689737270819216,-0.022960361999091173,-0.05186637661860562,0.05280893538648778,0.017736062414110156,0.010962534856663254,-0.03912743395553929,-0.008306111895548654,-0.1033681970869099,-0.004068581027931777,-0.03958823471358642,-0.02140713616011391,0.028129797441198638,0.0676774090509971,-0.005826581897129043,-2.54609549604961e-05,-0.03752175070506923,0.025087815464242543,0.0033492317811995406,0.04238719597182148,-0.022564871082464796,-0.012985745553179127,0.04696077588938127,-0.021115492089203176,0.04380765222370954,-0.04127335948720471,0.001609336382058993,-0.06247104696119601,-0.008178486517268213,0.07074738667014847,-0.0020731499784723065,0.03147546998969117,-0.02383772619016108,-0.04768265321896553,-0.01618609106382277,0.01331582575275484,-0.009160254470578727,0.01871913496921764,0.03145976453474409,-0.008305781471822052,0.0010762292618656795,0.03309852484483254,-0.034979558684682326,-0.06443077144331726,0.0073070705108382655,-0.0033728704332634963,0.01511559964256942,0.027650221588208786,-0.04194922143823575,0.029216713695682763,0.014516045415234236,0.03647411920015993,-0.02324873322648619,-0.011110172980497903,-0.06520179458406715,0.041929754309808165,0.0031250091929915383,0.03818255576882792,-0.02537178843102448,-0.019312741478286148,-0.005912994410821162,-0.03292416591693187,-0.03144642655678227,0.01921786175101752,0.015962225785966337,0.02216895038375977,-0.011480677430967208,-0.008397541436850179,0.0405980864232023,0.013385205084863142,-0.05764163471691766,0.030180539134819398,0.023093926641042012,0.02807721577266283,0.017630930808883463,0.032516749423558707,-0.0041670951913055174,0.023649138889533277,-0.008047749198252,-0.03658983611835178,-0.026079186130033155,-0.008486430650647712,-0.01505998677171655,-0.012667961889480685,0.00342190016320187,-0.041727243744032715,-0.04113583582420643,0.061380316407409756,-0.01063214039624085,0.05054587253636174,-0.06978753196704837,-0.012648387843118895,-0.050817125731631954,-0.019305060367949312,-0.002698342530250295,-0.0333212676919277,0.050011032722135994,0.0215024780255582,0.013783685802963158,0.04489493364266505,0.014446350117278751,-0.011492273706305543,-0.020065137906402727,0.0015961846639883585,-0.035472766083074765,0.02138127552275819,-0.0464746680360922,0.0013210367372930925,-0.07663076260898247,0.00012740829538396506,-0.014308353703818515,-0.011010192611653594,0.09001302659380496,0.02764398282809038,0.0046994249139644265,-0.0221338575013036,0.033998146112044964,0.004176226357814247,0.05940723194305703,0.02290076652871759,0.03111944590547921,0.010706338933220242,0.010641446710712855,-0.012599813168274063,0.03435650986117679,-0.023209249019136114,0.04372587260453273,-0.007748048294408178,-0.03391895021924822,0.010873596901253767,-0.05745633074548249,-0.019784333666276587,0.008837060949028554,-0.016312205118352463,0.06804885841729999,0.04624745892119447,-0.005418673927013569,0.021059266883857175,0.017823096023503765,0.01894822791526317,-0.04588706070361173,-0.025153765354464994,-0.01677889926873942,0.03249491275149189,0.00748324457362959,1.8201295290416553e-05,0.029081302658782202,0.022787507755567413,0.017104911997307324,0.0021589464130437963,0.03854521041092065,0.045190518941194274,0.0292085279162433,0.005768796526898708,0.033265459058233145,0.010711470861854819,-0.008222539688357944,0.02211437262072495,-0.07736125119720849,0.026252058896365938,-0.007639949667466534,-0.0065036698468698365,-0.004590384118281581,0.05227424199160439,0.005130438000283342,-0.08602162012282114,-0.008073715845811902,0.009266433266449763,0.06952979451000284,-0.025712359022489268,0.010001841200099485,-0.009624787544058025,0.028290139209515702,0.012911430205092724,-0.006559171957262918,0.004484994282363428,0.03787994675797818,-0.029735940954081823,0.021223033697251766,0.04551102466975755,-0.0009988722347103623,0.016866569619088827,-0.05869355346905576,0.014092674765464384,0.024210935807098717,-0.038769115218955146,0.006270322510804119,0.017873756178944922,-0.018934389517931405,-0.03589346501290653,0.05634324935581796,0.03196749976330472,0.04477848280631826,-0.01828188985628782,-0.02393988181247732,0.010338230167028539,0.0142640142843296,-0.0014724912926355603,-0.009511687877470297,-0.03584053882201366,-0.016986290502154746,0.021836509983058174,0.026602832644342957,-0.01580947980135005,-0.021850815190974513,-0.02650649445073159,-0.034037325858179646,-0.0028977827087769037,-0.011340045134772344,0.03518686356046432,-0.03283680201587896,-0.05669193950668635,0.020191181450805985,0.042096577435071565,0.027344438618656944,0.030039358482976578,-0.013065272341781679,-0.02608507668626905,0.011473823159628074,-0.061516575340664285,0.02413932349492121,-0.05638994294075835,-0.03491992676656168,-0.033094574705187,-0.014335671440528292,0.03490264659727429,-0.053484886532397566,0.01800502184220072,-0.005716929478094458,-0.06544136961648063,-0.045383809552245656,-0.05885893294352781,0.03713685377177224,0.021969947816947846,0.02709255412392951,-0.052603062563237955,-0.05461032626841111,-0.019420862943749336,0.03695941536754283,0.024526392507404477,0.04081560686615491,0.06037075727032295,-0.01087423700415457,0.032463687540189065,-0.02248427462498057,0.035676392454654066,-0.0009970079774343085,-0.03288017188739205,0.01613423404903929,-0.018346944372372827,-0.01818482495937092,-0.007709171628531924,0.024289280543551978,0.0075039994511628405,0.031037661907462204,-0.047713253753531214,-0.0035682045758578286,-0.044405102103034375,0.020137121956838012,0.05261005434087201,-0.0008811736211394807,-0.0025146062963136745,-0.00887782700891661,0.011208543000730098,-0.06830683350214507,-0.046445755776767045,0.020171566766798536,0.03265114199896667,0.00422090959900043,-0.030547746982158487,-0.09267460471977329,-0.04611327835620027,0.09457259031038337,-0.020028176948171147,-0.054421375940675525,0.008131818518119732,-0.08734720455969504,0.020809610570060363,-0.004607523814810065,-0.045200469495489455,0.0406499420619124,-0.022156802103231555,-0.07018369904461895,-0.019326070785255126,0.026252462822324567,-0.004864015620853278,-0.03528152135666316,-0.014432703364433305,-0.030337803951113403,0.05118916606812106,0.05370438791317693,0.04753685141761321,0.03282302505292596,-0.01719782162025751,-0.02667192207179962,-0.01588714083110509,-0.03278198118858944,0.019425390638074785,0.008508028457081733,0.020176274022384137,0.031274173797533965,0.01201078059457501,-0.013261986000744793,0.0408775806573693,-0.0058720493236007025,-0.01039852212895219,-0.02923842126113114,-0.07166457726886115,-0.01796200951230078,0.035431652011612705,-0.002310914252314478,0.007062379205590681,0.015755767389572864,-0.007845158367834136,0.04101692823274131,0.02770870074396828,0.03977856939499114,-0.00626960461762766,0.019374394663163014,-0.014022698194843657,-0.0189911122571163,-0.027604941961554986,0.03596550988718103,0.0403564160456028,0.03476841998872091,0.04820638470551138,-0.04366776815715293,0.016892865443371832,0.06531222698879918,0.028244434285532756,0.031801554337851506,0.07348280253239417,0.08146040791572243,-0.03402606242125813,-0.008879273454543405,-0.05283012951085965,-0.008224205426871085,-0.014648026554534318,-0.0016029490068261152,0.011405439694942131,0.025832957846859784,0.01743511527464348,0.0023041696756614613,0.005454201248805197,0.04592013642574459,-0.08896468687254533,0.007075847569312299,-0.09220465766795172,0.03905950683957821,0.07065972803203562,0.02797531177291965,-0.05738708083576347,-0.009767013696606628,-0.022843826930262063,0.02984428609811695,0.032322886998496676,0.02432862803939715,-0.032687684276097924,0.03294676225084615,-0.05866530576172846,-0.0010230650527345484,0.03335845857185187,0.04214140866022341,-0.0346973251857672,-0.029409601673339354,0.044590435310985936,0.050199271478367814,0.03044869134017005,0.026049329638185657,-0.0029619222978713405,-0.03589984808978555,-0.03556755353273235,0.005332020544989943,0.03840028119768336,-0.0032785066933233927,-0.026634676088855124,-0.00895601509761713,0.0030829102233338695,-0.0427612603507173,-0.01192288144171931,-0.04377994631036434,0.03580865889054391,-0.006713662789779631,0.000892901465607179,0.018755400515987158,0.014865054117067998,-0.01244917171011605,-0.004714484223483429,0.0014800787053563004,0.04331011386869793,-0.05474407157975311,-0.06274585068970051,-0.0192192848082601,0.03894406289249306,-0.07349779302872511,-0.014240800252908333,-0.06379042450989723,-0.025471231073907617,-0.007683497957749794,0.08317548634256479,-0.05129247828763042,0.03407441272078686,0.013099525925971616,-0.017101856709196325,0.04570252571289578,0.01095782234895709,0.06565160163974867,0.06922045104489633,0.034949578977147344,0.046895119786058814,-0.012975608352001672,0.03412864297967126,-0.008914535244355747,-0.026442692822955118,0.00837504146794725,-0.012555421027280191,0.017779683770714552,-0.006593270608432484,-0.0012442400679073045,0.00021466065749437736,0.03632779008634602,-0.07046423561454004,0.03418755379688492,0.08698192024178497,-0.05648372454021461,-0.023525825677222743,0.019549446337376156,-0.03940124929342881,0.02338272795157236,0.015311848326181007,0.022461093612430958,0.0006086553094161117,0.015144487768288117,0.00709742323724703,0.013682776908509242,-0.022877471539610204,-0.017856305833295404,0.0336523895918839,-0.006280084360864155,0.002780033469394247,-0.058958003962478946,0.030859470568133946,0.036434603541443365,-0.020422045746794584,0.02721170360589345,0.053232794770915665,0.031244577596342485,0.027484067165636273,0.03047252703014417,-0.03468880110561393,-0.07050883538030542,0.026749116908658895,-0.00985483604099587,0.008003202513621953,0.044752255480185583,-0.02367450302353773,0.05990809414874927,-0.004606457872568366,-0.007366683198412396,-0.021712762963028546,0.027474787325664694,-0.0546417676210961,0.031968046216714875,-0.047220007353275854,-0.03758773893621667,0.04060893782727537,0.010406938710723575,-0.005791008547846286,-0.000813493720474124,-0.027578820669380114,-0.0818764631818222,-0.002552059288395029,-0.057031477669823714,0.030682337795924837,-0.0033891121793562244,0.019356941138071036,-0.004182526178388387,0.03540957526796624,-0.002897179125277081,-0.06855973363400489,0.034341436025818156,0.025146932892505323,0.013726905684285366,0.00428130737999949,0.11170311148445514,0.047348864815946565,0.019955727328804906,-0.011313790402538404,0.028475672008959587,0.007506780961868264,0.013550344757834832,-0.12148381115613896,0.05543212085284053,-0.06707156516285613,0.026913261301533358,0.016297940975911078,-0.023419890030901912,0.07261982489345845,0.04503809220411204,-0.004353444207405018,-0.03150249404545148,-0.03017803004576919,0.018928362596399795,0.017911398368108764,-0.025657465627004942,0.012490169879348234,-0.039350735581585757,-0.004460496688656293,-0.006183001631211916,0.020691340625390454,0.0008161218146308295,-0.009400966833427223,-0.028568215159393204,0.04298029137100053,-0.045054154007744734,-0.04461573774281242,-0.011616834313821016,0.03412068569340587,0.0003660594247122215,-0.03607981030664221,-0.03968628167487489,-0.05509584588605538,-0.024818746894901992,0.004957933094997588,-0.0005764003336505452,-0.027387660433462076,0.0045157148746724895,0.061098667810886374,-0.0301041373718215,0.03688865166336822,0.07218836558857455,-0.003770223433982863,0.013024290528377117,0.018385586803733447,-0.03063028688253556,0.004669138051330547,-0.033622246146677845,0.0015511749494706217,0.01593365309926217,0.00018444289498847785,0.015615129820687685,0.03264803531767034,-0.01940045547309332,0.06053897482626337,0.06562307547299097,-0.06607916923591318,-0.010492238693057088,0.034216396612923125,-0.014899708890755784,-0.01392962417393436,-0.028441621761108295,0.008150581241437617,0.030408395476387268,-0.007235919566113434,0.032374679072653116,0.014719485331133458,0.021438450218242748,-0.04731193744532038,0.010967716497721812,-0.00820002787493368,-0.09396516351270184,0.04268773058875133,0.030045089405397185,0.0021295344817987023,-0.01058720833008709,0.025132030635917388,-0.024926506201286516,0.031504045757003614,-0.017613544828287947,0.018250444767387297,-0.04700695132481832,0.015014350983239605,0.022075610469652982,0.03867306805311303,-0.02658731102229654,-0.09594042728822828,-0.010953416250294404,-5.280236311847217e-05,0.0018048943964359314,-0.002871503300695937,0.036517155362700136,0.009112220669145833,-0.027422271469608715,-0.053639775135410885,-0.012581309273223406,0.024202345812469436,-0.04436142003897253,-0.018782294287508224,0.004700294788592787,0.004468809455894308,0.00700103503430476,0.020399598840818243,0.05853454591016414,-0.01235870511111866,0.020645167607146842,0.03432112493707276,0.0533971347559938,-0.013954680750657497,0.0399413685144168,-0.016600130151951123,-0.02280091487911628,-0.00724482085453876,-0.004261799927859988,-0.008273609626790147,0.051234863873111526,0.00838985778292492,0.08791937594332286,0.04793990398968613,-0.030060436701366256,0.06642108427172332,0.005992201854634401,-0.07186405852808832,-0.055575767399739004,-0.04192366685091405,-0.029706935476957352,-0.053541057818302686,0.034197351822353075,-0.012144824498950909,-0.048830658087151854,0.007801347433504715,-0.049570842892441035,-0.019300857575720178,-0.004185492345956839,0.03443090101234297,0.003476645203318117,-0.007443638127932855,0.047076419845440295,-0.001755603974983809,0.024460902006041563,0.032198760383239974,0.03712458486730643,-0.009034226012036885,-0.04839643727574109,0.03165624966606298,0.037046981154583006,-0.027247111110534235,-0.016349310526969963,0.04599812077031447,-0.035805930833702745,0.01167994274495883,-0.07846704058894444,-0.02023444306198403,-0.0700905226598276,0.0018427666936580087,-0.04787576692211508,-0.0034357590401587965,-0.004153024333957724,-0.023298814453318252,0.008524624376500227,-0.034312295601108385,-0.012056967219126762,-0.004778077066262443,0.012015561653826308,0.024908022877164,0.025852511068353696,-0.0019957994963447356,-0.01703147608575308,0.03290673599418997,0.005249518868591501,0.032959554002700384,-0.034289782502252925,0.047077112102341466,-0.020400279290966526,0.08880935033540992,0.002434540768135205,0.025164209896487044,0.009615394534641282,0.07240551411131882,-0.012003169398828919,-0.06129900240098215,-0.013279605307166332,-0.009090630508844066,0.014105768048185518,0.0011106542816934947,0.0832946556452662,0.017767727101303706,0.07476896673375762,-0.01644424436145566,-0.10613964884493984,-0.014755043832602207,-0.013223956847328478,-0.013334036907865953,-0.07570400475495269,-0.03561570536545949,-0.04029802946363568,-0.01739358911450836,-0.006375502276016664,0.00466900900330314,0.014522177634535477,0.04786074822784329,-0.018964382175575445,-0.0482338151889887,0.018066042134707812,0.04091441768399194,0.026114378485974227,-0.010228677854150487,0.03274311217465185,0.00834832246066066,0.020932551064652014,-0.09360317097119185,0.02690833600894558,0.023973033792327028,0.0495372335134372,-0.04543692915942408,0.04038444542159203,-0.009891731203865623,-0.029255204500163993,-0.057887166876272544,0.004565764339051781,0.008108165902048662,-0.014414504515162931,-0.0025270057541870073,-0.05451530350921138,0.017586533861425575,-0.01465163575720922,0.06326632024997964,0.023962217667035636,0.020296590351842232,-0.04028812864128458,-0.019089342284851315,0.006429393384162938,-0.03065667541544332,-0.006778800263609611,-0.06684538522417204,0.02663525510474687,-0.003869830684361317,-0.023102520100998447,-0.05449896508997958,0.08637042673834673,-0.01887990110080784,-0.04908244734617149,0.02591739366679316,0.055487627943621436,-0.05761338326452777,0.004551046295581324,-0.021445301003462588,-0.014852126181128475,0.0011241689325441433,-0.04913890376050954,-0.043530374388504114,0.05835753293450268,-0.003875213449244684,-0.01977518522652851,-0.05757591703071339,-0.06933801956768292,-0.054275893234454656,-0.008832091144384718,0.0396912047967512,-0.10645261580123867,0.037282118776795645,-0.018616685986696163,-0.03112498355920709,-0.06193343074303485,-0.001380655914185058,-0.03446642274921637,0.01906052485960667,-0.009000923109093981,0.003480081301533261,-0.023304896365870246,-0.023418724772933663,-0.010640490136376331,0.003076660497618814,-0.03567468686094295,0.0007083168114103614,-0.01900558232737219,-0.10775871581785382,0.019166516729465215,0.04021686917587653,-0.006526547630586554,-0.017055245064034594,0.019206506941088733,-0.01675499049950554,0.010467721795631126,-0.016903905267320288,-0.0042978534682571274,-0.00233344536191697,-0.05428890639830247,0.009734388268231928,-0.04309396446603787,0.03799555694223518,0.03147946285241293,0.0004959240739833622,0.027479028777246464,0.02107725922282455,0.03939629143960424,0.0026287306681455585,-0.004363678897156913,-0.04720776758267354,-0.055941733196463665,-0.02200916547675774,0.00198751352601425,0.040552276678966666,-0.06253915695639874,0.053815382438068146,-0.020129059035782076,-0.03476149037766738,-0.0013101519858078456,0.008081231529143721,0.002426748547656616,0.04468989417020595,-0.04689345800881356,0.027346295922748832,0.07313278151480164,-0.05412957730556691,-0.010141746954987003,0.012286729267667737,0.00020169166360579517,0.03277703962049431,0.01870754401859177,0.021051461497612108,0.001198312031093426,-0.052162958342749005,0.05368475069806057,0.02562079699983999,-0.019999604168981652,-0.006229012341364793,0.0432653520442076,0.013461804738880161,-0.03143001216453919,-0.07358348543222873,-0.03231423642521665,-0.03265838969462428,0.008666068059109914,0.035566879001456456,-0.007334851410973599,0.0025597512796277045,-0.046576489211480374,0.04458716378280945,0.021633159042603854,-0.059540856666223496,0.018702423851521148,-0.043829805182075465,-0.07053929452627426,0.023362630031168608,-0.00856961753129061,-0.024985197969233756,0.0040782330967879706,-0.06654933724756136,-0.04913533855675411,-0.03210840189061227,0.03507008718038078,-0.006860740738602132,0.014514833304602077,-0.0778236209209186,-0.0628749631016259,0.028641838313091975,0.0027144665493615667,0.00356048520281158,0.028053275844464726,-0.02739006179818944,-0.005173470826606681,0.05335685605571457,0.05965104381831411,-0.0233156003301368,0.003742742084367592,0.0064583604299612045,-0.021156602219750117,-0.030275012671346035,-0.0027976530837201274,0.000666807042699737,-0.015709689377350684,-0.024464571649007144,-0.034679409134473926,0.05084946396760403,0.06778131854603427,-0.00353652460315811,-0.10227853787529746,-0.03209148588910042,0.013667134266618952,0.07182800042752031,-0.027361083341609835,-0.05156828006854788,-0.05451474748236061,0.007268851582147152,0.026582538381670892,0.020962652837905556,0.013282042339144236,0.02909150049178336,-0.021405149548281172,-0.026946173022211705,0.0206907085898648,-0.09171017470200522,-0.0030187270574690995,0.050128522691389156,0.003086508192286656,